{"format": "language_conditioned_diffusion_policy", "version": "1.0", "num_params": 157668, "architecture": {"num_intents": 2, "img_size": 128, "action_dim": 4, "chunk_size": 5, "d_model": 64, "n_heads": 2, "n_enc_layers": 1, "n_dec_layers": 1, "n_spatial_tokens": 64}, "diffusion": {"training_steps": 1000, "inference_steps": 20, "beta_start": 0.0001, "beta_end": 0.02, "scheduler": "linear", "sampler": "ddim"}, "intent_labels": ["always_take_left", "always_take_right"], "weights": {"spatial_pos": {"shape": [64, 64], "data": [0.07164371013641357, -0.05450884997844696, -0.010467019863426685, -0.10865609347820282, 0.044431284070014954, -0.07822748273611069, -0.08226995915174484, 0.0866231843829155, 0.16445627808570862, -0.011553199961781502, -0.20477455854415894, 0.0339934416115284, 0.020577862858772278, -0.1469416618347168, 0.19216349720954895, 0.04637391120195389, 0.11206261813640594, 0.08717230707406998, 0.10843582451343536, -0.05668065324425697, -0.08904139697551727, 0.006444216705858707, -0.01443963311612606, -0.005896357353776693, -0.10971177369356155, -0.06877833604812622, -0.06617796421051025, -0.004692438989877701, -0.04204244911670685, 0.055886585265398026, 0.151943638920784, 0.09620865434408188, 0.04185902327299118, 0.18555504083633423, 0.18829944729804993, 0.02834346331655979, 0.0007685936870984733, -0.0940077155828476, 0.15047205984592438, 0.051201555877923965, -0.03761161118745804, 0.05039847642183304, -0.1949944943189621, -0.17002612352371216, 0.10513316839933395, -0.16793087124824524, 0.05142364278435707, -0.13686047494411469, -0.15225769579410553, -0.0038627975154668093, 0.08311565965414047, 0.021754302084445953, -0.014099594205617905, 0.07839156687259674, 0.03945552557706833, -0.04112847521901131, -0.18497131764888763, 0.0627729520201683, 0.06713424623012543, -0.22323495149612427, 0.07262174040079117, 0.020847676321864128, 0.047172099351882935, -0.14246270060539246, 0.13707920908927917, -0.1527480036020279, -0.013088439591228962, -0.11951441317796707, 0.08428814262151718, -0.1238032728433609, -0.08940261602401733, 0.141198992729187, 0.06927371770143509, -0.09368528425693512, -0.3222864270210266, 0.04508553072810173, -0.06983696669340134, -0.15743649005889893, 0.21806924045085907, 0.11223132908344269, 0.0603804811835289, 0.08101921528577805, 0.0643685981631279, -0.04456397145986557, -0.12700609862804413, 0.12096390873193741, 0.060426075011491776, 0.021935967728495598, -0.12489203363656998, -0.08514396846294403, -0.163325697183609, -0.0922723039984703, -0.07061045616865158, -0.0011065355502068996, 0.13004028797149658, 0.08402294665575027, -0.057497888803482056, 0.2361205816268921, 0.1607685536146164, -0.06413490325212479, -0.00948086567223072, -0.0066961124539375305, 0.13891486823558807, -0.03586629778146744, 0.02427353337407112, 0.09380842000246048, -0.28079190850257874, -0.2769685387611389, 0.004264589864760637, -0.17124269902706146, 0.09335232526063919, -0.15543457865715027, -0.15038974583148956, 0.03304313123226166, 0.06897874921560287, 0.06578731536865234, -0.03387846797704697, 0.12144121527671814, 0.09048109501600266, 0.10681050270795822, -0.08942253887653351, 0.042270857840776443, 0.0969267338514328, -0.3133753836154938, 0.08229362219572067, 0.03024410828948021, -0.07809429615736008, -0.07715536653995514, 0.09926747530698776, 0.1360396146774292, -0.009092424996197224, 0.17496903240680695, 0.05967412516474724, -0.09703873842954636, 0.12921637296676636, -0.08951947093009949, 0.009954437613487244, -0.01510536763817072, -0.012459229677915573, 0.20417675375938416, 0.05332837253808975, 0.022913319990038872, 0.005366834811866283, -0.021457139402627945, -0.16410031914710999, 0.09643930941820145, 0.22363026440143585, 0.17261286079883575, 0.13410255312919617, 0.08763185143470764, -0.02882302924990654, -0.013228002935647964, -0.033626727759838104, -0.14881716668605804, 0.059498380869627, 0.14168179035186768, -0.030126625671982765, -0.03727239742875099, -0.14467419683933258, 0.14079374074935913, 0.019573017954826355, -0.04994373396039009, 0.05939331278204918, -0.02446594648063183, 0.1493975818157196, 0.2300933599472046, 0.1522965133190155, -0.02471722476184368, 0.059359513223171234, -0.10625976324081421, -0.06303350627422333, 0.007949749007821083, -0.2091512680053711, 0.14086177945137024, -0.03980070725083351, 0.18348032236099243, -0.4238223135471344, -0.5955519080162048, -0.1364094316959381, -0.050701603293418884, 0.13394729793071747, 0.2177266925573349, 0.21342357993125916, 0.12022097408771515, 0.22581958770751953, 0.04891093075275421, 0.07130324095487595, 0.28942927718162537, 0.07837587594985962, 0.1062682569026947, 0.1827465295791626, -0.14369060099124908, 0.10027088969945908, -0.13026002049446106, -0.03979744017124176, -0.12748490273952484, 0.009637557901442051, 0.023766206577420235, -0.03937453404068947, 0.1426999419927597, 0.15471945703029633, -0.010452361777424812, -0.23694145679473877, -0.02132721059024334, 0.03824621066451073, -0.12042208015918732, 0.1866825670003891, -0.007695432752370834, 0.05066811665892601, 0.054330985993146896, 0.07362184673547745, -0.01078436803072691, -0.08190109580755234, 0.08981214463710785, -0.023972978815436363, 0.030566232278943062, -0.07894844561815262, -0.03775008022785187, -0.14272387325763702, -0.03882989659905434, -0.05393778905272484, 0.03248930722475052, 0.10392255336046219, 0.06915662437677383, -0.013670570217072964, 0.25843653082847595, 0.12855127453804016, 0.08697459101676941, -0.07505171746015549, -0.13175249099731445, 0.1373273730278015, -0.11374311149120331, 0.08726318180561066, 0.12129800021648407, -0.22203752398490906, -0.2798255383968353, 0.057522002607584, -0.17924046516418457, 0.05198414996266365, -0.15521103143692017, -0.09189937263727188, -0.02432553470134735, 0.043570879846811295, 0.09937497973442078, 0.03570643067359924, 0.13421036303043365, 0.08057130128145218, -0.007540143094956875, -0.05001142621040344, -0.0021132128313183784, 0.06113124266266823, -0.25359800457954407, 0.10433404892683029, 0.05593980848789215, -0.05488984286785126, -0.05333594232797623, 0.1250547617673874, -0.12621212005615234, -0.004521768074482679, -0.07087761163711548, -0.05058387294411659, -0.03156048059463501, -0.07110592722892761, 0.14304298162460327, 0.09723164886236191, -0.01140847709029913, -0.15507182478904724, -0.043698109686374664, -0.11596135795116425, -0.0779612585902214, 0.17256666719913483, 0.07480756938457489, 0.05485406890511513, 0.12874835729599, 0.031622886657714844, -0.06911937892436981, -0.15075640380382538, 0.0799846202135086, 0.005747045855969191, 0.028439804911613464, -0.12693090736865997, -0.03126002103090286, -0.16497579216957092, -0.037164393812417984, -0.10586589574813843, 0.007072550244629383, 0.13858437538146973, 0.12167894840240479, -0.013375461101531982, 0.27983522415161133, 0.1181534007191658, -0.036854565143585205, -0.0300002358853817, -0.06817883998155594, 0.1002207025885582, -0.11683802306652069, 0.15424785017967224, 0.08353196829557419, -0.216407909989357, -0.2399269938468933, -0.004804559983313084, -0.15894052386283875, 0.04143289849162102, -0.08968354016542435, -0.13611824810504913, -0.0020666648633778095, 0.06670784950256348, 0.079261913895607, 0.007319961674511433, 0.10153313726186752, 0.07221122831106186, -0.0026779859326779842, -0.13472557067871094, 0.02965947613120079, 0.1096758171916008, -0.2538788914680481, 0.06930697709321976, 0.02463899366557598, -0.0712781772017479, -0.022355923429131508, 0.09074621647596359, 0.2046707719564438, -0.042583663016557693, 0.01822456531226635, -0.04242407903075218, 0.1441938430070877, 0.04689420014619827, -0.051222704350948334, 0.06813755631446838, -0.013228395022451878, 0.05207955464720726, -0.06556296348571777, -0.030069885775446892, 0.08694849908351898, -0.10260553658008575, -0.1116742342710495, 0.016653357073664665, 0.029768425971269608, -0.0742008164525032, -0.11350437998771667, 0.035411588847637177, -0.026667395606637, -0.031246554106473923, -0.16341429948806763, 0.0028979044873267412, -0.05177931860089302, 0.09520642459392548, -0.04721999540925026, -0.06985796988010406, -0.07605047523975372, 0.023088917136192322, 0.11479691416025162, 0.010687818750739098, 0.003954186569899321, 0.031270891427993774, 0.22198064625263214, 0.08236768841743469, 0.08573469519615173, 0.10410625487565994, 0.03563550487160683, 0.13583815097808838, -0.03386743366718292, 0.020850293338298798, 0.23620833456516266, 0.15994858741760254, 0.006618880201131105, 0.022109931334853172, -0.04644785821437836, 0.1365695595741272, 0.03632933646440506, -0.0011100044939666986, 0.06278088688850403, -0.044084321707487106, -0.14547786116600037, -0.17862030863761902, -0.042487334460020065, -0.3033035099506378, -0.021917078644037247, -0.12880276143550873, -0.15980981290340424, -0.03907217085361481, 0.010798437520861626, -0.10268314927816391, -0.12336090952157974, 0.06759092956781387, 0.09568227827548981, -0.050006985664367676, 0.07124064862728119, -0.03661404922604561, 0.19561520218849182, 0.07224326580762863, -0.020938081666827202, 0.05882912501692772, -0.016994377598166466, 0.015016856603324413, -0.039975378662347794, 0.007508835289627314, 0.020051805302500725, -0.10921240597963333, -0.0367831327021122, 0.0260111503303051, 0.014888409525156021, -0.015096606686711311, -0.10743775963783264, -0.030075913295149803, -0.06408526748418808, 0.01085298415273428, -0.14919358491897583, -0.02739163115620613, -0.07101543992757797, 0.13013440370559692, -0.033055003732442856, -0.050547581166028976, 0.021368473768234253, 0.08674594014883041, 0.13898557424545288, 0.027424437925219536, -0.04458390176296234, 0.02911994792521, 0.0914820060133934, 0.0909305289387703, 0.035019248723983765, 0.10989630222320557, 0.03592107817530632, 0.21440498530864716, 0.045243147760629654, -0.02089567855000496, 0.19806213676929474, 0.26749417185783386, -0.05981886386871338, 0.0429791659116745, -0.05356533080339432, 0.05669374391436577, 0.09082351624965668, 0.03018995374441147, 0.026581479236483574, -0.021477477625012398, -0.049498412758111954, -0.10095290094614029, -0.08320252597332001, -0.36005184054374695, -0.030892660841345787, -0.2033546417951584, -0.21924731135368347, -0.06707251071929932, -0.06912283599376678, -0.19418545067310333, -0.19732853770256042, 0.050685882568359375, 0.17473889887332916, 0.056659821420907974, 0.03228262811899185, -0.021160829812288284, 0.13859347999095917, 0.06151958927512169, -0.11456034332513809, -0.05778124928474426, -0.044175345450639725, 0.04844825714826584, -0.1198308914899826, -0.03696903958916664, 0.05776767060160637, -0.10143518447875977, -0.00027554630651138723, 0.02914620190858841, 0.047777216881513596, -0.0046905651688575745, -0.11700735986232758, -0.017171090468764305, -0.048972342163324356, 0.03938214108347893, -0.2117740660905838, -0.03774780407547951, -0.023597951978445053, 0.1934461146593094, -0.052919067442417145, -0.04512552544474602, -0.005154220853000879, 0.07414937019348145, 0.08868277072906494, 0.020623456686735153, 0.011143993586301804, -0.03228617459535599, 0.16719861328601837, 0.14695094525814056, -0.025238223373889923, 0.07652465254068375, 0.04263478145003319, 0.18739058077335358, -0.041267555207014084, -0.0016646793810650706, 0.16695791482925415, 0.19560842216014862, 0.01101625058799982, -0.07752985507249832, -0.09140866994857788, 0.08327298611402512, 0.12027840316295624, -0.005385830067098141, 0.05266880616545677, -0.038975510746240616, -0.03983199596405029, -0.17695589363574982, -0.08320363610982895, -0.3417607843875885, -0.1289697289466858, -0.1429208666086197, -0.3223643898963928, -0.05373730883002281, -0.044537581503391266, -0.15877453982830048, -0.11619774252176285, -0.02229180373251438, -0.07681908458471298, -0.029195191338658333, -0.05749591067433357, 5.682251867256127e-06, -0.03462611511349678, -0.04651857912540436, 0.07928416877985, 0.0725344568490982, 0.156733900308609, -0.1297806054353714, -0.04895862191915512, -0.012197494506835938, -0.10104826092720032, 0.1715477555990219, 0.006627988535910845, 0.07305856794118881, 0.04220785200595856, 0.14377936720848083, -0.01114571187645197, -0.11132986843585968, 0.05999736860394478, 0.006107572931796312, -0.030074508860707283, -0.026243751868605614, -0.12205865234136581, 0.0015127272345125675, -0.0028674916829913855, -0.05437041446566582, 0.10984737426042557, 0.10777579993009567, 0.0704360157251358, 0.007285642437636852, 0.05197964981198311, 0.13728755712509155, -0.034096185117959976, -0.006076968740671873, -0.12317220121622086, 0.20252619683742523, -0.00824547279626131, 0.0910181775689125, 0.0877869501709938, -0.1271865963935852, -0.014930032193660736, 0.07735879719257355, -0.1732153296470642, 0.093439482152462, -0.06399209052324295, -0.13907308876514435, -0.1245407983660698, 0.021476566791534424, -0.03696367144584656, 0.0331621989607811, -0.030796246603131294, 0.09581508487462997, -0.1387697011232376, -0.0939130038022995, 0.06414755433797836, -0.011867478489875793, -0.08680377900600433, 0.03869495913386345, 0.018579449504613876, 0.04428529739379883, -0.0786229819059372, -0.057112231850624084, -0.01890839822590351, 0.007973711006343365, -0.07779113203287125, -0.05830496922135353, -0.006702925078570843, -0.027132226154208183, 0.06415803730487823, 0.1573663204908371, 0.14573374390602112, -0.15998828411102295, -0.009457115083932877, 0.025547975674271584, -0.054260436445474625, 0.25520598888397217, 0.0571739636361599, 0.07247165590524673, 0.09785641729831696, 0.11954046040773392, 0.05827412009239197, -0.1360209584236145, 0.03799205645918846, -0.01090583112090826, -0.022130129858851433, -0.021252242848277092, -0.09379120171070099, -0.024089250713586807, 0.052243445068597794, 0.020229855552315712, 0.0691836029291153, 0.1518772691488266, 0.07420352101325989, -0.019670402631163597, 0.06039350479841232, 0.12919802963733673, -0.029299315065145493, 0.06735870987176895, -0.10073846578598022, 0.24494901299476624, -0.06458520144224167, 0.07781975716352463, 0.03588028624653816, -0.1802244335412979, -0.04943186789751053, 0.07110518217086792, -0.2259456217288971, 0.08398201316595078, -0.11336107552051544, -0.15248939394950867, -0.14020097255706787, 0.05546048656105995, -0.009067717008292675, 0.0017911528702825308, 0.05990365520119667, 0.059285204857587814, -0.11714208871126175, -0.147696390748024, 0.021311303600668907, 0.010349382646381855, -0.152984157204628, -0.08866523951292038, -0.057283755391836166, 0.050810541957616806, -0.049342233687639236, 0.07802042365074158, 0.22217649221420288, -0.013341051526367664, 0.1538274884223938, -0.03388829156756401, 0.1082436591386795, 0.13616837561130524, -0.11704903841018677, -0.057996515184640884, -0.004226346500217915, 0.11347578465938568, -0.06976445764303207, -0.10740110278129578, -0.013215114362537861, -0.08125298470258713, -0.12082242220640182, 0.011379544623196125, 0.013327782042324543, 0.0005719084292650223, -0.05721087008714676, 0.08103800565004349, 0.020920174196362495, -0.00031716516241431236, -0.12163668870925903, 0.04308100789785385, -0.09905285388231277, 0.21732689440250397, 0.08721330761909485, -0.01841207779943943, -0.044447191059589386, 0.047352805733680725, 0.1371091604232788, 0.09415039420127869, -0.055395033210515976, 0.004545586183667183, 0.11893324553966522, 0.09101710468530655, 0.10761550068855286, 0.18410128355026245, 0.05242373049259186, 0.19477757811546326, 0.002803714945912361, 0.012175464071333408, 0.24722424149513245, 0.06032082438468933, 0.07351892441511154, -0.03414918854832649, -0.0969633236527443, 0.04795724153518677, 0.022315330803394318, -0.015246505849063396, -0.03011813946068287, -0.05692105367779732, -0.12981560826301575, -0.12904490530490875, -0.06339875608682632, -0.23997177183628082, -0.02421986497938633, -0.14446735382080078, -0.17397798597812653, -0.021009424701333046, 0.05018489062786102, -0.08517707884311676, -0.15763957798480988, -0.04446171596646309, 0.043543413281440735, -0.021967504173517227, 0.056331817060709, -0.09575527906417847, -0.12434227019548416, 0.08496908098459244, -0.1686733514070511, -0.08472845703363419, -0.07278301566839218, -0.006185472477227449, -0.06433101743459702, -0.03075888380408287, -0.04576096311211586, 0.1373758614063263, 0.0026452948804944754, 0.11505690217018127, 0.046825189143419266, 0.07049331068992615, 0.011928127147257328, -0.1084737777709961, -0.08702392131090164, 0.08603007346391678, -0.07138083130121231, -0.06153583154082298, -0.05754484981298447, -0.00018760174862109125, 0.08098333328962326, -0.026524068787693977, -0.06162703409790993, 0.11868223547935486, -0.05935299023985863, -0.08879178762435913, 0.040975917130708694, 0.09200801700353622, 0.03779769688844681, 0.08900902420282364, -0.07046390324831009, 0.13977207243442535, 0.0024948043283075094, 0.06961362063884735, -0.021848222240805626, -0.054488684982061386, -0.06369893252849579, -0.0077679576352238655, -0.17596641182899475, -0.05008624866604805, -0.015196253545582294, -0.10142911970615387, -0.05954854190349579, 0.02639373019337654, -0.027156541123986244, 0.05311375483870506, 0.07174412906169891, 0.06841953098773956, -0.15715718269348145, -0.157162606716156, -0.005025473888963461, -0.005320446100085974, -0.06140938401222229, 0.014373351819813251, -0.0329401008784771, 0.04797709733247757, 0.023139774799346924, -0.1086605042219162, 0.0379805788397789, 0.051609694957733154, 0.05943926423788071, -0.021576611325144768, -0.0082471938803792, 0.053617287427186966, -0.011315444484353065, 0.0035606708843261003, 0.06723367422819138, -0.039084602147340775, 0.016930000856518745, -0.031557321548461914, 0.0031246133148670197, 0.19013334810733795, 0.006451558321714401, 0.07710680365562439, 0.08808035403490067, 0.13853788375854492, 0.0371180921792984, -0.11870370805263519, -0.02456880733370781, 0.024984998628497124, 0.012418895028531551, -0.009830917231738567, -0.09821329265832901, 0.048583053052425385, 0.05298209935426712, -0.07759827375411987, 0.011547124944627285, 0.1709965467453003, 0.019340841099619865, 0.004063453990966082, 0.043433189392089844, 0.12178623676300049, 0.041244618594646454, 0.11084537208080292, -0.08635886758565903, 0.15272265672683716, -0.03580090403556824, 0.1764228492975235, -0.014075977727770805, -0.13105468451976776, -0.10008502006530762, 0.00747468788176775, -0.14450696110725403, 0.027096958830952644, -0.12964320182800293, -0.12656600773334503, -0.23037005960941315, 0.039317887276411057, -0.02264457754790783, 0.025397252291440964, -0.0027900957502424717, 0.10190188139677048, -0.1807401478290558, -0.11578857898712158, 0.025511939078569412, -0.033407583832740784, -0.12409254163503647, -0.06545135378837585, -0.0836799219250679, 0.00975095760077238, -0.030281998217105865, 0.06860604882240295, 0.0767834335565567, -0.05175749585032463, 0.1821664273738861, -0.05956512689590454, 0.19652646780014038, 0.1466047614812851, -0.06897339969873428, 0.0327657014131546, -0.007772487588226795, -0.029487626627087593, 0.011682972311973572, -0.05186384916305542, 0.044025272130966187, 0.12531329691410065, 0.015776870772242546, 0.044211067259311676, 0.071470707654953, 0.08153579384088516, -0.02324691414833069, -0.06041906401515007, -0.1533890962600708, -0.04820609092712402, -0.08848734945058823, -0.03331706300377846, -0.07889318466186523, 0.03400162607431412, 0.07103849947452545, -0.08206561207771301, 0.003998030908405781, 0.16841799020767212, 0.20960162580013275, 0.11490583419799805, 0.007729003205895424, 0.08719751983880997, 0.0477224737405777, 0.13835307955741882, 0.004516314249485731, 0.14805276691913605, 0.11832670122385025, 0.2713375389575958, 0.031415119767189026, 0.024773480370640755, -0.00831291638314724, 0.078965924680233, -0.08330722153186798, -0.005127485375851393, -0.11755235493183136, 0.023125730454921722, -0.06999780237674713, 0.08792043477296829, 0.0729188397526741, -0.03988288715481758, -0.0849621444940567, 0.0015096543356776237, -0.245405375957489, -0.3106699287891388, -0.13483168184757233, -0.20800736546516418, -0.22187606990337372, -0.20230115950107574, -0.2149062305688858, -0.22444427013397217, -0.20258402824401855, -0.06504419445991516, -0.10431396961212158, 0.054552946239709854, 0.07952225208282471, 0.008532232604920864, -0.09644531458616257, -0.005457610823214054, -0.041239023208618164, -0.03211226314306259, 0.09671195596456528, -0.056812550872564316, -0.03254598751664162, -0.010825041681528091, -0.0007248074980452657, 0.2556864023208618, 0.10843376070261002, 0.10043108463287354, 0.1092556044459343, 0.1456754207611084, 0.018318768590688705, -0.106439009308815, -0.06404910981655121, -0.0004162036348134279, 0.0023256714921444654, 0.02039225958287716, -0.08879243582487106, -0.0017814526800066233, 0.09508025646209717, -0.06022061035037041, 0.10011730343103409, 0.2498796433210373, -0.04641125723719597, 0.0002235208812635392, -0.014764977619051933, 0.1329636424779892, -0.04294935241341591, 0.008219897747039795, -0.1292276829481125, 0.1038949191570282, -0.060920242220163345, 0.12774083018302917, 0.05090409889817238, -0.015042866580188274, -0.0148012051358819, 0.010561543516814709, -0.14096340537071228, 0.015744145959615707, -0.09979663044214249, -0.15537840127944946, -0.1837163269519806, 0.019091183319687843, -0.0002332865697098896, -0.006031265016645193, -0.023162130266427994, 0.15537430346012115, -0.11136838793754578, -0.14970996975898743, -0.010967859998345375, -0.008225970901548862, -0.13942374289035797, -0.17284680902957916, -0.2051008641719818, 0.07142315059900284, -0.08872563391923904, 0.034670211374759674, -0.23700113594532013, 0.15308856964111328, 0.000817780673969537, 0.02979130856692791, 0.05879437178373337, -0.06035785377025604, 0.1718933880329132, 0.024604836478829384, 0.1340118646621704, -0.17469269037246704, -0.005829292349517345, -0.03840726241469383, -0.0374164953827858, 0.2708478569984436, 0.028719855472445488, 0.056570786982774734, 0.07843100279569626, 0.21941587328910828, 0.05757724121212959, -0.187518909573555, 0.013601647689938545, 0.049381982535123825, 0.013960086740553379, -0.04872118681669235, -0.0520576648414135, -0.15903811156749725, 0.10730119049549103, -0.06840644776821136, 0.24262084066867828, 0.24625810980796814, -0.008208733052015305, 0.049753766506910324, 0.046504486352205276, 0.2862309217453003, -0.14818240702152252, -0.026344073936343193, -0.09341003000736237, 0.05355467274785042, -0.0656823068857193, 0.04129534587264061, 0.11191397905349731, -0.11129201203584671, -0.20123152434825897, -0.03370831906795502, -0.21316328644752502, 0.15354308485984802, -0.11302665621042252, -0.19785431027412415, -0.2843973636627197, 0.05779542028903961, 0.017811693251132965, -0.04294266179203987, -0.015974953770637512, 0.16805529594421387, -0.03112863190472126, 0.09743170440196991, -0.050512947142124176, -0.046094976365566254, -0.1269998699426651, -0.1872083991765976, -0.24387341737747192, -0.08963289856910706, -0.21536819636821747, -0.03288174048066139, -0.08542181551456451, 0.03407033160328865, -0.09808550775051117, 0.02094474621117115, -0.10054244846105576, -0.07204001396894455, 0.10105077177286148, 0.026833226904273033, 0.07555581629276276, -0.1677800416946411, 0.11147155612707138, 0.058550018817186356, -0.12615111470222473, 0.11476489901542664, 0.08473584800958633, 0.020352166146039963, 0.061946891248226166, 0.14057332277297974, 0.05913705751299858, -0.11079902946949005, 0.05073383450508118, 0.014714367687702179, 0.05220680311322212, -0.032937441021203995, -0.06443362683057785, 0.050059206783771515, 0.04403920844197273, 0.030166199430823326, 0.10222100466489792, 0.14423489570617676, 0.10106883943080902, 0.044040437787771225, 0.0791320949792862, 0.10810825973749161, -0.12148747593164444, 0.030591340735554695, -0.12480767071247101, 0.17572742700576782, -0.10017049312591553, 0.018029579892754555, 0.04513489827513695, -0.18122266232967377, -0.18381832540035248, 0.06605418771505356, -0.19952845573425293, 0.11798567324876785, -0.11140039563179016, -0.16245907545089722, -0.0959615409374237, 0.036462876945734024, -0.003501957282423973, -0.05451897531747818, 0.08306244015693665, 0.13012342154979706, -0.004133338108658791, -0.11421376466751099, 0.05285987630486488, -0.03649512678384781, -0.14297038316726685, 0.06050191819667816, 0.007183569483458996, -0.011476229876279831, -0.07575160264968872, 0.01582675240933895, 0.07344413548707962, 0.15694430470466614, 0.01638440228998661, 0.12476702034473419, 0.10482745617628098, -0.08311504870653152, -0.016032559797167778, 0.0872626006603241, 0.01885560154914856, -0.036174122244119644, -0.04896163567900658, 0.12701773643493652, -0.03953463211655617, -0.18329940736293793, -0.023561401292681694, 0.08918976038694382, -0.04476333409547806, -0.026159318163990974, -0.11344404518604279, -0.02708747796714306, 0.011585087515413761, -0.016124224290251732, -0.09428103268146515, -0.10528034716844559, -0.10102816671133041, 0.13474492728710175, -0.10896831750869751, 0.017260966822504997, -0.05719124525785446, -0.05800735950469971, 0.1649986207485199, 0.08440303802490234, -0.07478258013725281, -0.07594959437847137, 0.037585753947496414, 0.09527912735939026, -0.10266495496034622, 0.0116721261292696, -0.03969714045524597, 0.06807631999254227, -0.021240226924419403, -0.14043211936950684, 0.15879373252391815, 0.2610185146331787, -0.01915203034877777, 0.08685759454965591, 0.09435003250837326, -0.021214919164776802, 0.032449014484882355, 0.04087112471461296, 0.05161873251199722, 0.0467601977288723, 0.07367849349975586, -0.12379423528909683, 0.06355340033769608, -0.010270711034536362, 0.04537844657897949, -0.2251412570476532, -0.24011626839637756, 0.007812093943357468, 0.03248455747961998, -0.23855847120285034, -0.1335785835981369, 0.16596029698848724, 0.05475544184446335, -0.06823326647281647, 0.013728242367506027, 0.040436048060655594, 0.21617791056632996, 0.05244394391775131, -0.1400519609451294, -0.27495795488357544, -0.08379573374986649, 0.048257481306791306, -0.18960517644882202, 0.12284862250089645, -0.23899076879024506, -0.18446020781993866, -0.1301918774843216, -0.03541393205523491, -0.019233793020248413, -0.12457149475812912, -0.10119999945163727, 0.19603405892848969, -0.10786895453929901, 0.02984311617910862, -0.0624249093234539, -0.005674771964550018, -0.13900253176689148, 0.27419236302375793, 0.0819987878203392, -0.013151910156011581, -0.1494062840938568, -0.07461896538734436, 0.013867528177797794, 0.0346054881811142, 0.19807150959968567, -0.3070521056652069, -0.06844356656074524, 0.10341675579547882, -0.05327700078487396, 0.12090976536273956, -0.1971045732498169, 0.10002242028713226, -0.033316683024168015, -0.0103792455047369, 0.030979357659816742, 0.17979851365089417, -0.09047067165374756, 0.17957089841365814, 0.04367528855800629, -0.027490532025694847, 0.06961428374052048, 0.013389810919761658, 0.019144941121339798, 0.15124845504760742, 0.01705535314977169, -0.028988217934966087, 0.0730908140540123, 0.18300360441207886, -0.01447413768619299, 0.015595928765833378, -0.13183030486106873, 0.08502829074859619, 0.05378672108054161, -0.11695224046707153, -0.21008245646953583, 0.10472389310598373, 0.09307807683944702, -0.020625093951821327, 0.13242369890213013, 0.08550973236560822, 0.2504243552684784, -0.0030095959082245827, -0.06705540418624878, -0.006359928287565708, 0.09543111175298691, -0.08434662222862244, 0.03458981588482857, -0.09220821410417557, -0.039106473326683044, -0.07734815776348114, 0.040445294231176376, 0.07484585046768188, 0.07476107776165009, -0.012327627278864384, 0.058452263474464417, -0.03836687281727791, -0.21898949146270752, 0.0790943056344986, -0.10550577193498611, 0.11753251403570175, 0.0007897872710600495, 0.018511291593313217, -0.04250090569257736, -0.06232156604528427, 0.08374569565057755, 0.10586553066968918, 0.1374807059764862, 0.07942744344472885, 0.04651888832449913, -0.010747012682259083, 0.17698934674263, 0.17474547028541565, -0.09678984433412552, 0.11285755783319473, 0.060636330395936966, 0.14213614165782928, 0.01862362027168274, -0.02536601573228836, -0.03361835703253746, 0.13738593459129333, 0.05321646109223366, 0.09929293394088745, -0.07810906320810318, -0.03740445151925087, 0.02348971739411354, -0.03730829805135727, -0.07177194207906723, 0.05175330117344856, -0.005100250244140625, 0.11830490827560425, -0.09958069026470184, -0.18350879848003387, -0.036549899727106094, -0.2425297349691391, -0.17387814819812775, -0.03915154188871384, -0.11609310656785965, -0.1698567122220993, -0.19751806557178497, 0.0025441618636250496, 0.043364960700273514, -0.2291828691959381, -0.03668154031038284, -0.06270676851272583, 0.16463446617126465, 0.2121172547340393, -0.31321418285369873, -0.10631408542394638, 0.08699436485767365, 0.0037395453546196222, -0.01511146780103445, -0.11786302924156189, -0.011713468469679356, 0.010972877033054829, -0.012842303141951561, 0.06104421988129616, -0.06366368383169174, -0.009742303751409054, 0.06138031929731369, 0.03748852759599686, -0.11243711411952972, 0.18403631448745728, -0.19625072181224823, 0.14394588768482208, 0.09456311911344528, 0.197492778301239, -0.004840579815208912, 0.07274436205625534, -0.030482331290841103, -0.0009111496619880199, 0.08150377869606018, -0.08640764653682709, -0.00039906418533064425, -0.009528684429824352, 0.1451200246810913, 0.09025999903678894, 0.07908236980438232, 0.30128544569015503, 0.05619845539331436, 0.23405721783638, -0.04777631163597107, 0.09616896510124207, -0.0443834513425827, -0.01887114718556404, 0.18673712015151978, -0.28723251819610596, -0.048773057758808136, 0.06955583393573761, 0.1220903992652893, -0.04957125335931778, -0.06265664845705032, -0.07130824774503708, -0.08638755232095718, -0.01673717051744461, -0.18199697136878967, -0.3271217942237854, -0.052608732134103775, -0.1812778115272522, -0.2601986229419708, -0.05278502032160759, 0.020387427881360054, -0.08980143815279007, -0.16313382983207703, -0.06840217858552933, 0.0575081929564476, -0.13058893382549286, 0.12392493337392807, 0.06904681771993637, 0.01930028758943081, 0.2634981870651245, -0.13879217207431793, -0.12182111293077469, -0.08980976045131683, 0.023328177630901337, -0.15659892559051514, -0.11123517155647278, -0.12392838299274445, 0.23678910732269287, 0.0815829262137413, 0.16188578307628632, 0.09996293485164642, 0.18522731959819794, 0.015527473762631416, -0.06432073563337326, -0.06019151210784912, 0.08955615013837814, -0.0022842721082270145, -0.016487592831254005, 0.005258603487163782, -0.06811489909887314, 0.17592114210128784, -0.0779876559972763, 0.2998940646648407, 0.3349907100200653, -0.06662005931138992, 0.16363441944122314, 0.08106892555952072, 0.032123662531375885, 0.14876429736614227, -0.026715613901615143, -0.11088308691978455, 0.20562537014484406, 0.09254810214042664, 0.20420631766319275, 0.07246831059455872, -0.01884847693145275, -0.2249881476163864, -0.17371539771556854, -0.08993438631296158, -0.02600528672337532, -0.21746288239955902, -0.14772507548332214, -0.17221572995185852, -0.04506320506334305, -0.10673277825117111, 0.0003250360896345228, -0.12625356018543243, 0.18364180624485016, -0.21816574037075043, 0.13656604290008545, 0.0013179830275475979, 0.019641393795609474, -0.08276296406984329, -0.02983449026942253, -0.17296801507472992, -0.04969459027051926, 0.09254388511180878, 0.050168104469776154, -0.016155051067471504, 0.05103198066353798, 0.03624153137207031, -0.006238387431949377, 0.010378903709352016, -0.008665510453283787, 0.04209482669830322, 0.020756907761096954, 0.08441552519798279, -0.11454150825738907, -0.053516969084739685, -0.06820672005414963, -0.08562782406806946, 0.29426807165145874, 0.05007551237940788, 0.14638285338878632, 0.0966574102640152, 0.2073826938867569, 0.05884445831179619, -0.15400737524032593, 0.020104866474866867, 0.036630094051361084, 0.042179007083177567, -0.02007904462516308, -0.0596068799495697, -0.16230936348438263, 0.1478879749774933, -0.04751276224851608, 0.40472671389579773, 0.34088847041130066, -0.0653335377573967, 0.1541275978088379, 0.04277357831597328, 0.2521907687187195, -0.04338056966662407, -0.05095382034778595, -0.12640437483787537, 0.04535583779215813, 0.02594686672091484, 0.0733572244644165, 0.15641073882579803, -0.10250072926282883, -0.10237237811088562, 0.037479400634765625, -0.17816250026226044, 0.14199279248714447, -0.173200786113739, -0.17478103935718536, -0.2219301015138626, 0.017345165833830833, -0.03063283860683441, -0.03762446716427803, -0.14730925858020782, 0.15750356018543243, -0.12322831153869629, 0.08797364681959152, 0.014003346674144268, -0.051809899508953094, -0.06489000469446182, -0.18980443477630615, -0.23161625862121582, -0.02704288624227047, -0.041465673595666885, 0.10865414142608643, 0.015707828104496002, -0.05087628960609436, 0.06914111971855164, -0.11686795949935913, 0.11891650408506393, 0.08415291458368301, -0.003915521781891584, 0.10260125249624252, 0.07123395055532455, -0.08616644144058228, -0.02659335359930992, -0.027822766453027725, -0.05529334768652916, 0.21888890862464905, 0.040333475917577744, 0.13042888045310974, 0.10929102450609207, 0.252176970243454, 0.07216781377792358, -0.18511876463890076, 0.03209201246500015, 0.05620362237095833, -0.0264090858399868, -0.007236020639538765, -0.08526810258626938, -0.06593478471040726, 0.10513299703598022, -0.09092459082603455, 0.08493947237730026, 0.2390982210636139, -0.04716969653964043, 0.10970775783061981, 0.06703798472881317, 0.1530994474887848, 0.014845553785562515, 0.06855113059282303, 0.020090728998184204, 0.14943328499794006, 0.05046394094824791, 0.19182512164115906, 0.11465398222208023, 0.037832144647836685, -0.02225934900343418, 0.09441769868135452, -0.10204868763685226, 0.10567551851272583, -0.03188366815447807, -0.10945383459329605, -0.19334620237350464, 0.0500924177467823, -0.018645061179995537, 0.009454276412725449, -0.07267961651086807, -0.02372707612812519, -0.20229966938495636, -0.07518977671861649, -0.0775507315993309, -0.22679415345191956, -0.1208670511841774, -0.26901131868362427, -0.2073085606098175, -0.1989651471376419, -0.12996362149715424, 0.10748963803052902, 0.0923430323600769, 0.04733914136886597, 0.01823352836072445, -0.025526396930217743, 0.10611886531114578, -0.04767853394150734, -0.1333015114068985, 0.07243932783603668, 0.04179860278964043, -0.007638960145413876, -0.08180481940507889, 0.036657705903053284, -0.013200514949858189, -0.10533885657787323, -0.045375801622867584, 0.04557562619447708, 0.018559874966740608, 0.028821805492043495, -0.09447087347507477, 0.0780714675784111, -0.04202878102660179, 0.05455388128757477, -0.0812639594078064, 0.06467167288064957, -0.05742993950843811, 0.1189069151878357, -0.03390855714678764, -0.012317994609475136, 0.0131914047524333, 0.08107177913188934, 0.1125178337097168, 0.021877173334360123, -0.0795406773686409, 0.07587292045354843, 0.13851001858711243, 0.06855550408363342, 0.01822335086762905, 0.08451177924871445, -0.017666848376393318, 0.13460257649421692, 0.0059051807038486, 0.0688304677605629, 0.18115542829036713, 0.27512216567993164, 0.01317407377064228, -0.03883408010005951, -0.07124631106853485, -0.022471310570836067, -0.043417852371931076, -0.02547311969101429, 0.05948729068040848, -0.031313877552747726, -0.10996562242507935, -0.0770857036113739, -0.04241081327199936, -0.30845385789871216, -0.033211320638656616, -0.20157088339328766, -0.16394305229187012, -0.10706856846809387, -0.02288760244846344, -0.14449474215507507, -0.09358648210763931, -0.010206478647887707, -0.11595511436462402, 0.14393743872642517, -0.0004234029329381883, -0.005832421127706766, -0.0077736335806548595, -0.0786513164639473, 0.11240451782941818, 0.14745189249515533, 0.20502278208732605, -0.10650508105754852, -0.0015923083992674947, 0.07252885401248932, -0.12352073192596436, 0.08398338407278061, 0.050101347267627716, 0.23167018592357635, 0.05277388542890549, 0.271969735622406, 0.11440901458263397, -0.04138815030455589, 0.0020395969040691853, 0.0860682874917984, -0.001967690186575055, 0.0942457914352417, -0.019891053438186646, 0.08077836036682129, -0.03022145852446556, 0.049746159464120865, 0.1349063366651535, 0.3556905686855316, 0.1218806579709053, 0.15490727126598358, -0.059792760759592056, 0.10240183770656586, -0.1262003481388092, -0.005313590634614229, -0.17911331355571747, 0.1799589991569519, -0.023570898920297623, 0.04114305600523949, 0.07832148671150208, -0.10027152299880981, -0.08069771528244019, 0.1552574187517166, -0.2547197937965393, 0.04286157712340355, -0.14822281897068024, -0.3050769865512848, -0.2014368325471878, 0.011380634270608425, -0.047280050814151764, 0.006406337022781372, 0.09320535510778427, 0.06202521175146103, -0.23570328950881958, -0.09207478165626526, -0.0014194475952535868, -0.16730351746082306, -0.14263997972011566, -0.30361226201057434, -0.18445396423339844, -0.04702720046043396, -0.13691218197345734, -0.10654553771018982, -0.15597671270370483, 0.12817957997322083, -0.04735970124602318, 0.05847824364900589, -0.1006459891796112, -0.135155588388443, 0.09539689123630524, -0.05567196384072304, 0.04774196818470955, -0.05238620564341545, 0.0625436007976532, -0.1597827821969986, 0.10433313250541687, -0.051043204963207245, 0.01800692267715931, -0.1826697587966919, 0.048167116940021515, -0.24950186908245087, -0.035160113126039505, 0.18028700351715088, 0.10328448563814163, 0.046122826635837555, 0.06143481284379959, 0.06946615129709244, -0.0786559134721756, -0.04970790445804596, 0.08304110914468765, 0.24724723398685455, 0.08399506658315659, -0.23649711906909943, -0.06724198907613754, -0.03754638135433197, -0.09773211181163788, -0.02916296012699604, -0.021856192499399185, -0.1474023163318634, -0.06028206646442413, -0.28201091289520264, -0.09323642402887344, -0.21982377767562866, -0.07504265755414963, 0.031225012615323067, 0.1779446303844452, -0.1428077071905136, 0.09323156625032425, -0.07726837694644928, 0.016324767842888832, 0.16564935445785522, 0.16291441023349762, 0.015026380307972431, 0.11113212257623672, -0.12724383175373077, -0.15638387203216553, -0.0036040525883436203, 0.09907414019107819, -0.13559314608573914, 7.670944614801556e-05, 0.10529598593711853, 0.05752592161297798, 0.22037889063358307, 0.181413471698761, 0.03464661166071892, 0.12954771518707275, -0.20020850002765656, -0.020039483904838562, 0.1034361869096756, -0.07791206240653992, 0.07753737270832062, -0.2415405958890915, -0.1445748507976532, 0.041845668107271194, 0.023341672495007515, -0.07166745513677597, 0.04101250693202019, -0.17501115798950195, -0.07108617573976517, 0.025999153032898903, -0.04250863939523697, -0.13597063720226288, -0.42951318621635437, 0.11184713244438171, -0.3133040964603424, -0.11750970035791397, 0.2463512122631073, 0.03611822426319122, -0.1510915607213974, 0.1248297244310379, -0.005195152014493942, 0.02488635666668415, 0.022899843752384186, 0.006611150223761797, 0.3708639144897461, -0.09843401610851288, -0.18150044977664948, -0.1197972297668457, -0.06716017425060272, 0.08260079473257065, -0.07859691232442856, -0.15598668158054352, -0.10996697843074799, -0.0545579195022583, -0.21235981583595276, 0.0450710691511631, -0.3790966868400574, 0.12159602344036102, 0.1382896453142166, 0.03494977205991745, -0.06220855936408043, 0.020296219736337662, 0.04768012464046478, -0.11566752940416336, 0.1599849909543991, 0.1371447592973709, 0.10850819945335388, 0.07959658652544022, -0.25225138664245605, -0.16136609017848969, 0.0797557532787323, 0.2608407437801361, 0.10063981264829636, -0.0026171053759753704, 0.2856646776199341, 0.2586575746536255, 0.38729846477508545, 0.03578317537903786, 0.06842152029275894, 0.08107072860002518, 0.12155598402023315, 0.09729205816984177, -0.04957151040434837, 0.09414605796337128, -0.0864163339138031, 0.23312781751155853, 0.08775897324085236, -0.04075583070516586, 0.087961845099926, 0.07742039114236832, -0.03984879329800606, 0.05605859309434891, 0.015943925827741623, -0.021037092432379723, 0.14958646893501282, 0.05800691246986389, 0.013943766243755817, 0.08095507323741913, 0.13915908336639404, 0.06815128028392792, -0.03199765831232071, 0.029095806181430817, 0.026133164763450623, 0.04484681785106659, 0.030492236837744713, 0.03854598104953766, 0.010236037895083427, 0.08700926601886749, -0.03779872879385948, 0.22366395592689514, 0.42260026931762695, 0.17670685052871704, 0.15144219994544983, -0.0676443874835968, 0.11433925479650497, 0.01595720462501049, -0.050171248614788055, -0.012196534313261509, 0.14641167223453522, 0.08421290665864944, 0.21790876984596252, 0.04455338045954704, 0.11318506300449371, 0.038816340267658234, 0.32992616295814514, -0.01632196269929409, 0.10207874327898026, -0.06807397305965424, -0.07666956633329391, -0.1371130347251892, 0.03806228190660477, -0.005552543792873621, -0.07839776575565338, -0.21371126174926758, -0.10267867147922516, -0.21669819951057434, -0.19726325571537018, -0.15375007688999176, -0.20026157796382904, -0.17420028150081635, -0.2080044001340866, -0.30751627683639526, -0.10586907714605331, -0.24876484274864197, 0.20617718994617462, 0.03546229749917984, 0.006193626206368208, -0.046518757939338684, -0.06357105076313019, 0.32088181376457214, 0.004913959186524153, -0.04796434938907623, -0.1924414336681366, -0.11512339115142822, -0.14024728536605835, -0.06992863863706589, -0.15447385609149933, -0.08996138721704483, 0.07512741535902023, -0.03807889297604561, 0.11596821248531342, 0.05099265277385712, 0.19711920619010925, -0.0017488461453467607, -0.12788373231887817, 0.026639427989721298, 0.08209197223186493, -0.08267822861671448, 0.06658506393432617, -0.012534241192042828, -0.025907492265105247, 0.09180276840925217, -0.18613377213478088, 0.1464264839887619, 0.3805103003978729, 0.1392538696527481, 0.09282809495925903, 0.024728145450353622, 0.13105665147304535, 0.062746562063694, 0.008262794464826584, -0.031775109469890594, 0.0630478784441948, 0.09270692616701126, 0.160459965467453, 0.07928997278213501, 0.03605347499251366, -0.030216697603464127, 0.11135781556367874, -0.07623282819986343, 0.04158490523695946, -0.07918842136859894, -0.09844120591878891, -0.15890845656394958, -0.02853001467883587, -0.018748894333839417, -0.0097346818074584, -0.144151508808136, -0.07539468258619308, -0.1718280017375946, -0.028992582112550735, -0.028679611161351204, -0.11725931614637375, -0.25285041332244873, -0.27713191509246826, -0.29238101840019226, -0.12345214188098907, -0.22814197838306427, 0.18282577395439148, -0.005295497365295887, -0.06412952393293381, -0.027756467461586, -0.0022787086199969053, 0.02431371621787548, -0.05102875828742981, -0.0877595916390419, -0.006800950970500708, -0.02766796201467514, -0.030416257679462433, 0.02392508275806904, 0.0919249877333641, 0.09837796539068222, -0.2794114351272583, -0.00048522104043513536, 0.02436586283147335, -0.3038129508495331, -0.12170920521020889, -0.14695212244987488, 0.05981051176786423, -0.04479655995965004, 0.12594953179359436, -0.15906600654125214, -0.05053183063864708, 0.10352960228919983, 0.06944240629673004, -0.38788869976997375, -0.09692537784576416, -0.025096844881772995, -0.06351064145565033, 0.06880572438240051, -0.03127060458064079, -0.055588334798812866, -0.09203585237264633, 0.008434290997684002, 0.062368378043174744, -0.03145681694149971, -0.11377760022878647, -0.053288694471120834, -0.024138949811458588, -0.09541243314743042, -0.02621525339782238, 0.1083834245800972, 0.005598848685622215, 0.14711397886276245, -0.20893993973731995, 0.10846830904483795, 0.2116796225309372, 0.40715521574020386, -0.1748923361301422, -0.16505098342895508, 0.03432862088084221, 0.4514188766479492, -0.23828688263893127, 0.16971074044704437, -0.018186677247285843, 0.09075064957141876, -0.0739329382777214, -0.03497019782662392, 0.10538805276155472, 0.09276777505874634, 0.027258656919002533, 0.08794724196195602, -0.019855469465255737, -0.05493443086743355, 0.09733118116855621, -0.0417620949447155, -0.020968519151210785, 0.030065245926380157, -0.04977576807141304, 0.02932286448776722, 0.05637798085808754, 0.18084290623664856, 0.05014481768012047, 0.036503758281469345, 0.005666079465299845, -0.06158263981342316, 0.215370774269104, 0.0012516591232270002, 0.006986553780734539, 0.030161987990140915, 0.13981473445892334, 0.037987105548381805, -0.1901697814464569, -0.0391155406832695, -0.08435512334108353, 0.09992574900388718, 0.02902412973344326, -0.0037127577234059572, 0.060941990464925766, -0.0009091534884646535, 0.22590087354183197, -0.044148847460746765, 0.14439477026462555, 0.08903301507234573, 0.04124356806278229, -0.11295577138662338, 0.13328030705451965, -0.13641534745693207, -0.0009945055935531855, -0.11452589184045792, 0.1515556424856186, -0.02135191671550274, 0.13409242033958435, 0.18331073224544525, 0.10769357532262802, 0.07978418469429016, 0.29004982113838196, -0.08839569985866547, 0.16507048904895782, -0.042335763573646545, -0.05003181844949722, -0.16932940483093262, -0.010747064836323261, 0.07969000935554504, -0.09931059181690216, -0.10390578955411911, -0.027812376618385315, -0.3011368215084076, -0.2682522237300873, -0.1650906801223755, -0.16017311811447144, -0.2941887676715851, -0.17557093501091003, -0.2471144050359726, -0.13793645799160004, -0.20211978256702423, 0.015409532934427261, -0.19807769358158112, 0.11638075858354568, -0.0036716025788336992, 0.08333064615726471, -0.1800488382577896, -0.08087077736854553, 0.01988861709833145, 0.013982349075376987, 0.09762884676456451, -0.13404124975204468, -0.008118408732116222, 0.013524889014661312, -0.08391859382390976, 0.20452623069286346, 0.0516846664249897, 0.15385808050632477, 0.0658859983086586, 0.20201294124126434, 0.0529005229473114, -0.12358476221561432, 0.030170386657118797, 0.03720485791563988, 0.03569541499018669, -0.09133604913949966, -0.06379631906747818, -0.05394701287150383, -0.03540278971195221, 0.12511537969112396, 0.1873137503862381, 0.12760917842388153, 0.1555817425251007, -0.05445032939314842, -0.06977309286594391, 0.22337345778942108, -0.17704260349273682, -0.040751416236162186, -0.12270497530698776, 0.051349323242902756, -0.05362282320857048, -0.06388486176729202, 0.0707460418343544, -0.17867304384708405, -0.12208382040262222, 0.12129347026348114, -0.2164766937494278, 0.0051423958502709866, -0.05907006561756134, -0.11019967496395111, -0.052942924201488495, 0.042680174112319946, 0.03299432620406151, -0.02579363062977791, 0.04074413701891899, 0.07638538628816605, -0.1257646381855011, -0.2648125886917114, -0.027253568172454834, -0.08209763467311859, -0.23659579455852509, -0.1435314416885376, -0.059414129704236984, -0.04268427565693855, -0.10369151085615158, -0.07191843539476395, 0.07186856120824814, -0.11852192133665085, -0.2379973828792572, 0.07489984482526779, -0.023122290149331093, 0.005642566364258528, -0.3544578552246094, -0.17472195625305176, -0.1824686974287033, 0.04405035823583603, -0.060124434530735016, 0.11451645195484161, 0.04448848217725754, 0.06944296509027481, 0.18985456228256226, -0.11733026057481766, 0.13713152706623077, -0.07636772841215134, 0.02354186773300171, 0.10042896121740341, 0.013154170475900173, 0.029484685510396957, -0.04026632010936737, -0.07943317294120789, 0.12328777462244034, 0.051584918051958084, -0.014272386208176613, 0.2885836064815521, -0.008557784371078014, -0.0981462150812149, -0.282514363527298, -0.11073707044124603, 0.0530327670276165, -0.28348860144615173, 0.036403074860572815, -0.05475420877337456, 0.14096465706825256, 0.02377539500594139, -0.1514868438243866, 0.0031232840847223997, 0.05840911716222763, 0.37755322456359863, 0.072472482919693, -0.005498839542269707, 0.0410400852560997, 0.10335031896829605, -0.05820615217089653, 0.04123658314347267, 0.029022756963968277, 0.10558914393186569, 0.08516160398721695, -0.1560583859682083, -0.19776742160320282, -0.03237961605191231, -0.11050882935523987, 0.1316709816455841, -0.230180025100708, 0.2057475596666336, 0.010631555691361427, 0.15789566934108734, 0.08659032732248306, 0.08210843056440353, -0.01679580844938755, -0.058512069284915924, 0.28940966725349426, 0.035187557339668274, -0.013736827298998833, -0.09801431000232697, 0.12668901681900024, 0.038763489574193954, 0.028664594516158104, 0.18287333846092224, 0.02949405275285244, -0.09938786923885345, -0.024678770452737808, -0.0022950046695768833, -0.08919581025838852, 0.11397609859704971, 0.06869369000196457, -0.013084295205771923, 0.08651643991470337, -0.013160754926502705, -0.03851419314742088, 0.05441040173172951, 0.08101862668991089, 0.07513392716646194, 0.13401177525520325, 0.1194818764925003, 0.09122838824987411, 0.1534474641084671, 0.10309674590826035, 0.22939755022525787, 0.2571108341217041, 0.1688348650932312, 0.000754525070078671, 0.10646101087331772, 0.04110933095216751, -0.09796223044395447, 0.0849495455622673, -0.054687559604644775, -0.07067485898733139, 0.1621742844581604, 0.18576455116271973, 0.1235329806804657, 0.02109972946345806, 0.15147793292999268, 0.0265740305185318, 0.16374704241752625, 0.027692332863807678, 0.022343646734952927, -0.14578619599342346, -0.03871917724609375, -0.007382153999060392, 0.006887244991958141, 0.0010878252796828747, -0.1640928089618683, -0.2060028463602066, -0.15617598593235016, -0.21522456407546997, -0.15168476104736328, -0.26428642868995667, 0.04003472998738289, -0.07868510484695435, 0.05820310488343239, -0.23856790363788605, -0.002855009399354458, -0.1330149620771408, 0.10123825818300247, -0.026397934183478355, -0.002964720595628023, 0.10514477640390396, -0.12823711335659027, 0.1636597067117691, 0.1559552550315857, -0.29133522510528564, -0.21576657891273499, 0.00552945863455534, 0.05108889564871788, -0.07917007058858871, 0.05915362760424614, -0.044033341109752655, 0.016188539564609528, -0.09510517865419388, 0.12566077709197998, 0.05927372723817825, 0.10983733087778091, -0.05657009780406952, -0.03952169790863991, -0.03486178070306778, 0.1655053347349167, 0.10768520832061768, 0.1877436637878418, -0.029497046023607254, 0.33950674533843994, 0.05764356628060341, 0.03777606412768364, 0.18977747857570648, 0.21363332867622375, 0.15938207507133484, 0.08009658008813858, 0.032231997698545456, -0.10142058879137039, -0.010184581391513348, 0.01895236223936081, -0.13787366449832916, 0.14326290786266327, -0.04438253864645958, 0.25588902831077576, 0.09187442809343338, 0.12756192684173584, 0.13172774016857147, 0.19307228922843933, -0.04590891674160957, 0.026181010529398918, -0.13386403024196625, -0.1116175726056099, -0.053455647081136703, 0.09923075884580612, 0.0010972043965011835, -0.09154360741376877, -0.06365425884723663, -0.04114969074726105, -0.17931117117404938, -0.2162705510854721, -0.005648274905979633, -0.13471856713294983, -0.29560044407844543, -0.0603041872382164, -0.12490599602460861, 0.08792748302221298, -0.1813274323940277, 0.09050218015909195, -0.05270133912563324, -0.15238603949546814, 0.0029421469662338495, 0.023085985332727432, 0.1469479352235794, -0.05745304003357887, -0.09337515383958817, -0.212947815656662, -0.1882096529006958, 0.024749457836151123, -0.13034403324127197, 0.028268706053495407, -0.0067644077353179455, -0.12199121713638306, -0.20058201253414154, -0.16771744191646576, -0.08001241832971573, -0.08166056126356125, -0.007924736477434635, 0.048218175768852234, 0.06799569725990295, 0.0510563924908638, -0.09816396981477737, -0.09304925799369812, -0.04592372477054596, 0.15706482529640198, 0.029813280329108238, -0.07056164741516113, -0.2825072407722473, -0.1743958294391632, 0.000507645308971405, -0.15961508452892303, 0.17166346311569214, -0.08275975286960602, 0.15926972031593323, 0.06805236637592316, 0.11456846445798874, -0.14258567988872528, -0.01042112521827221, 0.20446337759494781, -0.10841022431850433, -0.026160378009080887, 0.037537701427936554, -0.034521330147981644, 0.025302061811089516, -0.05111660808324814, 0.18198099732398987, 0.12404737621545792, 0.2026691734790802, -0.09486865252256393, 0.04206081107258797, 0.1488712579011917, 0.11209262907505035, -0.15045960247516632, 0.11225341260433197, -0.006854524835944176, 0.039781272411346436, 0.09967830777168274, -0.1130349338054657, 0.020771903917193413, 0.16152775287628174, -0.09657219797372818, -0.014048290438950062, -0.1054094210267067, 0.030791025608778, 0.18431934714317322, -0.21049724519252777, 0.14893732964992523, -0.13600502908229828, -0.0460948571562767, -0.02667468972504139, 0.07483123987913132, -0.02180476114153862, -0.022302942350506783, 0.06369662284851074, 0.29485321044921875, 0.06259520351886749, -0.05950304865837097, 0.1651773750782013, -0.02457764558494091, -0.10940712690353394, -0.05713862553238869, -0.06542578339576721, 0.1540762186050415, 0.08089125156402588, -0.08489906042814255, 0.01809576526284218, 0.01175739336758852, 0.06435234099626541, 0.08569499850273132, -0.14589115977287292, 0.20140120387077332, -0.07753420621156693, -0.045775219798088074, -0.2714579701423645, 0.07272832095623016, -0.09793335199356079, -0.24456563591957092, 0.023323336616158485, 0.0034053195267915726, -0.07617796957492828, -0.16488882899284363, -0.1335628479719162, -0.14505401253700256, -0.09270351380109787, 0.14765995740890503, 0.07641323655843735, 0.0764264166355133, 0.03194481134414673, -0.051509663462638855, 0.12366282194852829, 0.03374074772000313, 0.08287442475557327, 0.08054500073194504, 0.06163879483938217, -0.04927479475736618, 0.15572138130664825, -0.13294367492198944, 0.06709666550159454, 0.25915074348449707, -0.060646649450063705, 0.11041524261236191, 0.06898472458124161, 0.11893807351589203, 0.10305312275886536, -0.04379471018910408, -0.0024545099586248398, -0.11234672367572784, -0.14818550646305084, 0.2007037103176117, 0.017457768321037292, -0.03499643877148628, -0.12348125874996185, -0.09033448249101639, -0.03498949483036995, 0.16080474853515625, 0.08455301076173782, -0.044633638113737106, 0.02784956991672516, 0.18120427429676056, -0.003429201664403081, 0.13098958134651184, 0.0036927065812051296, 0.11980416625738144, 0.042003050446510315, 0.14064469933509827, 0.12379547208547592, -0.10135366022586823, -0.06819956749677658, -0.008840305730700493, 0.07575944066047668, -0.007599642965942621, -0.10326515138149261, -0.021205799654126167, -0.06577381491661072, 0.0858445093035698, -0.051301371306180954, 0.18691234290599823, 0.06600042432546616, -0.04020906984806061, -0.3520995080471039, 0.179973766207695, 0.00041655413224361837, -0.09135455638170242, -0.08271845430135727, 0.049134548753499985, -0.05949437618255615, 0.0038532523903995752, -0.007101080380380154, -0.043784692883491516, 0.04010908305644989, 0.18982122838497162, -0.22928006947040558, -0.013020726852118969, -0.08036326617002487, -0.0867522656917572, -0.13249190151691437, 0.05990268662571907, 0.038624588400125504, 0.051357828080654144, 0.04750308021903038, 0.05785372108221054, -0.19299784302711487, -0.27328312397003174, -0.06126794219017029, -0.12234756350517273, -0.16364358365535736, -0.13821740448474884, -0.19592970609664917, -0.21221886575222015, -0.0270337276160717, 0.09040071815252304, 0.002884011482819915, -0.030591284856200218, -0.06836443394422531, 0.11422837525606155, 0.10087604075670242, 0.03422175720334053, -0.0640365406870842, 0.1185230165719986, -0.09773720055818558, -0.08694369345903397, -0.1239146888256073, 0.15916237235069275, -0.06995531916618347, -0.16948606073856354, -0.030653776600956917, 0.0304330512881279, -0.12832576036453247, 0.008712220005691051, -0.0502527579665184, 0.07335565239191055, 0.0985545888543129, 0.16450858116149902, -0.043129660189151764, 0.13332781195640564, -0.21517597138881683, -0.06162558123469353, 0.04407923296093941, -0.007763785310089588, -0.27766090631484985, -0.05768558010458946, -0.024963228031992912, 0.08510477840900421, -0.12522006034851074, 0.0718696340918541, 0.034643977880477905, -0.028229346498847008, 0.03554995357990265, -0.06693362444639206, -0.049012940376996994, 0.037721388041973114, -0.07698249071836472, -0.09032721817493439, -0.05114198476076126, 0.11337243020534515, -0.07105470448732376, -0.0028026727959513664, 0.1877356320619583, 0.004264375660568476, 0.07001926004886627, -0.12799081206321716, 0.05227172002196312, 0.22391170263290405, 0.14021655917167664, -0.22392430901527405, 0.11987517029047012, 0.15411603450775146, 0.024222152307629585, -0.14986959099769592, -0.016815057024359703, -0.09539639949798584, 0.05270740017294884, -0.2284158319234848, -0.13762907683849335, 0.012526261620223522, 0.12452328950166702, -0.05011012777686119, -0.008324733935296535, -0.07903219759464264, 0.07597973197698593, 0.13225197792053223, -0.1584998220205307, 0.016245556995272636, 0.02265733666718006, -0.1022791638970375, -0.0689031332731247, -0.0026426317635923624, -0.07755435258150101, -0.011584894731640816, 0.014828348532319069, 0.07125694304704666, 0.11282937228679657, 0.11299213767051697, 0.05441383644938469, -0.0977695882320404, 0.007609882857650518, 0.05705380067229271, -0.12898993492126465, 0.018308350816369057, -0.06070125102996826, 0.17887826263904572, 0.03605543449521065, 0.044134777039289474, 0.09499841183423996, 0.20531794428825378, 0.030443061143159866, 0.09501977264881134, 0.002161552431061864, 0.002564651658758521, 0.01668941043317318, -0.0033124531619250774, -0.07764102518558502, 0.1580324023962021, 0.08678245544433594, 0.2191774994134903, 0.10217081010341644, 0.05859110876917839, 0.08689455687999725, 0.14294269680976868, -0.03219616785645485, -0.016169095411896706, -0.13115032017230988, -0.1497202068567276, -0.13030624389648438, -0.008515824563801289, 0.017807146534323692, -0.020388152450323105, -0.08242516219615936, 0.024185631424188614, -0.21076162159442902, -0.23760150372982025, -0.15041974186897278, -0.03974482789635658, -0.1881914883852005, -0.03593087196350098, -0.09806039184331894, 0.029983744025230408, -0.10454226285219193, 0.13155746459960938, 0.05686575174331665, 0.08126385509967804, 0.16546690464019775, -0.03319576755166054, 0.0919140949845314, 0.0501413494348526, -0.007338585797697306, 0.0441819503903389, 0.0954403504729271, 0.050777219235897064, 0.010193473659455776, -0.02718205191195011, -0.004336987156420946, -0.015870124101638794, -0.10203352570533752, 0.09721235930919647, 0.038866639137268066, 0.04575258865952492, -0.05450044944882393, -0.07133020460605621, 0.07218344509601593, 0.1961303949356079, 0.12473586201667786, 0.22148188948631287, -0.06336024403572083, 0.11243221163749695, 0.12872245907783508, 0.03864409029483795, 0.10425201058387756, 0.10517006367444992, 0.14708662033081055, 0.04820195212960243, -0.00829242542386055, 0.12011151760816574, -0.009912136942148209, 0.013310357928276062, 0.03496555984020233, 0.11000163853168488, 0.007689352612942457, 0.1324254423379898, 0.05608852952718735, 0.06014179438352585, 0.058140579611063004, 0.2141263782978058, 0.04324810579419136, 0.03279862925410271, 0.0062933797016739845, -0.005577386822551489, -0.11057779937982559, -0.01856233924627304, -0.017080798745155334, -0.11717274785041809, -0.19222910702228546, -0.05165979266166687, -0.16541936993598938, -0.09760462492704391, 0.030315255746245384, -0.20244057476520538, -0.09978469461202621, -0.11551664769649506, -0.04642273858189583, -0.07570293545722961, -0.15583491325378418, 0.1159132868051529, -0.05642939358949661, 0.10918768495321274, 0.1035781279206276, -0.13288769125938416, 0.033531900495290756, -0.0009859605925157666, -0.11237719655036926, 0.1359957903623581, 0.05857882648706436, 0.07045936584472656, 0.09853846579790115, 0.07492680102586746, 0.054991282522678375, 0.02923031896352768, -0.09173505753278732, 0.11945223808288574, -0.02341456338763237, 0.11239008605480194, -0.02187475375831127, -0.0325835756957531, 0.0025316542014479637, -0.017408033832907677, 0.1222008466720581, 0.2818593382835388, -0.09406614303588867, 0.28458285331726074, 0.006055672653019428, -0.00807057786732912, -0.01182826329022646, 0.1087896078824997, 0.3127155601978302, 0.03891289234161377, -0.12113689631223679, 0.1812514215707779, -0.02118346095085144, -0.005213932599872351, -0.07611662149429321, 0.20243088901042938, -0.028600214049220085, 0.1617349237203598, 0.084818534553051, 0.018579542636871338, 0.14910297095775604, 0.2951853573322296, -0.049381282180547714, -0.019520478323101997, -0.1068984866142273, 0.021991735324263573, -0.09258634597063065, 0.06537327915430069, 0.09154041856527328, -0.04142463952302933, -0.147330641746521, 0.03916371613740921, -0.16651560366153717, -0.2544119954109192, 0.0630565881729126, -0.20524859428405762, -0.25644293427467346, -0.2485920786857605, -0.09822902828454971, -0.08398447930812836, -0.18492397665977478, 0.18045273423194885, 0.2839473783969879, -0.24680644273757935, 0.05220042169094086, -0.03467394411563873, 0.11613719165325165, -0.010000348091125488, -0.2696298062801361, -0.1476619839668274, -0.18177373707294464, 0.08034607768058777, -0.2150033712387085, -0.1580139547586441, 0.05970294028520584, -0.08206401020288467, -0.13272948563098907, -0.025522125884890556, -0.012760943733155727, -0.0671238973736763, -0.012542844749987125, 0.12560433149337769, 0.06382018327713013, 0.017946643754839897, -0.19202861189842224, 0.02822350710630417, 0.1004999652504921, 0.1670752316713333, 0.11860641837120056, 0.0017725673969835043, -0.202711284160614, 0.13819345831871033, -0.05923881009221077, 0.018657322973012924, 0.17598213255405426, -0.06050931289792061, 0.3389035761356354, 0.23387108743190765, 0.13775013387203217, 0.013254831545054913, -0.04407903924584389, 0.18413563072681427, -0.08756093680858612, 0.025438660755753517, 0.12850165367126465, -0.0043617067858576775, 0.11569802463054657, -0.07553275674581528, -0.032263219356536865, 0.11662619560956955, 0.19832250475883484, -0.09462133795022964, -0.011666776612401009, 0.012905965559184551, -0.1289595663547516, -0.2894066870212555, -0.027409087866544724, -0.17150254547595978, 0.014451252296566963, 0.02908257767558098, -0.2228640466928482, 0.09854042530059814, 0.0929785892367363, -0.22340351343154907, 0.008095404133200645, 0.13365356624126434, 0.08969739079475403, 0.01596137136220932, 0.028318900614976883, 0.11128335446119308, 0.06508402526378632, -0.012250231578946114, -0.2107795923948288, -0.13322699069976807, -0.0009406506433151662, -0.07640143483877182, -0.040979817509651184, 0.15929453074932098, 0.030573176220059395, -0.1955229490995407, 0.09402797371149063, 0.007515221368521452, 0.011531483381986618, -0.14567820727825165, -0.1662006378173828, 0.09653409570455551, -0.12466508895158768, 0.049750495702028275, -0.20155391097068787, -0.07302916049957275, 0.0070090084336698055, 0.1557346135377884, -0.026708519086241722, -0.004780319053679705, -0.021755320951342583, -0.07814939320087433, -0.07539350539445877, -0.0008992046350613236, 0.24913987517356873, -0.19010239839553833, 0.1166858971118927, 0.06281842291355133, 0.1431446224451065, 0.00687171658501029, -0.13584038615226746, 0.1361810564994812, -0.09208313375711441, 0.055672526359558105, 0.03910556063055992, -0.061551399528980255, 0.11864692717790604, -0.10610418766736984, 0.06318468600511551, -0.014146437868475914, 0.07636075466871262, -0.025271719321608543, -0.0404377281665802, 0.08061540126800537, 0.13741937279701233, -0.01847808249294758, 0.035716693848371506, -0.0318547785282135, -0.034903284162282944, 0.02001321315765381, -0.1487598419189453, 0.009821600280702114, 0.07020755857229233, -0.11118398606777191, -0.10540595650672913, -0.0333884134888649, 0.043723851442337036, -0.04860871285200119, 0.13789629936218262, -0.12969456613063812, 0.10591589659452438, 0.10113539546728134, -0.10805869102478027, -0.05467456579208374, 0.06744932383298874, 0.003154346253722906, -0.0003730490570887923, 0.038342829793691635, 0.06454809755086899, -0.1989016830921173, -0.08694909512996674, 0.03305404260754585, -0.06599073112010956, -0.11213604360818863, -0.18366394937038422, -0.007023944519460201, -0.14387159049510956, 0.026615284383296967, -0.11867398768663406, -0.054191507399082184, -0.019106009975075722, 0.12696918845176697, -0.09431245923042297, -0.10391335934400558, -0.022666215896606445, 0.026831693947315216, 0.1598096489906311, 0.11669611185789108, 0.053447697311639786, -0.049485400319099426, -0.01612141728401184, 0.0020025887060910463, -0.04224756732583046, 0.14869742095470428, 0.11406173557043076, 0.20846320688724518, -0.09302103519439697, -0.07384245097637177, 0.12923462688922882, 0.1616034060716629, 0.09608945995569229, -0.10852296650409698, 0.012681159190833569, 0.12998752295970917, 0.16163720190525055, 0.026749243959784508, -0.06853611767292023, -0.000791576283518225, 0.09202508628368378, -0.13546250760555267, 0.02032354660332203, -0.14647473394870758, 0.03693335875868797, -0.10363519936800003, -0.09765574336051941, -0.010797468014061451, 0.059200141578912735, 0.09730099886655807, -0.22591423988342285, -0.13039594888687134, -0.012310751713812351, 0.022706609219312668, 0.001119912602007389, -0.20887063443660736, 0.1771470457315445, 0.10157366096973419, -0.011066682636737823, -0.018740223720669746, 0.05634196102619171, -0.05364638566970825, 0.2783397436141968, 0.03434594348073006, 0.11578427255153656, 0.0011848269496113062, 0.06973911821842194, 0.07264962792396545, -0.040954623371362686, -0.01879918947815895, -0.058764293789863586, -0.009535642340779305, -0.2843480408191681, 0.04871563985943794, 0.0024603770580142736, 0.2247694879770279, 0.11593062430620193, 0.17909255623817444, -0.0961725041270256, 0.09398474544286728, 0.07008937001228333, 0.015968406572937965, 0.22794194519519806, 0.11358077824115753, -0.22618214786052704, -0.0013734610984101892, -0.05771392956376076, 0.014783085323870182, -0.08352358639240265, 0.12550105154514313, 0.15012064576148987, 0.18510477244853973, -0.06422152370214462, 0.1504102647304535, 0.1294410675764084, 0.07218396663665771, 0.10483868420124054, -0.21684975922107697, -0.16246086359024048, 0.09928561002016068, 0.05748263746500015, 0.15825162827968597, 0.09471219033002853, -0.11428868025541306, -0.03388189524412155, -0.014764852821826935, -0.16517671942710876, -0.2766833007335663, -0.10308124125003815, -0.06474850326776505, -0.14396697282791138, -0.11721297353506088, -0.0564812496304512, 0.11950889229774475, -0.11411037296056747, -0.33300212025642395, -0.14575761556625366, 0.09972924739122391, 0.007000746205449104, 0.0005431933677755296, -0.09697823971509933, -0.14276635646820068, -0.07696738839149475, -0.11792951077222824, 0.026548095047473907, -0.034037038683891296, -0.1708265095949173, -0.105681873857975, 0.00027762382524088025, 0.2491035759449005, 0.09719984233379364, -0.18389715254306793, 0.14003399014472961, -0.028277838602662086, -0.0375448539853096, 0.008622277528047562, -0.07705312222242355, -0.099505215883255, 0.17710758745670319, 0.2211003601551056, -0.04670165851712227, -0.09974029660224915, 0.08089727908372879, 0.3325393795967102, -0.0479690358042717, 0.050078026950359344, -0.18404024839401245, -0.03402639180421829, -0.10845156013965607, -0.05274118855595589, -0.23294557631015778, -0.30099064111709595, -0.15710845589637756, -0.08821690827608109, -0.03213072195649147, -0.2515549957752228, 0.08207806944847107, -0.024700701236724854, 0.01287737675011158, 0.026946302503347397, -0.013533536344766617, 0.10340549796819687, -0.11245052516460419, 0.06097247451543808, -0.1383558064699173, 0.1352304071187973, 0.10836321115493774, -0.1429934799671173, -0.3118879497051239, 0.17938439548015594, 0.009297898970544338, -0.05801696330308914, -0.08801552653312683, 0.3274131119251251, -0.03700336441397667, 0.13054923713207245, -0.0890512764453888, 0.10608150064945221, 0.007539825979620218, -0.11386080086231232, -0.18873333930969238, 0.20694895088672638, -0.1293134093284607, 0.05578884854912758, -0.057158730924129486, -0.0147767448797822, -0.03983301669359207, -0.11701205372810364, 0.08351871371269226, 0.09717954695224762, 0.26951631903648376, 0.13462580740451813, 0.08756210654973984, -0.011614852584898472, 0.08812665194272995, 0.07595545053482056, -0.06264518201351166, -0.0515727661550045, -0.10007651150226593, 0.004429985769093037, 0.20657014846801758, 0.15451352298259735, 0.12299729138612747, 0.21003536880016327, -0.06609940528869629, -0.07571416348218918, 0.03235090896487236, 0.03315384313464165, 0.006010293494910002, -0.06008928269147873, -0.21468394994735718, -0.0173190850764513, -0.07381755113601685, -0.16287973523139954, -0.11719010025262833, -0.16583171486854553, -0.0737357884645462, -0.06471008062362671, -0.24672691524028778, -0.0886630043387413, -0.06016125530004501, 0.21487656235694885, -0.1390780210494995, 0.12124545872211456, 0.11332312226295471, 0.053651902824640274, 0.04340251907706261, 0.047186478972435, -0.09477340430021286, 0.15968665480613708, -0.06579364836215973, -0.04200148954987526, -0.09255669265985489, -0.09868688881397247, -0.057617250829935074, 0.5173513293266296, 0.08002596348524094, 0.07303845882415771, 0.050361428409814835, 0.02345682494342327, -0.0041118040680885315, -0.01646183617413044, -0.0017186652403324842, -0.0015828872565180063, -0.17936286330223083, 0.10407371819019318, 0.058895014226436615, -0.15437786281108856, -0.08044688403606415, 0.004352931398898363, 0.07313144207000732, 0.08114241808652878, 0.023368777707219124, -0.046273570507764816, 0.0839700847864151, 0.06557822972536087, -0.01782660372555256, 0.09035985171794891, -0.010693741030991077, 0.10759253054857254, -0.011108518578112125, 0.03710537403821945, 0.04698061943054199, -0.0479377806186676, -0.00046710914466530085, 0.10109484195709229, 0.058317527174949646, 0.1485009342432022, -0.04906013235449791, 0.12228673696517944, 0.03678679093718529, 0.026026694104075432, 0.09169865399599075, 0.14623570442199707, 0.018516669049859047, 0.09190017729997635, -0.08904897421598434, 0.2093871682882309, -0.12462827563285828, -0.03623292222619057, -0.015354287810623646, 0.20608249306678772, -0.025628458708524704, -0.009277140721678734, 0.015589880757033825, -0.09908299148082733, 0.012725722044706345, 0.07357025891542435, -0.1543981432914734, -0.022393647581338882, -0.09486666321754456, -0.03687027841806412, -0.1021374836564064, 0.027444319799542427, -0.03917764499783516, -0.035408079624176025, -0.037179168313741684, 0.03456902876496315, -0.13952937722206116, 0.05929222330451012, 0.11069558560848236, 0.029783224686980247, -0.02995365858078003, -0.11255710572004318, -0.11347958445549011, 0.14392288029193878, -0.1455232799053192, -0.19083963334560394, -0.05882233381271362, 0.03965828940272331, 0.17345046997070312, -0.09750574082136154, 0.012478417716920376, 0.07229942083358765, -0.03340870887041092, 0.027077239006757736, 0.09423702955245972, -0.09721306711435318, -0.06992799043655396, 0.026609841734170914, -0.058659520000219345, 0.05792570114135742, -0.012598193250596523, 0.11620749533176422, 0.10550527274608612, 0.13843534886837006, -0.013626555912196636, -0.11589612811803818, 0.03978210315108299, 0.09172804653644562, 0.008535023778676987, 0.025271067395806313, -0.07308359444141388, -0.0223177932202816, 0.07208355516195297, -0.04005366191267967, 0.21891096234321594, 0.12722118198871613, -0.1773931384086609, 0.0061701941303908825, -0.03882940113544464, 0.1427508294582367, -0.029273783788084984, 0.030727960169315338, -0.08242154866456985, 0.13472692668437958, 0.028690800070762634, 0.05280956253409386, 0.07109222561120987, -0.04338685795664787, 0.0237582977861166, -0.04605421796441078, -0.19157694280147552, 0.12380223721265793, -0.020151561126112938, -0.07139119505882263, -0.15472428500652313, -0.0003461716987658292, -0.04501263052225113, 0.02719801478087902, 0.05476018786430359, 0.05718643218278885, -0.0909886434674263, 0.07047899812459946, 0.11361115425825119, 0.03129570558667183, -0.0026857242919504642, -0.021608278155326843, -0.10955918580293655, 0.0866299495100975, -0.12751857936382294, -0.16134880483150482, -0.009316779673099518, -0.15586690604686737, 0.058322224766016006, -0.1487927883863449, 0.033096715807914734, 0.1262083500623703, -0.16461299359798431, -0.12482655048370361, 0.011118763126432896, 0.0781681165099144, -0.16496773064136505, -0.0543091744184494, 0.03576013073325157, -0.051658663898706436, -0.13069641590118408, 0.0445510596036911, -0.0267786905169487, -0.011097944341599941, 0.05096588656306267, -0.050418421626091, 0.049782946705818176, 0.1886979639530182, -0.1864686757326126, -0.007383888587355614, -0.062396325170993805, 0.030213914811611176, 0.018980061635375023, -0.023150762543082237, 0.016794869676232338, -0.03443875536322594, -0.22281114757061005, -0.11648717522621155, -0.06533097475767136, 0.06380750238895416, 0.19061629474163055, 0.10152304917573929, 0.07054639607667923, 0.1047908365726471, 0.07120963931083679, 0.1308857798576355, -0.020767711102962494, 0.03870300576090813, 0.20067159831523895, -0.08366426080465317, -0.11434616893529892, -0.01651071198284626, 0.05971146747469902, 0.051411282271146774, 0.04553097113966942, -0.04347142204642296, -0.07921542227268219, 0.04192359372973442, -0.028032712638378143, -0.12205294519662857, -0.07439398020505905, -0.013531598262488842, 0.05925816670060158, 0.13263754546642303, -0.09685418009757996, 0.024849269539117813, 0.06024608388543129, 0.08861576020717621, -0.04373716935515404, 0.1339775025844574, 0.25476962327957153, 0.04400182142853737, 0.022320253774523735, 0.029401378706097603, 0.17253518104553223, 0.031588055193424225, -0.19440264999866486, -0.0712762102484703, 0.01124733965843916, 0.006105696316808462, -0.03914394974708557, 0.11269491910934448, 0.074358731508255, -0.19419750571250916, 0.059215184301137924, -0.020389258861541748, -0.018483877182006836, -0.06815239787101746, -0.14556390047073364, 0.0963926836848259, -0.01801437884569168, 0.0631447359919548, -0.09857833385467529, 0.01457893755286932, 0.00404573418200016, 0.22963714599609375, -0.0369110070168972, 0.020962363108992577, 0.05292483791708946, -0.03228025510907173, -0.024377839639782906, 0.027692386880517006, 0.02560233511030674, -0.1275620013475418, 0.1389780044555664, 0.10240263491868973, 0.03636118769645691, 0.10136522352695465, -0.05388009548187256, 0.13911573588848114, -0.15848013758659363, 0.08097615092992783, 0.18558083474636078, 0.0744989886879921, 0.11722580343484879, -0.07844333350658417, -0.010800361633300781, 0.022932961583137512, 0.07389617711305618, -0.007891186513006687, -0.035665612667798996, -0.07153189927339554, -0.032930776476860046, -0.07638038694858551, -0.04503347724676132, -0.10714562237262726, 0.05396716669201851, 0.007301522418856621, -0.16304418444633484, -0.02472546510398388, -0.014574031345546246, -0.015240587294101715, -0.1614636331796646, 0.10340971499681473, 0.15088659524917603, 0.20026250183582306, 0.011875147931277752, 0.01484462060034275, 0.15485146641731262, 0.03630588948726654, -0.03117760457098484, 0.09557914733886719, 0.041961558163166046, -0.10793548822402954, 0.17967118322849274, 0.07761684060096741, 0.018405180424451828, -0.24019300937652588, 0.02860347181558609, 0.09445232152938843, -0.04426780715584755, 0.004275974351912737, -0.10595805943012238, -0.046254564076662064, 0.027567652985453606, 0.1731964349746704, -0.18710434436798096, 0.07014018297195435, -0.05600622668862343, 0.04687780514359474, -0.15066742897033691, 0.009729077108204365, 0.10015096515417099, -0.04299474135041237, 0.13672387599945068, 0.09000175446271896, -0.021173110231757164, -0.10451137274503708, 0.09424225986003876, -0.00029140885453671217, -0.10023874044418335, 0.07781921327114105, 0.007577882148325443, 0.15172316133975983, -0.008923178538680077, 0.10668936371803284, 0.0575963519513607, 0.14602850377559662, 0.09710316359996796, -0.1237298920750618, 0.09528999775648117, 0.07458649575710297, 0.10189981758594513, -0.10542753338813782, 0.020828181877732277, 0.11910304427146912, 0.09425441920757294, -0.12826059758663177, -0.01216133777052164, -0.03870085999369621, -0.03379334881901741, -0.18950431048870087, -0.2224433571100235, -0.07972794771194458, 0.03827335685491562, -0.04370895028114319, -0.24276117980480194, 0.06779929995536804, 0.0820670872926712, -0.07673213630914688, 0.017453426495194435, -0.11499018967151642, 0.1524878889322281, -0.018600942566990852, -0.01150889229029417, 0.111571304500103, 0.06318932771682739, -0.043178245425224304, 0.08245816826820374, 0.10614502429962158, -0.04180029779672623, -0.11705027520656586, -0.0008252346888184547, 0.025336770340800285, -0.01142753753811121, -0.0018091079546138644, -0.06006196513772011, -0.005145744886249304, -0.021989047527313232, 0.009431719779968262, -0.020977769047021866, 0.06707660853862762, -0.014065582305192947, 0.03127267211675644, -0.032868191599845886, -0.03240829333662987, 0.012356721796095371, 0.089637890458107, 0.17657233774662018, 0.1784650832414627, -0.13238880038261414, -0.02992437593638897, -0.015658175572752953, -0.07252056151628494, -0.10006140172481537, 0.05781836435198784, 0.06831648200750351, 0.11735117435455322, -0.04144550859928131, -0.0002883798733819276, 0.06893958896398544, 0.15851706266403198, 0.04714657738804817, -0.04553249105811119, 0.0561770424246788, 0.06707372516393661, 0.04276842623949051, -0.06977011263370514, -0.04747944325208664, 0.00434461236000061, -0.07358035445213318, -0.13301198184490204, -0.0173950158059597, -0.054529089480638504, 0.13159461319446564, -0.11463276296854019, -0.1132180392742157, -0.11240258067846298, -0.061018455773591995, -0.0036112440284341574, -0.19434145092964172, -0.141841858625412, 0.13759782910346985, 0.09357102960348129, 0.2607216238975525, -0.1836024671792984, -0.03008889965713024, 0.02967103198170662, 0.16138550639152527, 0.17417378723621368, 0.0982833206653595, 0.03674664720892906, 0.08635082840919495, -0.15291035175323486, 0.14860744774341583, 0.1879270076751709, -0.07628189772367477, 0.01625022478401661, 0.10885986685752869, -0.013406319543719292, 0.0941033661365509, -0.0025835365522652864, -0.0077601466327905655, -0.1698582023382187, 0.14130383729934692, 0.09325340390205383, -0.1417519748210907, -0.07383554428815842, 0.25444796681404114, 0.11806534975767136, -0.11056636273860931, 0.17192567884922028, 0.1324087232351303, 0.1019107848405838, -0.13186031579971313, 0.18834564089775085, 0.003567594336345792, -0.07655414193868637, -0.042317669838666916, 0.12609001994132996, 0.1643391251564026, 0.008291946724057198, -0.011985690332949162, 0.024777915328741074, 0.14702701568603516, -0.06910069286823273, -0.02811620756983757, 0.007455836050212383, -0.17741940915584564, 0.0016565972473472357, -0.18691705167293549, 0.09091650694608688, 0.0683465376496315, -0.17907367646694183, -0.2299104630947113, 0.06899852305650711, -0.1408686637878418, -0.1953965127468109, -0.022650444880127907, 0.0576748289167881, 0.029752491042017937, -0.07469868659973145, -0.1122652068734169, 0.1568949818611145, -0.15755857527256012, -0.015309702605009079, 0.050737425684928894, 0.09642825275659561, 0.011275087483227253, -0.14682815968990326, -0.16263869404792786, -0.015491821803152561, 0.07674457877874374, 0.06987104564905167, 0.039792127907276154, 0.06656785309314728, 0.020130323246121407, -0.14091521501541138, 0.02840660698711872, 0.0966663584113121, -0.06960688531398773, 0.004102729260921478, 0.02415384165942669, 0.00011074534268118441, 0.041748207062482834, 0.012052251026034355, 0.023547781631350517, 0.04891937971115112, 0.12479222565889359, 0.21672199666500092, -0.09253960847854614, 0.03481760621070862, 0.17624403536319733, 0.08574797958135605, 0.09199681133031845, 0.0855567529797554, 0.03124002367258072, -0.015196254476904869, -0.10153507441282272, 0.11561019718647003, -0.010400480590760708, -0.002044430235400796, 0.017697501927614212, 0.1609952300786972, -0.05652541294693947, -0.12037022411823273, 0.04573459550738335, -0.015413803048431873, 0.023049701005220413, 0.11811018735170364, 0.03141028806567192, 0.011371148750185966, -0.2513442933559418, -0.018584709614515305, -0.08620696514844894, 0.006775645073503256, -0.023639779537916183, -0.12191346287727356, -0.23331308364868164, 0.08920584619045258, -0.1564776748418808, -0.11598355323076248, 0.032539431005716324, 0.02616126649081707, 0.00951590109616518, -0.008973420597612858, -0.16519929468631744, -0.016101177781820297, -0.08807788044214249, 0.12164522707462311, 0.2291637510061264, -0.2359781414270401, 0.19745087623596191, -0.1680050641298294, 0.05950013920664787, 0.29336926341056824, -0.23715129494667053, -0.1514294147491455, 0.028219718486070633, 0.151186004281044, -0.2010757178068161, -0.14824146032333374, -0.07958390563726425, -0.04616107791662216, -0.16559971868991852, 0.021149294450879097, -0.004876929335296154, -0.03444551303982735, 0.004344805609434843, -0.04681132733821869, 0.05364655703306198, 0.12774360179901123, -0.0844869390130043, 0.039096202701330185, -0.005342253018170595, 0.13392959535121918, 0.11729501187801361, -0.00029304574127309024, -0.13051001727581024, 0.14208436012268066, 0.089890256524086, 0.08846985548734665, 0.12919645011425018, -0.06452793627977371, 0.10361923277378082, 0.1248650774359703, 0.02263152226805687, 0.15120059251785278, 0.03578049689531326, 0.175927996635437, -0.012604761868715286, 0.03721138834953308, 0.14209525287151337, 0.04800894111394882, -0.05051952227950096, 0.007202937267720699, -0.018852083012461662, 0.09645724296569824, 0.11365407705307007, -0.0710550993680954, -0.03665417805314064, -0.003985158167779446, -0.06802307069301605, -0.20353777706623077, -0.0479431115090847, -0.22015778720378876, 0.1178005188703537, -0.05563109368085861, -0.2496461719274521, 0.007972115650773048, 0.03133886680006981, -0.07090683281421661, -0.09329195320606232, -0.03998318687081337, 0.0059772031381726265, -0.02172398567199707, -0.025175366550683975, -0.04611168056726456, 0.032108571380376816, -0.03043019399046898, -0.09735466539859772, -0.12891210615634918, 0.002531685633584857, 0.10620217025279999, 0.19821150600910187, -0.06508699059486389, 0.1641564667224884, 0.049777206033468246, 0.007399482186883688, -0.08371450006961823, -0.04420766979455948, -0.1734466403722763, -0.02364630438387394, 0.048475682735443115, 0.0793016329407692, 0.05479595065116882, -0.15271911025047302, 0.08593571931123734, 0.14183761179447174, 0.10396648943424225, -0.021487504243850708, 0.13470281660556793, -0.11644970625638962, -0.06765084713697433, -0.17440079152584076, 0.019696500152349472, 0.13317783176898956, -0.03914985805749893, 0.2301357537508011, 0.00962477084249258, 0.08657730370759964, 0.04104724898934364, -0.1043974757194519, 0.013358918949961662, -0.17372919619083405, 0.1944914609193802, 0.1515968292951584, -0.16995558142662048, 0.07910864055156708, -0.13906057178974152, 0.0035951565951108932, 0.15274658799171448, 0.14952576160430908, -0.015086216852068901, 0.15409116446971893, -0.10046278685331345, -0.05169021710753441, -0.2085368037223816, -0.08078331500291824, -0.2110254168510437, -0.009011250920593739, 0.09043163806200027, -0.23730483651161194, 0.0886785089969635, 0.12536293268203735, -0.1306643784046173, -0.0033381886314600706, -0.0059898714534938335, 0.0655343160033226, -0.17303134500980377, 0.049499861896038055, -0.05849640443921089, 0.1180064007639885, 0.14186017215251923, -0.2556654214859009, -0.1856648176908493, -0.108063243329525, -0.06528623402118683, -0.15224307775497437, 0.058310430496931076, 0.0765274316072464, -0.2462569773197174, -0.04437551647424698, 0.11873782426118851, -0.03652661293745041, -0.021564004942774773, -0.21227380633354187, -0.1717056930065155, 0.024130243808031082, 0.28176355361938477, -0.25239264965057373, -0.05908428877592087, -0.049347154796123505, 0.011195650324225426, -0.01747632957994938, -0.26558467745780945, -0.08418776094913483, -0.059032101184129715, 0.04024522751569748, -0.11464834958314896, 0.12675054371356964, -0.022676659747958183, 0.1713954508304596, -0.0212770514190197, 0.13257047533988953, 0.14877638220787048, -0.04750382900238037, 0.2934074401855469, -0.07880337536334991, -0.09420464187860489, 0.015231831930577755, -0.05402955040335655, 0.1574619859457016, -0.1287994086742401, 0.10527592897415161, 0.14731493592262268, 0.12499968707561493, -0.14155444502830505, -0.16683804988861084, 0.23004816472530365, 0.11616004258394241, -0.11824451386928558, 0.07088510692119598, 0.004835371859371662, 0.10791729390621185, -0.11662513017654419, -0.22019845247268677, -0.06397908180952072, 0.058262694627046585, -0.07401048392057419, -0.12645770609378815, 0.14595015347003937, 0.22214798629283905, -0.06380900740623474, 0.06899525225162506, -0.07801161706447601, 0.143794983625412, 0.15494590997695923, -0.2295820564031601, -0.043786607682704926, 0.03268854692578316, -0.049681778997182846, -0.0645381286740303, 0.016123849898576736, 0.003920468036085367, -0.144620880484581, -0.023336291313171387, 0.06870782375335693, 0.028120340779423714, 0.014733126387000084, -0.030709868296980858, -0.012245886027812958, 0.025241203606128693, 0.16875523328781128, -0.07078628242015839, 0.051923710852861404, 0.0363931767642498, 0.1441568285226822, 0.040715206414461136, 0.03865698352456093, 0.06463870406150818, 0.19389165937900543, 0.1180589348077774, 0.09979438036680222, -0.046035122126340866, -0.04263165593147278, 0.16957788169384003, 0.06413322687149048, 0.044746965169906616, 0.1283971518278122, 0.1467674821615219, 0.2898199260234833, -0.07382920384407043, 0.09276792407035828, 0.1289105862379074, 0.11151423305273056, 0.05042431503534317, -0.06871677190065384, -0.06634420901536942, -0.007130534388124943, 0.0709306001663208, -0.07467130571603775, -0.030841823667287827, -0.031141985207796097, -0.11017633974552155, -0.21288761496543884, -0.12075293064117432, -0.22606131434440613, -0.03838840499520302, -0.1572650969028473, -0.12652482092380524, -0.05222161486744881, -0.018581543117761612, 0.05450819432735443, -0.09227757900953293, 0.045089393854141235, 0.1441141664981842, 0.06372563540935516, 0.013782099820673466, -0.028772404417395592, 0.20221003890037537, 0.08391767740249634, -0.14336995780467987, 0.11216140538454056, 0.11143666505813599, -0.03422121703624725, 0.052344173192977905, 0.22793124616146088, -0.15532265603542328, -0.23019221425056458, 0.026080192998051643, 0.15770508348941803, -0.15833620727062225, -0.08091238886117935, -0.17652979493141174, -0.026231031864881516, 0.06316839903593063, 0.2170817255973816, -0.184983491897583, 0.01267051137983799, -0.09271547943353653, 0.18376578390598297, -0.17138390243053436, 0.023366468027234077, -0.05362637713551521, 0.016835976392030716, -0.02476067654788494, 0.14903725683689117, -0.08243902772665024, -0.19123809039592743, 0.08449988812208176, 0.062451642006635666, -0.16704314947128296, 0.24082109332084656, 0.0234515480697155, 0.24121354520320892, 0.012211200781166553, -0.01595679670572281, 0.039843492209911346, 0.20992939174175262, 0.05813240632414818, -0.05092928186058998, 0.12640023231506348, 0.07383223623037338, 0.130606010556221, -0.06697922945022583, -0.0008469422464258969, 0.14511452615261078, 0.17422422766685486, -0.1613060086965561, 0.011702395975589752, 0.042469657957553864, -0.011725850403308868, -0.1477004438638687, -0.13051743805408478, -0.03199145197868347, 0.09936097264289856, -0.03025924786925316, -0.26173049211502075, 0.09889131039381027, -0.1607312709093094, -0.12664450705051422, 0.03760882467031479, -0.06737780570983887, 0.19241762161254883, 0.174366295337677, -0.19111834466457367, -0.16318154335021973, -0.10248465836048126, 0.09081999212503433, -0.04920337721705437, 0.15460678935050964, 0.1781749129295349, -0.19895605742931366, -0.18082383275032043, 0.1169796735048294, -0.15501566231250763, -0.07664604485034943, -0.22150321304798126, -0.20358924567699432, 0.04544687271118164, 0.19096584618091583, -0.08300270885229111, -0.21523433923721313, -0.16810306906700134, -0.03723796829581261, -0.08238695561885834, -0.32752180099487305, -0.27480679750442505, -0.05542004480957985, 0.10696572065353394, 0.05290025845170021, -0.04868180304765701, 0.01685003750026226, 0.12931761145591736, -0.04985922947525978, 0.252634733915329, -0.005555035546422005, 0.14503417909145355, 0.2063916176557541, -0.12313023954629898, -0.029357261955738068, -0.004655316472053528, -0.11952591687440872, 0.06086971238255501, -0.11255700141191483, 0.1599428355693817, 0.1186102032661438, 0.11059554666280746, -0.05235583707690239, -0.1947668492794037, 0.2185198962688446, 0.14052648842334747, -0.21604445576667786, 0.11068496853113174, 0.16498026251792908, 0.17169995605945587, -0.16662953794002533, -0.2068820744752884, -0.1121484786272049, 0.09048306941986084, -0.2166985124349594, 0.06633441150188446, -0.06339386850595474, 0.3179204761981964, -0.15438854694366455, 0.1058657094836235, -0.15152953565120697, 0.18961277604103088, 0.1495470106601715, 0.03967694565653801, -0.004176320042461157, -0.01366855576634407, -0.026108572259545326, 0.04168712720274925, -0.018677273765206337, 0.07084998488426208, -0.07627929747104645, -0.03610018268227577, -0.019993674010038376, 0.016138482838869095, -0.03308781608939171, 0.01671721786260605, 0.04687301814556122, -0.13072669506072998, -0.07340983301401138, -0.04940621182322502, -0.014894641004502773, 0.0947330892086029, 0.16315729916095734, 0.014960203319787979, 0.009600605815649033, -0.01794636808335781, 0.14024342596530914, 0.146646186709404, 0.14801383018493652, -0.04299767687916756, -0.06286827474832535, 0.12140855193138123, 0.040919892489910126, 0.10686509311199188, 0.14944404363632202, 0.3092445731163025, 0.3117644488811493, -0.10708869993686676, 0.061243146657943726, 0.14726121723651886, 0.11589132994413376, 0.058561719954013824, -0.1344597488641739, -0.1330137848854065, 0.061157360672950745, 0.07566331326961517, 0.0723760575056076, -0.01475618127733469, -0.04829426109790802, -0.0999891608953476, -0.10848820954561234, -0.10712328553199768, -0.18328307569026947, -0.13216818869113922, 0.002411006484180689, -0.06750089675188065, -0.011702551506459713, -0.0473996065557003, 0.10996294021606445, -0.14693282544612885]}, "action_queries": {"shape": [5, 64], "data": [0.039868757128715515, -0.11557750403881073, 0.18163292109966278, -0.017175843939185143, 0.21175450086593628, -0.09638102352619171, 0.03909933939576149, -0.08633995056152344, -0.004047856666147709, -0.08704135566949844, -0.07375770062208176, 0.0827777162194252, -0.06804567575454712, 0.015229948796331882, -0.1502004712820053, 0.048995401710271835, 0.13550150394439697, 0.17210973799228668, 0.4192304015159607, -0.09675230085849762, 0.36842861771583557, -0.027540724724531174, -0.006883652415126562, -0.05864586681127548, 0.02485845796763897, 0.05805393308401108, 0.07195363193750381, 0.14050829410552979, -0.4016781747341156, -0.044407688081264496, -0.1285645216703415, 0.13280117511749268, -0.04218791797757149, 0.06002543121576309, -0.0007627418381161988, 0.11298006772994995, 0.1725904941558838, -0.026836959645152092, 0.027673758566379547, 0.14441007375717163, -0.12117158621549606, 0.004587886389344931, -0.036996711045503616, -0.011582834646105766, -0.04577460512518883, -0.18480528891086578, -0.07265389710664749, -0.200386181473732, -0.09005680680274963, -0.03888702765107155, -0.0655040442943573, 0.1054617241024971, 0.043362632393836975, -0.1489448994398117, -0.4726199507713318, -0.056552186608314514, 0.0931672751903534, 0.09160295873880386, -0.0697326585650444, -0.10125558823347092, -0.06253780424594879, 0.4369870126247406, 0.0864931121468544, 0.05478030443191528, -0.08673301339149475, -0.03873838856816292, -0.08799508213996887, 0.0006413277005776763, -0.028411230072379112, -0.05111489072442055, -0.11181508004665375, -0.02366551198065281, -0.04537875950336456, -0.07431252300739288, 0.05554303526878357, 0.04306063428521156, -0.021644575521349907, 0.009155762381851673, -0.03231799229979515, -0.00422110129147768, 0.06344602257013321, -0.016034724190831184, 0.2843509018421173, -0.0014936256920918822, 0.09441772103309631, -0.021124929189682007, 0.021085374057292938, -0.09197807312011719, 0.05200246721506119, -0.08890587836503983, 0.049916110932826996, -0.030481459572911263, 0.011848554946482182, 0.0010249682236462831, 0.03953784331679344, 0.03662918880581856, 0.00022061208437662572, 0.0372450053691864, -0.009656449779868126, -0.027393491938710213, 0.14068621397018433, -0.05848349258303642, -0.03572393208742142, 0.05971340835094452, 0.12739941477775574, -0.04635991156101227, -0.019190683960914612, 0.00021849237964488566, -0.0135138388723135, -0.1240813359618187, -0.06398854404687881, -0.023220781236886978, 0.0041145323775708675, -0.09486217796802521, 0.09342038631439209, 0.07578446716070175, -0.048114243894815445, 0.24640712141990662, -0.262104332447052, -0.10179854184389114, 0.039506733417510986, 0.057560451328754425, -0.04277519881725311, 0.012281397357583046, 0.04032595455646515, 0.36117231845855713, -0.054014239460229874, -0.09901764243841171, -0.09639609605073929, -0.07158033549785614, -0.10414215922355652, -0.035090576857328415, -0.11025381833314896, -0.03364287316799164, -0.14536485075950623, 0.0405418761074543, -0.05291697010397911, -0.011134807020425797, 0.07666780799627304, 0.06457928568124771, -0.0037163749802857637, -0.15876664221286774, 0.0005763968802057207, -0.010248992592096329, -0.0006816209643147886, 0.05060586705803871, -0.0700262114405632, -0.06231146678328514, -0.060395240783691406, -0.08166582882404327, 0.06939943134784698, -0.08403842896223068, 0.06838364899158478, -0.124696746468544, -0.022792667150497437, 0.056935157626867294, 0.10692310333251953, -0.009189901873469353, 0.03373737633228302, -0.04839693754911423, 0.0080754105001688, -0.03692404180765152, -0.023965133354067802, -0.09616764634847641, 0.11719867587089539, -0.018845085054636, -0.04557053744792938, -0.03910961002111435, 0.2516223192214966, -0.07389889657497406, -0.05667012184858322, 0.010119362734258175, 0.03656614571809769, -0.04007198289036751, -0.07009277492761612, 0.04767531156539917, 0.055678416043519974, -0.11838885396718979, 0.07900732010602951, 0.002232665428891778, -0.0688415914773941, 0.134882390499115, -0.015722498297691345, -0.1959012895822525, 0.05385556071996689, 0.09336700290441513, -0.03786689415574074, -0.007336956914514303, 0.05501818656921387, -0.008337631821632385, -0.071221262216568, -0.04577726870775223, -0.00896227452903986, 0.04611063748598099, -0.10042701661586761, -0.027401678264141083, -0.14813277125358582, -0.06553550064563751, -0.1438133716583252, 0.024691961705684662, -0.06574411690235138, 0.018038718029856682, 0.09613358229398727, -0.06155925244092941, -0.052907828241586685, -0.05853598937392235, 0.0615164190530777, 0.01675761677324772, -0.011832316406071186, -0.08101910352706909, -0.3273756206035614, 0.030156677588820457, -0.2714536786079407, -0.024145036935806274, 0.021994857117533684, -0.0715654119849205, 0.027680715546011925, -0.11882653087377548, -0.018621712923049927, -0.18158023059368134, 0.20208927989006042, 0.011072791181504726, 0.07433000952005386, -0.0352429635822773, -0.011925139464437962, 0.01867392286658287, -0.01654805988073349, -0.1214536651968956, 0.026278549805283546, -0.05133511498570442, -0.04571894183754921, -0.035685282200574875, 0.14884896576404572, -0.0022856055293232203, -0.040607571601867676, -0.0012024382594972849, -0.021678723394870758, 0.05532272160053253, -0.02751011960208416, 0.007331994827836752, -0.01666632667183876, -0.0953586995601654, 0.10447917133569717, 0.0642736628651619, -0.011356129311025143, 0.07977604866027832, 0.254812628030777, -0.02471941150724888, 0.019045932218432426, 0.041930560022592545, -0.04061993211507797, 0.027997886762022972, 0.023068465292453766, -0.2617659866809845, -0.03214765712618828, -0.05764293670654297, 0.16827723383903503, 0.11080379039049149, 0.07925991714000702, -0.05535068362951279, -0.0721336156129837, -0.09800607711076736, 0.06528066843748093, 0.01653165929019451, -0.05958035588264465, 0.05198058485984802, -0.0335511639714241, -0.1678452044725418, -0.11742035299539566, -0.0690593495965004, 0.09018436074256897, -0.049927178770303726, 0.026255210861563683, -0.0442407950758934, -0.5299021601676941, 0.07073387503623962, -0.33583953976631165, 0.03382435441017151, 0.006278200540691614, -0.00951659306883812, -0.004282322246581316, -0.03532548248767853, -0.043655697256326675, -0.29652348160743713, -0.0051983376033604145, 0.04270588979125023, 0.0032818422187119722, 0.09071729332208633, -0.01768980734050274, 0.04299759492278099, -0.03744952008128166, -0.12898646295070648, -0.09969910234212875, 0.03684535622596741, 0.024081816896796227, -0.060414109379053116, -0.08152544498443604, 0.10575401782989502, -0.0500173345208168, -0.05323481932282448, -0.011810862459242344, 0.10341969132423401, 0.024667104706168175, -0.172010138630867, -0.12042538076639175, -0.019592201337218285, 0.02356666512787342, 0.12745724618434906, 0.13917715847492218, -0.3315705955028534, 0.48376667499542236, 0.14723700284957886, 0.03540784865617752, 0.016821997240185738, -0.010495333932340145, -0.041362497955560684, -0.06065836921334267, -0.5121304392814636, 0.12627364695072174, 0.10827110707759857]}, "conv1.weight": {"shape": [16, 3, 3, 3], "data": [0.3063393533229828, 0.29165059328079224, 0.07145470380783081, 0.2895411252975464, 0.15490353107452393, 0.1607402265071869, 0.01982433721423149, 0.2424592524766922, 0.27444756031036377, -0.05519475042819977, 0.19902266561985016, 0.08170211315155029, 0.157913938164711, 0.12139885872602463, 0.1629214733839035, 0.019253067672252655, 0.21500566601753235, 0.09426483511924744, -0.16470104455947876, -0.06499085575342178, -0.19042281806468964, -0.22979992628097534, -0.2056124210357666, -0.025336939841508865, -0.3114599287509918, -0.21857133507728577, -0.18831518292427063, -0.12784568965435028, 0.011489514261484146, -0.2144128829240799, 0.12150444090366364, -0.17361998558044434, 0.08099520951509476, 0.1005617007613182, -0.062442246824502945, 0.12697111070156097, 0.04415025934576988, 0.1744500994682312, 0.07097736746072769, -0.041512180119752884, 0.10243017971515656, 0.0044824001379311085, 0.18108732998371124, 0.22627140581607819, 0.21128174662590027, -0.2546093761920929, 0.04420919343829155, -0.009827880188822746, -0.09867177903652191, -0.23759791254997253, -0.28125330805778503, -0.08693253993988037, -0.2047376185655594, 0.16323652863502502, 0.1580655723810196, 0.05619829148054123, 0.04746178165078163, -0.047836530953645706, 0.15445375442504883, -0.13844341039657593, -0.06340489536523819, 0.021827373653650284, 0.17634348571300507, 0.06413344293832779, 0.015174110420048237, -0.1084849014878273, 0.10507969558238983, -0.11027877777814865, -0.16069014370441437, -0.21545469760894775, 0.3440646231174469, 0.15875244140625, 0.31738853454589844, -0.20845668017864227, -0.24166017770767212, -0.18141205608844757, -0.08012016862630844, 0.050865598022937775, -0.039325736463069916, 0.3167259693145752, 0.002962013939395547, -0.0759335458278656, 0.16564524173736572, -3.8116493669804186e-05, 0.0277255866676569, 0.012124408967792988, 0.14432179927825928, -0.20024001598358154, -0.10927918553352356, 0.05981319397687912, 0.09415704756975174, -0.009586301632225513, 0.1482052057981491, 0.15020868182182312, -0.03434019163250923, -0.02368997409939766, 0.2582536041736603, 0.02187916822731495, 0.016780754551291466, -0.2575269937515259, -0.20699681341648102, -0.04655113443732262, -0.2454676628112793, -0.29738229513168335, -0.1496826857328415, -0.24801984429359436, -0.24367956817150116, -0.2096405029296875, -0.2440301775932312, -0.15722081065177917, 0.3859997093677521, -0.11082535237073898, 0.18669195473194122, -0.1795484721660614, -0.09346001595258713, -0.04557241499423981, 0.08968737721443176, -0.16336877644062042, -0.039631664752960205, 0.08219249546527863, -0.0764428898692131, 0.06335023045539856, -0.004680555779486895, -0.09506191313266754, -0.1303379088640213, -0.048919521272182465, -0.16478921473026276, -0.10764434188604355, 0.33981963992118835, -0.14877949655056, 0.30569279193878174, 0.10891421139240265, -0.18147653341293335, 0.16345681250095367, 0.0213098656386137, -0.17297258973121643, -0.3381381034851074, -0.31976771354675293, -0.043805964291095734, -0.11634057760238647, -0.025723058730363846, -0.27526411414146423, 0.00865186844021082, -0.30580025911331177, 0.007209427189081907, 0.05194665491580963, 0.1363554745912552, 0.24109205603599548, 0.25191760063171387, -0.08022097498178482, 0.11981301009654999, -0.036890313029289246, 0.011712188832461834, -0.10571033507585526, 0.14164094626903534, -0.13594360649585724, 0.18800663948059082, 0.16755925118923187, 0.1496022492647171, -0.07146523892879486, 0.1921592354774475, 0.05238622799515724, 0.05381258949637413, -0.18068689107894897, 0.0256947111338377, -0.07939673960208893, -0.1253635436296463, 0.19657757878303528, -0.02726431004703045, -0.26846933364868164, -0.1287810355424881, 0.01511276513338089, 0.06565217673778534, -0.10613759607076645, -0.15080764889717102, -0.11598153412342072, -0.17249749600887299, 0.027690531685948372, 0.004505923017859459, -0.232500821352005, 0.1548723578453064, 0.16080394387245178, 0.09241573512554169, 0.005294560920447111, 