{"format": "language_conditioned_act_cvae", "num_params": 166020, "num_intents": 2, "intent_labels": ["always_take_left", "always_take_right"], "img_size": 128, "n_conv_layers": 4, "chunk_size": 5, "action_dim": 4, "d_model": 64, "n_heads": 2, "n_enc_layers": 1, "n_dec_layers": 1, "n_spatial_tokens": 64, "latent_dim": 16, "use_vae": true, "weights": {"spatial_pos": {"shape": [64, 64], "data": [-0.03738515451550484, 0.09906639158725739, -0.040194377303123474, -0.054180216044187546, -0.2077004462480545, -0.04485880583524704, 0.0431150421500206, -0.0529770664870739, -0.006811829283833504, 0.05805204063653946, -0.04018925502896309, 0.06286284327507019, -0.10134873539209366, -0.10604073852300644, 0.05624309927225113, -0.05455244705080986, 0.06551960855722427, -0.09602134674787521, 0.0938822329044342, -0.0583028718829155, 0.0774974599480629, 0.10378041118383408, 0.07066704332828522, 0.08661049604415894, -0.02138126641511917, -0.05877968296408653, -0.048575520515441895, 0.05089116469025612, 0.012620273046195507, -0.06206711381673813, 0.09252169728279114, 0.025762582197785378, -0.010161294601857662, 0.070968396961689, -0.011504215188324451, -0.030289843678474426, -0.10433309525251389, 0.18201929330825806, 0.041670359671115875, 0.024544864892959595, -0.01759147085249424, 0.06896419823169708, 0.025940485298633575, -0.032083604484796524, 0.07106691598892212, 0.007969810627400875, 0.05415935814380646, -0.10178328305482864, 0.07196053862571716, -0.06326743960380554, 0.17003752291202545, -0.00786407757550478, 0.014588716439902782, -0.054678335785865784, -0.15446801483631134, 0.10717567056417465, 0.05437370762228966, 0.024526946246623993, 0.060072559863328934, 0.024444112554192543, -0.03162179887294769, 0.009852101095020771, -0.15013542771339417, -0.009964676573872566, -0.01713741384446621, 0.0028306064195930958, -0.0011390976142138243, 0.009471841156482697, -0.01696600764989853, -0.0365738682448864, -0.0010007118107751012, -0.002755539258942008, -0.011949238367378712, -0.014398608356714249, -0.034955400973558426, 0.009512880817055702, -0.03948628157377243, -0.004286432638764381, 0.0253656767308712, 0.023295555263757706, 0.02957290969789028, 0.005075408145785332, -0.008077719248831272, 0.015097630210220814, 0.01264810748398304, 0.009030223824083805, 0.059391189366579056, 0.02501312829554081, 0.024339791387319565, -0.030285773798823357, -0.005314715672284365, -0.02588699758052826, -0.007143196649849415, -0.019053613767027855, 0.011376616545021534, -0.02322603575885296, -0.024568608030676842, 0.023582961410284042, -0.00848985742777586, -0.011339452117681503, 0.00320773315615952, 0.0067492700181901455, 0.003061605617403984, 0.012782984413206577, -0.0062606846913695335, -0.027187345549464226, -0.008202563971281052, 0.011412335559725761, 6.820684939157218e-05, 0.0029019892681390047, 0.031227417290210724, -0.030639316886663437, -0.006319884210824966, 0.02259865403175354, 0.0039534494280815125, 0.03268247842788696, -0.036132875829935074, 0.01278426218777895, -0.004621465690433979, 0.012151969596743584, -0.011758595705032349, -0.0006550526595674455, -0.015077542513608932, 0.004410154651850462, -0.012872620485723019, 0.0031454390846192837, -0.012442939914762974, -0.01577511616051197, -0.026475273072719574, 0.025040285661816597, 0.03223280981183052, 0.007443352602422237, -0.0077860234305262566, 0.002585355658084154, 0.03863208740949631, -0.05725943669676781, 0.021217355504631996, 0.009693555533885956, -0.04753945395350456, 0.023493636399507523, -0.06011613830924034, -0.00710964435711503, -0.031393200159072876, -0.0318605937063694, 0.002565582050010562, -0.00565000344067812, 0.009304453618824482, 0.005949337501078844, 0.01084862556308508, -0.007122269831597805, 0.010698272846639156, 0.011772390455007553, -0.020025189965963364, -0.03760334104299545, 0.00042025899165309966, 0.0116888377815485, 0.042429663240909576, -0.022448234260082245, 0.01270693726837635, 0.03769519180059433, -0.0007951764273457229, 0.03983914107084274, 0.017259296029806137, -0.030366551131010056, -0.02439568005502224, 0.004791204817593098, 0.035126686096191406, 0.005167665891349316, -0.0013382341712713242, 0.00839169230312109, 0.038304489105939865, 0.04770158231258392, 0.018506424501538277, -0.01850021257996559, 0.02128165028989315, -0.021622328087687492, 0.02225341461598873, -0.005285071674734354, -0.008520456962287426, -0.004438725300133228, 0.029027221724390984, 0.019807705655694008, 0.01406398881226778, 0.0027266491670161486, 0.03919936344027519, -0.02176452986896038, 0.0007638996466994286, 0.01777077279984951, 0.020463619381189346, 0.03984127193689346, 0.04461360350251198, 0.006654336117208004, 0.016629336401820183, -0.014142333529889584, 0.0133243128657341, -0.015321971848607063, 0.002508921083062887, 0.029768357053399086, 0.00992598570883274, -0.0152565473690629, 0.01263832300901413, -0.011509223841130733, -0.0028498454485088587, -0.002309320028871298, 0.054404839873313904, 0.0053920624777674675, 0.016121400520205498, -0.027745362371206284, -0.004626357927918434, -0.01904570497572422, -0.015120242722332478, 0.029167085886001587, 0.009166078642010689, -0.0015094560803845525, -0.03165875002741814, 0.015360452234745026, 0.004786091390997171, -0.014170852489769459, -0.003838673233985901, -0.021227501332759857, 0.0037413297686725855, -0.028726400807499886, -0.006563389673829079, -0.014472046867012978, -0.00019341602455824614, 0.021174805238842964, 0.002539835637435317, 0.02732449397444725, -0.016401657834649086, -0.02897672913968563, -0.004645929671823978, -0.01981593668460846, 0.029189784079790115, 0.012309293262660503, -0.0005931436317041516, -0.021876158192753792, 0.01714949868619442, -0.004483439959585667, 0.011938326060771942, -0.015633510425686836, 0.033115942031145096, 0.008576774969696999, -0.008557948283851147, 0.07266908138990402, 0.028644049540162086, 0.027260221540927887, -0.0014038811204954982, -0.026408052071928978, 0.033907968550920486, -0.002450258005410433, -0.04286600276827812, 0.005981584545224905, 0.006687045097351074, 0.03509605675935745, -0.0034119724296033382, -0.004091312643140554, 0.03698765113949776, -0.020392654463648796, 0.03459040820598602, 0.006369436159729958, -0.02529604360461235, 0.002810152480378747, -0.01073987316340208, 0.006284274160861969, -0.022664910182356834, 0.0006101604085415602, 0.034620415419340134, -0.02154819667339325, -0.038855016231536865, 0.02740083821117878, -0.011678468436002731, 0.01754620298743248, -0.010052332654595375, 0.033444322645664215, -0.03501195088028908, -0.02390989661216736, -0.024690724909305573, -0.0008754137670621276, -0.008340037427842617, 0.03751643747091293, -0.02005861885845661, 0.006336867809295654, -0.016335681080818176, -0.00790389720350504, -0.0280215572565794, -0.014919486828148365, 0.012982768006622791, 0.008259291760623455, 0.012760463170707226, 0.029240507632493973, -0.00904440600425005, 0.00033028991310857236, 0.03410238027572632, 0.008312241174280643, -0.01766970008611679, -0.03539762273430824, 0.041414327919483185, -0.02129744365811348, 0.008104615844786167, 0.013173289597034454, -0.03406783565878868, 0.02024015784263611, -0.0001778536243364215, 0.022309256717562675, -0.027776749804615974, -0.010560592636466026, -0.01118738017976284, 0.03323008865118027, -0.00492832763120532, 0.009765601716935635, -0.009507352486252785, 0.005112252663820982, 0.00959071982651949, -0.010238636285066605, -0.0032043596729636192, 0.01957067660987377, 0.006197592243552208, 4.403725324664265e-05, -0.003833174705505371, -0.006954134441912174, 0.019719375297427177, 0.025077391415834427, -0.0019787894561886787, -0.02945890836417675, 0.024569274857640266, -0.008137859404087067, -0.006585237570106983, -0.02095816284418106, 0.010722160339355469, 0.01340161357074976, 0.005511968396604061, 0.017282504588365555, 0.007152749225497246, 0.03538055717945099, 0.019634617492556572, -0.05036913976073265, 0.0022140336222946644, 0.012474413961172104, -0.0358772948384285, -0.003995170816779137, 0.02969956584274769, -0.013711359351873398, -0.029702698811888695, 0.00045475992374122143, 0.031897228211164474, -0.014767337590456009, -0.0005844797706231475, -0.01981252245604992, -0.006183107383549213, 0.0003948324592784047, 0.0032165267039090395, -0.0011140035931020975, 0.000264239264652133, 0.02499144896864891, 0.028312668204307556, 0.0326252244412899, -0.024431850761175156, 0.020508434623479843, 0.010369542986154556, -0.013044359162449837, -0.024990307167172432, -0.01007978618144989, -0.0024949766229838133, -0.0017568001057952642, -0.021157894283533096, -0.026618055999279022, 0.0295170396566391, -0.014153082855045795, 0.033210549503564835, -0.02801474742591381, 0.014168214984238148, 0.030090799555182457, 0.00279231951572001, -0.02517341822385788, -0.03905477374792099, 0.01376561913639307, 0.014866124838590622, -0.006557841319590807, -0.03144378587603569, 0.02973860874772072, -0.0220902469009161, -0.021572474390268326, -0.0028863181360065937, -0.016990413889288902, -0.012683629058301449, -0.0018502530874684453, -0.019181309267878532, 0.03067396953701973, 0.005753852892667055, 0.026011118665337563, 0.057995401322841644, -0.011618699878454208, -0.018420390784740448, -0.02009175904095173, 0.05725023150444031, 0.03780210390686989, 0.003362927120178938, 0.012367745861411095, 0.007388679310679436, -0.0058207884430885315, -0.01739264279603958, 0.01498766615986824, -0.014449886046350002, -0.014041409827768803, 0.005153413396328688, -0.008025006391108036, 0.021391820162534714, 0.02328447252511978, -0.03190361335873604, -0.0015617473982274532, 0.004435685463249683, 0.0034080345649272203, 0.00015921983867883682, 0.007879775948822498, 0.005610994528979063, 0.00566454790532589, -0.002317089354619384, -0.007282167673110962, -0.009221452288329601, -0.012462157756090164, -0.004084221087396145, 0.01831481046974659, 0.014491871930658817, 0.011817432008683681, -0.004253735300153494, 0.04426603019237518, 0.0054428838193416595, 0.02837529219686985, 0.009989742189645767, -0.0496702678501606, 0.015514870174229145, -0.011248499155044556, -0.024568645283579826, 0.022273393347859383, 0.009381454437971115, -0.02175883762538433, 0.005390291567891836, 0.022589437663555145, 0.04298517480492592, -0.0029730850365012884, -0.035498108714818954, 0.0061167036183178425, 0.03106047958135605, 0.00936095416545868, -0.004739954601973295, 0.007913404144346714, -0.0002541109570302069, -0.03529537096619606, -0.04971448704600334, 0.018478939309716225, 0.09193199127912521, -0.011888192035257816, 0.0032831106800585985, 0.028260067105293274, 0.02659381926059723, -0.008002410642802715, -0.004526600707322359, -0.018957138061523438, 0.03422648087143898, -0.022103754803538322, -0.0029981841798871756, 0.026696788147091866, -0.013322925195097923, 0.008600790984928608, -0.029553856700658798, 0.06548798084259033, -0.01109208632260561, -0.0494893379509449, 0.01237531378865242, -0.0059096855111420155, -0.0035666145849972963, -0.0014786033425480127, -0.04329955577850342, -0.014502881094813347, 0.03806169331073761, -0.02009652368724346, -0.043496083468198776, -0.014197231270372868, -0.03244584798812866, -0.024440674111247063, 0.010126572102308273, -0.018913360312581062, -0.008625207468867302, 0.018750494346022606, 0.017341863363981247, 0.004711135756224394, 0.017312591895461082, 0.007614600006490946, -0.025879889726638794, -0.018364891409873962, -0.009983503259718418, -0.015616574324667454, 0.030903130769729614, 0.005478204693645239, -0.06554198265075684, -0.027582094073295593, -0.006007791496813297, 0.001062103663571179, -0.0014260928146541119, 0.03392985463142395, 0.027027344331145287, 0.07010385394096375, 0.030846549198031425, 0.01505484152585268, 0.026958437636494637, 0.008411813527345657, 0.02118760347366333, -0.005823908839374781, -0.027238868176937103, -0.03161110356450081, -0.003023321507498622, 0.0038850728888064623, -0.0053600952960550785, 0.005338201764971018, -0.006367611698806286, -0.024939022958278656, -0.02682614140212536, -4.6152388677001e-05, -0.005549962632358074, -0.0009282993851229548, -0.005057761445641518, 0.04827427864074707, -0.02905426174402237, 0.010779795236885548, -0.025471167638897896, 0.008550317957997322, 0.012146899476647377, -0.037375494837760925, 0.010663328692317009, -0.048154450953006744, 0.0316346175968647, -0.03483980521559715, -0.010873274877667427, 0.03245846927165985, -0.009081972762942314, 0.008848943747580051, 0.009420317597687244, -0.03247368335723877, -0.0380796380341053, -0.027269434183835983, -0.020777223631739616, 0.011700116097927094, 0.0006347522721625865, 0.030871538445353508, 0.00512073514983058, 0.017946859821677208, -0.00037155873724259436, -0.022131947800517082, -0.025934766978025436, 0.008238116279244423, 0.025452518835663795, -0.04319733381271362, 0.011506706476211548, 0.03656132519245148, 0.016295278444886208, 0.0032413643784821033, -0.0041473195888102055, -0.0033936842810362577, 0.02862725779414177, -0.00565160671249032, 0.03127562627196312, -0.019005658105015755, 0.010931991040706635, -0.03847372531890869, 0.012965881265699863, -0.043153874576091766, -0.023516695946455002, 0.004821702837944031, 0.0040520550683140755, -0.010679724626243114, -0.007731049787253141, 0.01305659394711256, 0.01915786787867546, -0.03243308886885643, -0.015039638616144657, -0.007929893210530281, 0.00662807235494256, 0.019359128549695015, -0.004669233225286007, -0.03981587663292885, -0.01811808906495571, 0.0215050857514143, -0.01546403393149376, 0.005051773507148027, 0.001239202218130231, 0.04013896733522415, -0.011509587988257408, -0.00042887264862656593, -0.008970781229436398, 0.025097021833062172, 0.011198239400982857, -0.0004100339428987354, -0.018258346244692802, 0.024730874225497246, -0.018433954566717148, 0.01602013409137726, -0.022281624376773834, 0.02272903360426426, -6.494436092907563e-05, -0.004323755856603384, 0.01089493464678526, -0.01632942445576191, -0.00990162044763565, 0.012672456912696362, 0.029419733211398125, 0.004965743515640497, -0.01745499297976494, -0.018888477236032486, -0.02841278165578842, 0.012143939733505249, -0.012552662752568722, -0.007644831668585539, 0.002397438744083047, 0.03634771332144737, 0.03190947696566582, -0.028421178460121155, -0.008533354848623276, -0.00523550296202302, -0.0011114922817796469, 0.029403328895568848, -0.01724301651120186, -0.014940444380044937, 0.02243443764746189, -0.0311376191675663, 0.012210343033075333, -0.004743903409689665, 0.012574596330523491, -0.005145261529833078, -0.030378304421901703, -0.013719551265239716, -0.025509105995297432, 0.015292385593056679, 0.006529850885272026, -0.0007954150787554681, 0.0329115092754364, 0.006674777250736952, -0.005074462853372097, -0.012760897167026997, 0.022311942651867867, 0.026811731979250908, 0.017522605136036873, 0.02112341672182083, 0.024018147960305214, 0.0001457346515962854, -0.01595398224890232, -0.0338098481297493, 4.8665377107681707e-05, 0.01369031798094511, 0.009849908761680126, 0.03652414679527283, 0.020337451249361038, 0.024141522124409676, -0.05968526005744934, -0.000603252265136689, 0.021778365597128868, -0.00824461318552494, 0.036674950271844864, -0.017725510522723198, 0.05239175632596016, -0.005485604051500559, 0.005388539284467697, 0.04444364085793495, -0.014274084009230137, -0.010637564584612846, 0.00626387121155858, -0.0183892659842968, -0.0047484347596764565, 0.02164698950946331, 0.0018775832140818238, 0.0037530476693063974, 0.06094728782773018, -0.02749975025653839, 0.023473575711250305, -0.0036030872724950314, 0.001737775164656341, -0.025161782279610634, 0.0017783246003091335, 0.008460577577352524, 0.030605990439653397, -0.011069457046687603, 0.0004127919673919678, 0.0072346339002251625, 0.01889675110578537, 0.028923610225319862, -0.01985560730099678, 0.002348838374018669, 0.018302926793694496, -0.05383732542395592, 0.01904863305389881, 0.0005574742099270225, 0.018906686455011368, -0.01832352951169014, -0.010977385565638542, -0.012640794739127159, -0.04031252861022949, -0.005713597871363163, 0.024440225213766098, -0.024506159126758575, -0.028381234034895897, -0.01242285966873169, 0.00783294253051281, 0.03153334558010101, -0.01126529648900032, 0.003973935265094042, 0.008808632381260395, 0.006240073591470718, 0.013067814521491528, -0.010800660587847233, -0.0519094355404377, -0.04472191259264946, -0.0032127995509654284, -0.023679219186306, 0.0066914972849190235, 0.001934805535711348, -0.013298050500452518, 0.027071185410022736, -0.03480076417326927, 0.023745553568005562, 0.007412734907120466, 0.005981186870485544, 0.009223466739058495, -0.01551478449255228, -0.012186146341264248, -0.01657376065850258, -0.03263219818472862, -0.04610094428062439, 0.029099347069859505, -0.013539889827370644, 0.005080355331301689, 0.024661511182785034, -0.031032852828502655, -0.005489494185894728, -0.004477216396480799, -0.0061264862306416035, -0.019005490466952324, -0.009825890883803368, -0.00965301226824522, -0.005347712431102991, 0.005702601280063391, 0.005778694059699774, -0.015719501301646233, -0.019843319430947304, -0.007164119742810726, 0.007992804050445557, -0.0238327756524086, -0.024821650236845016, 0.0032551370095461607, -0.027870558202266693, -0.007197165861725807, -0.03897365927696228, -0.014453214593231678, 0.05054924637079239, -0.003987560048699379, 0.01371608953922987, 0.005280670709908009, -0.0020252091344445944, -0.007995560765266418, 0.021091071888804436, -0.0004560476227197796, 0.001302394550293684, 0.003521715058013797, -0.051813822239637375, -0.004088904242962599, 0.015533866360783577, 0.010203855112195015, -0.010028501972556114, 0.017324652522802353, 0.019439315423369408, -0.025078948587179184, 0.0398767925798893, 0.006385131273418665, -0.00022055076260585338, 0.004586003255099058, 0.004455551039427519, 0.009727153927087784, 0.016813546419143677, 0.018551887944340706, -0.020857777446508408, 0.025398248806595802, -0.004997782409191132, -0.0024127503857016563, 0.020281491801142693, 0.028986837714910507, -0.015365068800747395, -0.029725968837738037, 0.011036336421966553, -0.0009208072442561388, -0.007011596113443375, -0.02505534142255783, -0.0017769553232938051, -0.02740333043038845, 0.01338426023721695, -0.03559265658259392, -0.0069847069680690765, 0.000746648118365556, -0.018134543672204018, -0.015920672565698624, -0.023923922330141068, 0.006840631365776062, -0.003852233989164233, 0.027251742780208588, 0.016591669991612434, -5.1754777814494446e-05, -0.006715891417115927, 0.03801678866147995, 0.03324500471353531, -0.030760660767555237, -0.012847399339079857, 0.011831415817141533, 0.007576873060315847, -0.02268381603062153, -0.016923919320106506, -0.013097761198878288, -0.012210366316139698, 0.008668679744005203, -0.018018871545791626, 0.007362158503383398, -0.03696688637137413, 0.0036532205995172262, -0.010568738915026188, -0.017797309905290604, -0.02072199247777462, -0.011586494743824005, -0.007298628333956003, 0.01788746938109398, 0.008427849970757961, 0.0019713002257049084, -0.004649401176720858, 0.021572232246398926, -0.002031483221799135, -0.012771880254149437, 0.013977231457829475, -0.03771728277206421, 0.02969449572265148, 0.007702182047069073, 0.02302468754351139, -0.004066391382366419, 0.04780472069978714, 0.00900143850594759, 0.02606552094221115, -0.018949463963508606, -0.02989516407251358, -0.01137058436870575, 0.01565794087946415, -0.0030375358182936907, 0.019912438467144966, 0.013409282080829144, -0.04596119746565819, -0.017752034589648247, 0.01793665997684002, -0.013391944579780102, -0.03225241228938103, -0.0035065498668700457, -0.02132168598473072, 0.013729321770370007, -0.02154167927801609, -0.04092003032565117, -0.002077217912301421, -0.002941219601780176, 0.017977852374315262, -0.022478662431240082, 0.003695960156619549, -0.017040420323610306, 0.00890293624252081, 0.022529084235429764, 0.044819176197052, -0.03384348377585411, -0.020780140534043312, -0.011155853047966957, 0.007279208395630121, -0.01856015808880329, 0.009416651912033558, 0.027465030550956726, 0.008748252876102924, -0.02210696041584015, -0.02621869184076786, 0.015066725201904774, -0.018237700685858727, -0.012491247616708279, 0.007801455911248922, -0.0054073031060397625, 0.0036511921789497137, 0.012765508145093918, 0.02667021006345749, -0.02185618132352829, 0.03136642277240753, 0.04476987197995186, -0.011412808671593666, -0.013913438655436039, 0.03288731351494789, 0.02368343248963356, 0.007805244997143745, 0.009634075686335564, -0.0007183598354458809, -0.02474934607744217, -0.005508638918399811, 0.015611542388796806, -0.0359039306640625, -0.02521567977964878, 0.0035971314646303654, 0.01973186992108822, 0.007900585420429707, -0.02207016386091709, -0.03291159123182297, -0.009438500739634037, 0.022121993824839592, -0.013637007214128971, 0.004667114466428757, -0.005762479733675718, 0.012239182367920876, 0.036902640014886856, 0.057351741939783096, 0.01215430162847042, 0.023790806531906128, 0.006707358174026012, -0.01300052274018526, 0.020165162160992622, -0.018774401396512985, -0.009474139660596848, -0.007788812275975943, 0.04010339453816414, -0.004461325239390135, 0.028223613277077675, 0.0139403585344553, -0.03220881521701813, -0.03180024027824402, 0.027868466451764107, -0.0002141875447705388, 0.03694266825914383, -0.0030858665704727173, -0.02073795162141323, -0.011745255440473557, 0.017899291589856148, 0.0008821795927360654, -0.013184033334255219, -0.015031838789582253, -0.0009594179573468864, -0.012200896628201008, -0.01552961952984333, -0.008624589070677757, -0.025866998359560966, -0.0007459888001903892, -0.016497554257512093, 0.008027113042771816, -0.039669185876846313, 0.013048579916357994, -0.04008554667234421, -0.003793092677369714, 5.549052366404794e-05, -0.025246141478419304, 0.019510418176651, 0.05313178524374962, 0.006836657412350178, -0.02040720358490944, -0.020392397418618202, -0.044524215161800385, -0.0383218415081501, -0.011074438691139221, 0.022555887699127197, -0.02601475454866886, 0.0078073167242109776, 0.000481802795547992, 0.06745681911706924, -0.015468016266822815, 0.0021462810691446066, 0.04367945343255997, 0.007046814076602459, 0.033792052417993546, 0.004881666973233223, -0.009242255240678787, 0.01585480198264122, -0.010157584212720394, 0.016708385199308395, 0.01899668015539646, 0.009694851003587246, -0.0368228517472744, -0.03158971667289734, 0.0014784595696255565, -0.005676466505974531, 0.015385710634291172, -0.03126043081283569, -0.010044833645224571, 0.024650929495692253, -0.07868988811969757, -0.02245008759200573, 0.019275015220046043, -0.031006675213575363, -0.04016036540269852, -0.011428895406425, -0.04449038580060005, -0.012776784598827362, 0.002772553823888302, 0.031136877834796906, -0.03592242673039436, 0.05501528084278107, 0.013653694652020931, 0.04750819876790047, -0.011770118027925491, -0.0244821198284626, -0.006370235234498978, 0.04061604291200638, 0.001119900494813919, -0.028271399438381195, -0.025687044486403465, -0.008250869810581207, -0.012191708199679852, -0.05369234457612038, -0.011767065152525902, -0.0011572513030841947, -0.027254628017544746, 0.010204613208770752, 0.011479094624519348, -0.02405029721558094, 0.0370655357837677, 0.06983532011508942, 0.02045692689716816, 0.027660898864269257, 0.0011832558084279299, -0.020549414679408073, -0.01732752099633217, -0.016992896795272827, -0.03675289824604988, 0.030267205089330673, -0.029899371787905693, 0.020956525579094887, -0.010808959603309631, -0.01515596080571413, -0.0019625204149633646, 0.024975063279271126, -0.01203165203332901, -0.03470931202173233, 0.016950290650129318, -0.012125978246331215, 0.010786163620650768, -0.0050808098167181015, 0.0414065383374691, 0.007461391855031252, 0.006726487074047327, -0.0343385674059391, 0.024972349405288696, -0.01301122922450304, -0.0028638653457164764, 6.169926928123459e-05, 0.034697551280260086, 0.004140641540288925, 0.006088362541049719, -0.015897603705525398, 0.020774196833372116, -0.011085638776421547, 0.006656124722212553, 0.0033374056220054626, 0.026531025767326355, 0.005549636669456959, -0.028778178617358208, 0.01207662932574749, 0.020006874576210976, 0.013269769959151745, 0.004875041078776121, -0.0019350717775523663, -0.0295738335698843, -0.0006596423918381333, 0.0038292473182082176, 0.009677235037088394, -0.016636041924357414, 0.03220004215836525, 0.0010683845030143857, 0.0013051239075139165, -0.009460845962166786, 0.007554369978606701, -0.017520777881145477, 0.0011982069117948413, -0.039871957153081894, 0.008779162541031837, -0.0007673526997677982, -0.003746110014617443, -0.002116232179105282, -0.03560255840420723, 0.02091413363814354, 0.008062769658863544, 0.04594483599066734, -0.013167074881494045, 0.02718309685587883, -0.03332652896642685, 0.016945617273449898, -0.012397311627864838, 0.017644112929701805, -0.022008592262864113, -0.004360278137028217, -0.005501193925738335, 0.03887604922056198, -0.013306057080626488, -0.06051947921514511, 0.026323899626731873, -0.007959941402077675, -0.028071530163288116, 0.013870399445295334, -0.02795400843024254, -0.0027606782969087362, -0.01346481591463089, 0.02639220468699932, -0.020670253783464432, 0.006796971894800663, -0.004824098665267229, -0.00972501840442419, 0.031514257192611694, -0.0009647023980505764, 0.043415747582912445, -0.011864494532346725, -0.010436072014272213, 0.03992874547839165, 0.017917733639478683, -0.004937983117997646, -0.01603901945054531, 0.0031072853598743677, 0.009223788045346737, -0.021729521453380585, 0.03474937379360199, -0.03889007866382599, -0.02138030156493187, 0.0012125272769480944, 0.007094158325344324, -0.002852363046258688, -0.012757444754242897, 0.0038481017109006643, -0.017598796635866165, 0.014228269457817078, -0.02563765086233616, -0.01032100711017847, 0.013639225624501705, -0.010357853956520557, 0.004403812810778618, -0.00074104341911152, -0.0077136545442044735, 0.059904709458351135, -0.01204177550971508, 0.026117151603102684, 0.0052286842837929726, -0.032817766070365906, 0.029927559196949005, 0.031110350042581558, 0.009674583561718464, -0.008519372902810574, -0.0032266585621982813, -0.010827622376382351, 0.009650928899645805, -0.01756276749074459, 0.00039121723966673017, 0.008734077215194702, 0.020124545320868492, -0.02242984063923359, -0.009859982877969742, 0.0394756980240345, 0.0053133172914385796, 0.03541470691561699, 0.04067434370517731, 0.003203728934749961, 0.030830416828393936, 0.02658037468791008, 0.04874749109148979, 0.011606317013502121, 0.008215455338358879, 0.03222885727882385, 0.012652138248085976, -0.02515423484146595, 0.01628449745476246, -0.009434573352336884, -0.0225371140986681, 0.020603720098733902, 0.02596702054142952, 0.030680803582072258, -0.005372722167521715, -0.010300287976861, -0.02864529751241207, -0.00011726826778613031, -0.007787215989083052, -0.01716652885079384, -0.030601710081100464, 0.02556661143898964, -0.0015743655385449529, 0.005421341862529516, -0.020397085696458817, 0.021449442952871323, 0.01247322652488947, 0.018547512590885162, -0.013785076327621937, 0.020710911601781845, 0.010397346690297127, 0.0002715317823458463, 0.015214354731142521, -0.03749809414148331, 0.0008285108488053083, -0.0035821679048240185, 0.019927456974983215, 0.018754830583930016, 0.008704748004674911, 0.003067179350182414, -4.301219087210484e-05, 0.018115714192390442, 0.01928030699491501, -0.013014361262321472, 0.025173407047986984, -0.002178550697863102, 0.013330508954823017, -0.033861193805933, 0.028949011117219925, 0.017172370105981827, -0.004596280865371227, -0.006152621004730463, -0.021331895142793655, -0.025971055030822754, -0.0011059407843276858, -0.01240820437669754, 0.01044175960123539, -0.023732708767056465, -0.005232577677816153, 0.026349961757659912, -0.026438023895025253, -0.018946219235658646, -0.04021405056118965, -0.012918672524392605, 0.056684210896492004, 0.04616178199648857, -0.011490225791931152, -0.006030595395714045, -0.06751752644777298, -0.05319130793213844, 0.003158348612487316, 0.042147692292928696, 0.04673391208052635, -0.018735334277153015, 0.019562583416700363, -0.007782911416143179, -0.023057520389556885, -0.006549506913870573, -0.017597142606973648, 0.007559323683381081, 0.002242567017674446, -0.0281645767390728, -0.005673220381140709, -0.031287115067243576, -0.006756494287401438, -0.014962823130190372, 0.03225882723927498, 0.020437229424715042, -0.03806145489215851, -0.011393970809876919, 0.03990728780627251, -0.031325243413448334, -0.05618893355131149, -0.031208768486976624, -0.007008317392319441, 0.012860472314059734, -0.03701768070459366, 0.026177849620580673, 0.019335918128490448, 0.04003274813294411, 0.009538930840790272, -0.023436032235622406, -0.007614940404891968, -0.005591966677457094, 0.021413400769233704, 0.020595408976078033, 0.0042280773632228374, 0.01940895989537239, 0.0009187303367070854, 0.010532082058489323, 0.013503162190318108, 0.006022557150572538, 0.034560542553663254, -0.044992197304964066, 0.06066965311765671, -0.006403149571269751, 0.018014593049883842, 0.010216115042567253, 0.056220803409814835, 0.01579444110393524, 0.0035994485951960087, -0.024546725675463676, -0.05323514714837074, 0.02863583341240883, -0.029996458441019058, -0.021659525111317635, 0.04794376716017723, -0.053850237280130386, 0.028667625039815903, 0.0113515080884099, 0.0187772735953331, 0.0012909576762467623, -0.0029473414178937674, 0.05732320249080658, 0.0018960580928251147, 0.010035711340606213, 0.02643863670527935, -0.010939650237560272, 0.02460099570453167, -0.02358584851026535, 0.0008431121823377907, 0.007387402467429638, -0.0067702303640544415, -0.014584286138415337, 0.020544271916151047, -0.024399681016802788, 0.0005268518580123782, -0.07211805135011673, 0.001589687541127205, 0.01701759174466133, -0.04071345180273056, -0.0052053602412343025, 0.02029605396091938, -0.026998059824109077, 0.016159892082214355, -0.05788636952638626, 0.014453910291194916, -0.01648958958685398, 0.004954476375132799, -0.06431033462285995, 0.015773523598909378, 0.016455605626106262, -0.007038258947432041, -0.0014599914429709315, 0.05115652456879616, 0.06112412363290787, 0.02372346632182598, -0.009905699640512466, -0.0065106735564768314, 0.027140576392412186, -0.011767902411520481, -0.021278919652104378, -0.03368555009365082, 0.04297533631324768, -0.014013690873980522, -0.03996923938393593, -0.016136711463332176, 0.006667992100119591, 0.03419189155101776, 0.012117192149162292, 0.03033570945262909, 0.014954933896660805, -0.026621155440807343, -0.020341606810688972, -0.021173639222979546, -0.01835489273071289, 0.020106185227632523, -0.04669412970542908, 0.014063321985304356, -0.00335434777662158, 0.025582455098628998, 0.006754257250577211, 0.03255901113152504, 0.005170568823814392, -0.005450239405035973, -0.01942303404211998, 0.0045220740139484406, -0.037465717643499374, 0.03332480788230896, 0.022485194727778435, 0.03221804276108742, 0.017119240015745163, 0.018523504957556725, 0.015636416152119637, 0.01862889528274536, 0.015080008655786514, -0.01288512721657753, -0.05317079275846481, -0.012600425630807877, 0.018057862296700478, -0.03698870912194252, -0.05715994909405708, 0.007036870811134577, -0.0011707444209605455, 0.018439535051584244, 0.010134007781744003, -0.022503020241856575, -0.001335900742560625, -0.0010504024103283882, 0.01949896477162838, 0.03275596722960472, -0.08759815245866776, 0.04680753871798515, -0.0009297807118855417, 0.01663104258477688, -0.02843545563519001, -0.04026498645544052, -0.017962871119379997, -0.010494682006537914, 0.03908653184771538, 0.033843014389276505, -0.0032349424436688423, -0.017615752294659615, 0.027727127075195312, -0.030748726800084114, -0.04122375324368477, -0.022069795057177544, 0.027629496529698372, -0.03357669338583946, -0.03155628591775894, 0.03107374906539917, 0.022975226864218712, 0.00788023415952921, -0.030382540076971054, 0.04994358867406845, 0.006057909224182367, -0.002947809873148799, -0.0008815471665002406, 0.004614919424057007, -0.0028430840466171503, 0.0035985270515084267, -0.0182817205786705, 0.05753711238503456, 0.006627534981817007, -0.004654573742300272, 0.013804196380078793, 0.01292792521417141, -0.016090869903564453, -0.06293462216854095, -0.020862339064478874, 0.019661152735352516, -0.041485495865345, -0.02973758429288864, 0.005475505255162716, 0.018600935116410255, 0.043496258556842804, -0.0005914588109590113, -0.02134482003748417, 0.030825864523649216, -0.02289704419672489, -0.03138485923409462, -0.021789908409118652, -0.01493273489177227, -0.02174915000796318, -0.030713815242052078, -0.0607340931892395, -0.03229851275682449, -0.00793533492833376, -0.04138856381177902, 0.005838060285896063, -0.0020040790550410748, 0.007214095443487167, -0.0387139655649662, 0.016174206510186195, 0.07193004339933395, -0.015539039857685566, 0.025111975148320198, 0.03822259604930878, 0.03048522397875786, -0.04415504261851311, -0.04715181142091751, 9.944992052624002e-05, 0.011121322400867939, 0.02888299524784088, -0.040644191205501556, 0.02519407868385315, -0.06030471995472908, 0.020898576825857162, -0.0018088105134665966, -0.0055600497871637344, -0.005615514703094959, 0.027418021112680435, -0.05002287030220032, -0.033163055777549744, -0.030540117993950844, -0.004125309642404318, 0.01253501232713461, 0.025656400248408318, 0.019474942237138748, -0.00458496855571866, -0.010159758850932121, -0.032322026789188385, -0.023864250630140305, 0.00802835263311863, 0.054871320724487305, -0.010494419373571873, 0.029090024530887604, -0.025916283950209618, -0.02044738084077835, 0.045976199209690094, -0.03528134897351265, 0.013568460941314697, -0.0016512639122083783, 0.057327333837747574, 0.008291115052998066, -0.00978797860443592, -0.022498397156596184, -0.015655657276511192, -0.012001564726233482, 0.021174509078264236, -0.009701035916805267, -0.06797599792480469, 0.006201018579304218, 0.08001046627759933, -0.030696926638484, -0.020919034257531166, -0.00907184462994337, -0.022830011323094368, -0.0011371353175491095, -0.025689754635095596, 0.001967377495020628, -0.03817087039351463, 0.00025432088295929134, -0.0011407589772716165, -0.0027517627459019423, -0.07912149280309677, -0.01242363266646862, -0.031505290418863297, 0.11863625794649124, 0.007398533634841442, 0.010859358124434948, 0.05452585965394974, 0.09108743816614151, 0.013001896440982819, -0.01930350810289383, -0.05279012769460678, 0.052562352269887924, 0.03177952766418457, 0.043581534177064896, -0.06249966099858284, 0.018285250291228294, -0.017505936324596405, -0.0534113384783268, -0.038963183760643005, 0.0276735108345747, -0.009411067701876163, 0.002839616732671857, -0.08283628523349762, -0.040594007819890976, 0.03042176552116871, 0.04844909906387329, 0.007129308767616749, 0.05164704471826553, 0.03636619821190834, -0.0691874772310257, -0.04472507908940315, 0.004041230771690607, -0.06150570884346962, -0.018221523612737656, -0.04949865862727165, -0.08970633149147034, -0.009338125586509705, 0.041357289999723434, -0.008737228810787201, 0.07688450813293457, 0.015964660793542862, -0.03765431419014931, -0.018507294356822968, 0.008922158740460873, -0.03338499739766121, 0.03131643310189247, 0.012544202618300915, 0.06303258240222931, -0.004344728775322437, -0.006248098332434893, 0.005836991127580404, 0.029847875237464905, 0.0010753772221505642, 0.0010929841082543135, 0.011802425608038902, 0.012627989985048771, -0.07037772238254547, 0.05943998321890831, -0.03352617472410202, 0.02244817465543747, 0.03165243938565254, -0.0003913874679710716, -0.004169397987425327, -0.061846714466810226, -0.0491810142993927, 0.038513392210006714, -0.032287996262311935, 0.013283438049256802, -0.0768481194972992, -0.0328538715839386, 0.046419061720371246, -0.03174406290054321, 0.006211402826011181, -0.04795501381158829, 0.008682736195623875, 0.04047763720154762, 0.01622885651886463, 0.010825651697814465, -0.01670832931995392, 0.020640913397073746, 0.0034794548992067575, -0.12806321680545807, 0.0016526822000741959, -0.05861281231045723, -0.0320727713406086, -0.020936155691742897, 0.004784276708960533, 0.06339921057224274, 0.02442462183535099, 0.04843983054161072, 0.008348716422915459, 0.04594700410962105, 0.02227330394089222, 0.02041751518845558, -0.03552651032805443, -0.051577772945165634, 0.01978372409939766, -0.0010342153254896402, 0.00629671523347497, -0.09340502321720123, -0.06410106271505356, 0.11627382785081863, -0.036438360810279846, 0.12979663908481598, 0.047629743814468384, -0.12509123980998993, 0.04092969000339508, 0.05586916580796242, 0.009842148050665855, 0.08044050633907318, -0.012237340211868286, 0.13665656745433807, 0.010132585652172565, -0.07233743369579315, 0.12744714319705963, 0.017816273495554924, 0.05803275480866432, -0.021190613508224487, -0.13027361035346985, 0.011438645422458649, -0.086590975522995, -0.0028635021299123764, -0.0900617241859436, 0.017545636743307114, 0.08821278065443039, 0.07576514780521393, -0.019395822659134865, -0.11163788288831711, 0.003352483967319131, 0.009796335361897945, -0.05705786868929863, 0.06481173634529114, -0.10572618246078491, -0.05574529618024826, 0.11032672971487045, -0.0260501429438591, -0.021194059401750565, 0.01138826459646225, 0.0389263816177845, 0.03297504782676697, 0.10291429609060287, 0.020486492663621902, -0.021778976544737816, 0.04472660273313522, 0.023677699267864227, -0.17463979125022888, 0.0795188695192337, -0.135539248585701, -0.055160991847515106, -0.02210036851465702, -0.0708007737994194, 0.07578454911708832, -0.037279561161994934, 0.024619435891509056, -0.04278534650802612, 0.053832586854696274, 0.057384416460990906, 0.07199092209339142, -0.10062264651060104, -0.08789919316768646, 0.01782502979040146, -0.01102837361395359, 0.013743649236857891, 0.11656448245048523, -0.07069160044193268, -0.18087050318717957, 0.02078278176486492, -0.006297830026596785, -0.10776429623365402, -0.00911538302898407, -0.025154441595077515, -0.07278111577033997, -0.11007412523031235, -0.2743849754333496, 0.043730564415454865, -0.34792882204055786, 0.15008527040481567, 0.09369711577892303, -0.06626498699188232, -0.04674067720770836, -0.13830749690532684, 0.2783176004886627, 0.3147711753845215, -0.16826482117176056, 0.038836780935525894, 0.076384536921978, 0.07776369154453278, 0.15708661079406738, -0.10701721906661987, 0.06732986867427826, -0.03958626091480255, 0.07220964878797531, 0.20293956995010376, 0.04984297975897789, 0.1006721630692482, -0.28322097659111023, 0.142167866230011, 0.0868728831410408, -0.15630480647087097, -0.09774754196405411, -0.12545180320739746, 0.09504420310258865, -0.0057564242742955685, -0.017725827172398567, -0.32621583342552185, -0.15170419216156006, 0.1101107969880104, -0.13382592797279358, -0.0150320865213871, 0.383301317691803, 0.10136837512254715, 0.031574226915836334, -0.00460556847974658, 0.07537879049777985, 0.10794107615947723, -0.07157348096370697, 0.01663668267428875, 0.09289520233869553, -0.0016092562582343817, -0.060668669641017914, -0.03850642964243889, -0.048890020698308945, 0.1911322921514511, -0.07557760179042816, 0.04307562857866287, -0.09747287631034851, 0.20523104071617126, -0.09482148289680481, 0.22195357084274292, -0.044520676136016846, -0.03199312463402748, -0.41215723752975464, -0.08348935097455978, 0.05399351939558983, -0.06479696184396744, 0.057165466248989105, 0.22217091917991638, -0.2414121925830841, 0.19922545552253723, -0.14338131248950958, 0.2530239522457123, -0.12754541635513306, 0.058656174689531326, 0.2062997967004776, -0.13781651854515076, 0.086061991751194, -0.005856039002537727, 0.02127811126410961, 0.15899986028671265, -0.1407162845134735, 0.05119989439845085, 0.13256555795669556, -0.008095549419522285, -0.2748754024505615, -0.17446304857730865, 0.10751878470182419, 0.017687462270259857, 0.021602606400847435, 0.2189113348722458, -0.06022040918469429, 0.16035602986812592, -0.08152522891759872, 0.004444392863661051, 0.015898093581199646, -0.018640685826539993, -0.12702181935310364, -0.05422677844762802, -0.21528829634189606, -0.17163968086242676, 0.07967040687799454, 0.03904442861676216, 0.007784515619277954, -0.04143135994672775, 0.23496170341968536, -0.09023138135671616, 0.2832651734352112, 0.1838570237159729, 0.21950393915176392, -0.047476720064878464, 0.019189996644854546, 0.036066554486751556, -0.2976931929588318, 0.13535189628601074, -0.05069850757718086, -0.07867815345525742, -0.06993833184242249, -0.0681956559419632, 0.016061702743172646, 0.03372890502214432, 0.03594856709241867, -0.21816924214363098, -0.03217218071222305, 0.03804076462984085, 0.07644355297088623, -0.03201006352901459, -0.15221427381038666, 0.0426640659570694, 0.0062731909565627575, 0.05519092082977295, 0.13961030542850494, 0.13874003291130066, -0.14289851486682892, 0.07884400337934494, -0.01804351434111595, 0.18583908677101135, -0.03462635725736618, 0.04133143275976181, 0.1693876087665558, 0.0243326835334301, -0.009117374196648598, 0.07322052866220474, 0.10752768814563751, 0.1288686990737915, -0.11956249922513962, 0.021083159372210503, -0.05874605104327202, -0.09821866452693939, -0.21148550510406494, -0.07088537514209747, 0.010592246428132057, -0.09094066917896271, 0.10026993602514267, 0.06452682614326477, 0.0542043074965477, -0.01627955213189125, -0.05497393384575844, -0.060458626598119736, -0.022756950929760933, -0.08197043836116791, -0.07470960170030594, -0.13842879235744476, 0.1292015165090561, -0.07165680825710297, 0.13711124658584595, -0.03834957629442215, 0.030882112681865692, 0.09275776892900467, 0.02851632982492447, -0.078626349568367, 0.06220029667019844, 0.09365203976631165, 0.008692477829754353, -0.1383962780237198, 0.02654346264898777, 0.004604078363627195, 0.019957324489951134, 0.0361228846013546, 0.04864640533924103, -0.08129166066646576, -0.11436653137207031, -0.04091040790081024, -0.043724339455366135, 0.0806933119893074, 0.09233316034078598, -0.2221226841211319, 0.01384778879582882, -0.02612202614545822, 0.0837811604142189, -0.006760355085134506, 0.15170830488204956, -0.06854619085788727, -0.04863765835762024, -0.08124010264873505, -0.1157384067773819, -0.09220648556947708, 0.13241398334503174, 0.016961902379989624, -0.016363007947802544, -0.0824839323759079, 0.032986655831336975, -0.017536845058202744, -0.061634648591279984, 0.08815611153841019, -0.07409171015024185, 0.00379027402959764, 0.04806024208664894, -0.0210981797426939, 0.0898032858967781, -0.03397523984313011, -0.1367889791727066, 0.05974184349179268, 0.13151387870311737, 0.14365606009960175, -0.13084693253040314, -0.11179620772600174, 0.04545936733484268, -0.026545070111751556, 0.06873376667499542, -0.0703975036740303, -0.030533473938703537, 0.15452831983566284, 0.027447888627648354, 0.04650169983506203, 0.012395667843520641, 0.061259422451257706, -0.006976770237088203, 0.08016100525856018, 0.07557415962219238, -0.03654683753848076, 0.07987724989652634, 0.053529638797044754, -0.20786036550998688, 0.022633535787463188, -0.09608851373195648, -0.06279892474412918, -0.034978415817022324, -0.03803907707333565, -0.04122341051697731, -0.08376675099134445, -0.005542200990021229, 0.0019258903339505196, 0.050002310425043106, 0.02321484498679638, 0.09799908846616745, -0.03647702559828758, -0.09480389952659607, -0.02652655355632305, -0.022344674915075302, 0.06755967438220978, -0.14903974533081055, 0.1621125489473343, -0.3110930919647217, -0.1340300589799881, -0.10096903145313263, -0.22574186325073242, 0.11782988160848618, 0.07343120127916336, 0.008856358006596565, -0.1383788138628006, 0.029032960534095764, -0.20789124071598053, 0.0013470342382788658, -0.04283011332154274, 0.07790958136320114, -0.10044123977422714, -0.33359527587890625, 0.21939939260482788, -0.0067513915710151196, -0.03876592591404915, -0.06165933981537819, -0.16747216880321503, 0.20345620810985565, 0.18905775249004364, -0.15592312812805176, 0.019978070631623268, -0.043729718774557114, 0.008582769893109798, 0.11722306162118912, 0.3030465841293335, -0.21825824677944183, 0.036897461861371994, -0.07467509061098099, 0.022907355800271034, -0.058482855558395386, -0.21537882089614868, -0.2727104723453522, 0.11458238959312439, 0.16615226864814758, 0.031519170850515366, -0.43118348717689514, 0.006177518982440233, 0.016617493703961372, 0.2347363829612732, 0.0883222371339798, -0.015570958144962788, 0.11994268745183945, 0.0044365692883729935, -0.034195736050605774, -0.019003165885806084, 0.05791769549250603, 0.48810023069381714, 0.09081826359033585, 0.09594723582267761, 0.09251465648412704, 0.178573876619339, -0.20703744888305664, 0.14308945834636688, 0.10999998450279236, 0.0972025915980339, 0.19982829689979553, 0.06422119587659836, -0.1925756186246872, 0.08099842816591263, 0.04222114756703377, 0.08144716918468475, 0.04550547897815704, 0.05377268046140671, 0.05619874596595764, 0.06154546141624451, 0.005604718346148729, 0.08683521300554276, -0.009159992448985577, -0.038470592349767685, 0.10153458267450333, 0.015262355096638203, 0.1485702395439148, -0.0555860809981823, 0.06405065953731537, -0.07043873518705368, -0.0046206070110201836, 0.014272562228143215, 0.005396271124482155, -0.17081648111343384, -0.0541556291282177, -0.051415540277957916, -0.07088606804609299, -0.035117145627737045, -0.0882527157664299, 0.032170895487070084, 0.009264419786632061, -0.013183597475290298, -0.003007679944857955, -0.0803278386592865, -0.011160853318870068, -0.006834516301751137, 0.16171321272850037, -0.02769630029797554, -0.03607487305998802, -0.00576899666339159, 0.018945058807730675, 0.03231164813041687, -0.006707713007926941, -0.049890998750925064, 0.05761094018816948, 0.15522155165672302, 0.05556369572877884, -0.1225256472826004, 0.005315577145665884, -0.007805860601365566, -0.048576224595308304, -0.012480034492909908, -0.07105816900730133, -0.08834309875965118, -0.12479683011770248, -0.05404846370220184, 0.032147813588380814, 0.03234638646245003, 0.013998239301145077, 0.0008289308752864599, 0.12906600534915924, -0.013674302957952023, -0.04237399250268936, -0.07820785790681839, 0.016708027571439743, -0.12289197742938995, 0.09883371740579605, -0.05608513206243515, 0.006137198768556118, -0.0933055579662323, 0.07430098950862885, -0.0421670563519001, 0.0713743269443512, 0.008553272113204002, 0.04238460585474968, 0.038309480994939804, 0.011640883982181549, -0.08773264288902283, 0.014142520725727081, 0.0085770757868886, 0.04856724664568901, -0.0006985091604292393, -0.041994765400886536, -0.0060948897153139114, 0.059687983244657516, 0.09623263031244278, -0.029730327427387238, 0.0008238303707912564, 0.014604244381189346, -0.039963096380233765, -0.005038915667682886, -0.023827077820897102, -0.07683608680963516, 0.04747604578733444, 0.009868250228464603, -0.01742769591510296, -0.025329066440463066, 0.014415482059121132, -0.059255097061395645, -0.06650570034980774, 0.040828146040439606, -0.02984168753027916, -0.01180795393884182, -0.07323898375034332, 0.015235655009746552, -0.004879034589976072, -0.0364859364926815, -0.007199323270469904, 0.04981410503387451, 0.010693986900150776, -0.03226920962333679, -0.00848214328289032, 0.05574652552604675, 0.046964410692453384, -0.11366395652294159, 0.09106838703155518, -0.054508499801158905, 0.021074634045362473, -0.06905259191989899, 0.028839929029345512, 0.04194074124097824, 0.10958410054445267, 0.09624409675598145, -0.11911036819219589, 0.007898805662989616, -0.021523557603359222, -0.0965004712343216, -0.023587403818964958, -0.0009026140323840082, -0.07009465992450714, 0.1143040880560875, -0.0009191345307044685, 0.04160037636756897, -0.04988860711455345, -0.15020765364170074, 0.05197998881340027, 0.051543332636356354, -0.1273217648267746, 0.013331509195268154, 0.042445939034223557, -0.021550573408603668, -0.0931871235370636, -0.06500887125730515, -0.12919433414936066, -0.11997371166944504, 0.21699976921081543, 0.05441698804497719, 0.02425917237997055, -0.11320209503173828, 0.029873358085751534, 0.026574814692139626, 0.20585496723651886, -0.11596962809562683, -0.10709738731384277, -0.008810056373476982, 0.062288932502269745, 0.018146095797419548, 0.006113245151937008, 0.027333788573741913, -0.08211676776409149, 0.11988896131515503, 0.11415687203407288, -0.10881935805082321, 0.04624050483107567, -0.11507778614759445, 0.07242774963378906, 0.05116600543260574, -0.059045419096946716, 0.0836426243185997, -0.053656112402677536, 0.08253075927495956, 0.0023551888298243284, -0.09278687834739685, -0.11914361268281937, -0.1461370438337326, 0.03656883165240288, -0.07966770976781845, -0.001531664514914155, 0.12979665398597717, 0.09551171958446503, 0.10640405863523483, 0.03204580023884773, -0.0716690719127655, 0.2014625072479248, -0.07593715190887451, 0.06371163576841354, -0.037256453186273575, -0.012224997393786907, -0.12128853052854538, 0.013867545872926712, -0.011588195338845253, 0.015206228010356426, 0.05648045986890793, 0.09499717503786087, -0.03495163097977638, 0.11463303118944168, -0.14225560426712036, -0.059091873466968536, -0.14681410789489746, 0.13208574056625366, -0.3491578996181488, 0.03744303435087204, 0.039756402373313904, -0.029893983155488968, 0.03408767655491829, 0.23679213225841522, 0.11847740411758423, -0.05534864589571953, -0.272658109664917, -0.23039786517620087, -0.16211220622062683, -0.03104040026664734, 0.08262550085783005, 0.030593663454055786, -0.03474859893321991, 0.04752856492996216, 0.4113676846027374, -0.09857048094272614, 0.21797890961170197, 0.08109983056783676, -0.08707352727651596, 0.03619217127561569, 0.21809260547161102, 0.05684557557106018, 0.006964219734072685, -0.04739009588956833, 0.07867725938558578, 0.09845340251922607, -0.10005246847867966, 0.03372452035546303, -0.040266335010528564, -0.12598775327205658, -0.12918402254581451, -0.22701449692249298, 0.1534378081560135, 0.137053444981575, 0.026401743292808533, -0.22673866152763367, 0.14657975733280182, 0.07969599217176437, -0.0700787603855133, 0.1203894317150116, 0.1647593080997467, -0.0671100914478302, 0.22220478951931, -0.07793771475553513, -0.05396484583616257, 0.15430796146392822, -0.17122608423233032, 0.009736360050737858, -0.09024673700332642, -0.01025301031768322, -0.227168470621109, -0.13249723613262177, 0.17198501527309418, 0.015185191296041012, 0.04390903562307358, 0.33263900876045227, -0.01438996009528637, -0.32116279006004333, -0.126397043466568, 0.09003929048776627, 0.05607639625668526, -0.0033367725554853678, -0.2643950581550598, -0.02405656687915325, -0.07414023578166962, 0.009511500597000122, 0.1087469831109047, 0.05125293508172035, 0.027582833543419838, 0.06571172177791595, 0.04798574000597, 0.038426149636507034, -0.3268493711948395, 0.08234185725450516, 0.20078758895397186, -0.09578724205493927, -0.10356652736663818, 0.06025444343686104, 0.09814679622650146, -0.04251963272690773, 0.02377689629793167, -0.019036443904042244, 0.08450307697057724, -0.015040850266814232, 0.024441510438919067, -0.043485186994075775, 0.032925963401794434, 0.03417043015360832, 0.04693613201379776, 0.07091684639453888, 0.009802599437534809, 0.042480167001485825, -0.047183968126773834, -0.07036521285772324, 0.12835323810577393, -0.25167492032051086, -0.004959311801940203, 0.02856650948524475, 0.1318541020154953, -0.09773632884025574, 0.1113891452550888, 0.11182842403650284, -0.07075045257806778, 0.03699022904038429, 0.04648684710264206, -0.07232744991779327, -0.020254967734217644, -0.05872899293899536, -0.05392849072813988, 0.08191685378551483, -0.007342767436057329, 0.15734685957431793, -0.0765312910079956, -0.10525200515985489, -0.10770879685878754, -0.020546825602650642, -0.09575994312763214, 0.024647587910294533, -0.03276026248931885, 0.18921498954296112, 0.08304920792579651, -0.1965939998626709, -0.002227351302281022, -0.010982714593410492, 0.033473365008831024, 0.04456065967679024, 0.11627687513828278, 0.03030879981815815, -0.06525947153568268, 0.0046827890910208225, -0.018086744472384453, 0.031907159835100174, -0.009210357442498207, -0.02154409885406494, 0.09732764214277267, 0.07424996048212051, -0.028721017763018608, 0.007790750358253717, -0.04038162901997566, 0.044728148728609085, -0.011060168966650963, -0.05577996373176575, -0.006626198999583721, -0.03896095231175423, 0.02890138328075409, -0.022171292454004288, 0.07999734580516815, 0.0754963606595993, 0.04696065932512283, -0.011468262411653996, 0.02984989807009697, -0.02078184112906456, -0.06329440325498581, 0.0016669417964294553, 0.048957161605358124, -0.05727067217230797, -0.012903149239718914, 0.08475843816995621, 0.074391208589077, 0.03128098323941231, -0.11359991878271103, 0.012539243325591087, 0.03158831223845482, 0.011605062521994114, -0.012804953381419182, 0.02884512022137642, 0.03280795365571976, 0.038768086582422256, -0.13682590425014496, 0.027885159477591515, -0.07011931389570236, 0.03857233375310898, -0.061432674527168274, 0.009083688259124756, -0.010025132447481155, 0.08682691305875778, 0.017998097464442253, -0.05041905492544174, 0.01645713299512863, -0.03808152675628662, -0.022098900750279427, -0.016673969104886055, -0.04765336588025093, -0.037934113293886185, 0.04181839898228645, -0.00888388603925705, 0.03708445280790329, 0.2038174867630005, -0.04569987580180168, 0.07110756635665894, -0.17117084562778473, 0.17931734025478363, -0.13041013479232788, -0.06814016401767731, -0.07771894335746765, 0.03136001527309418, -0.13632050156593323, 0.08988314867019653, -0.21043813228607178, -0.021491724997758865, 0.32233649492263794, -0.11655134707689285, 0.09817511588335037, -0.32345306873321533, 0.3378576338291168, 0.07197846472263336, -0.022114958614110947, 0.21841251850128174, -0.09068004786968231, -0.01833217404782772, -0.07609923928976059, -0.19861099123954773, -0.0772700086236, 0.03870031237602234, 0.043841298669576645, -0.11896928399801254, 0.1482345312833786, 0.08408712595701218, -0.02104465663433075, -0.07274463027715683, 0.0686405748128891, 0.09221184253692627, -0.08092214167118073, 0.05352679640054703, -0.008362709544599056, -0.07771988958120346, 0.2656426429748535, 0.004394928924739361, 0.17691804468631744, 0.027729468420147896, 0.014790857210755348, -0.057942867279052734, 0.13438160717487335, -0.0371202677488327, 0.11317013204097748, -0.15109336376190186, 0.1912587732076645, -0.15322072803974152, -0.03315446153283119, -0.12974293529987335, 0.03339328616857529, 0.05494263768196106, 0.06676622480154037, -0.11364099383354187, 0.03953446075320244, -0.01575610414147377, 0.006363683845847845, 0.07784008234739304, -0.1938723623752594, -0.0596458837389946, -0.011464905925095081, 0.057654038071632385, -0.2749429941177368, 0.006368464790284634, -0.05797168239951134, -0.11800810694694519, 0.011798100546002388, 0.07494696229696274, -0.043455109000205994, -0.0430118702352047, -0.03855961561203003, -0.1553644984960556, -0.25245028734207153, -0.0635402724146843, -0.014182529412209988, -0.16485702991485596, -0.1657036989927292, 0.05834423378109932, -0.05729340761899948, 0.020873412489891052, -0.13721288740634918, 0.14957380294799805, 0.19483570754528046, 0.24341988563537598, -0.07758691161870956, -0.01809459738433361, -0.06639408320188522, 0.012850003316998482, 0.07752294093370438, 0.22871074080467224, 0.009630149230360985, 0.040197841823101044, -0.14420576393604279, 0.06310097873210907, 0.04035551846027374, 0.07586895674467087, -0.056160833686590195, 0.0714891329407692, 0.13671042025089264, 0.061161499470472336, -0.1131906732916832, -0.03721330314874649, -0.0563688650727272, 0.1150164008140564, -0.0038024329114705324, -0.1810615509748459, 0.009891503490507603, 0.02529202029109001, 0.03675858676433563, -0.14985409379005432, 0.19320310652256012, 0.0950203537940979, -0.16787709295749664, -0.07268109172582626, -0.15813568234443665, 0.11502782255411148, -0.09500067681074142, 0.12356167286634445, 0.08848554641008377, 0.05955499783158302, 0.1967189759016037, 0.023015914484858513, -0.16198799014091492, 0.21046923100948334, 0.17382284998893738, -0.09444483369588852, -0.04334292933344841, -0.04991612955927849, 0.04968339204788208, -0.0991738960146904, 0.08438090980052948, 0.053440846502780914, 0.050373248755931854, -0.060732800513505936, 0.10184506326913834, -0.1420048326253891, 0.10167886316776276, -0.1840563714504242, -0.04853199049830437, -0.010891091078519821, -0.19085192680358887, 0.18106675148010254, -0.15770547091960907, -0.054649487137794495, 0.12570510804653168, -0.03586606681346893, -0.0036827432923018932, 0.12226995825767517, -0.038927264511585236, 0.0378338098526001, 0.14838732779026031, 0.08549252152442932, 0.0636359229683876, 0.060446131974458694, -0.042220741510391235, -0.012054478749632835, 0.07221811264753342, -0.025197423994541168, 0.011514199897646904, -0.034211449325084686, -0.1244390532374382, 0.011781145818531513, 0.03995637223124504, -0.026052681729197502, -0.1349087506532669, 0.04103892669081688, 0.005674896761775017, 0.023195656016469002, -0.06417812407016754, -0.13896544277668, -0.13442452251911163, 0.015694914385676384, -0.07798153162002563, 0.033455029129981995, -0.028547508642077446, 0.10680264979600906, -0.07105398178100586, -0.13000810146331787, -0.026866726577281952, 0.06384091079235077, -0.04315580055117607, 0.10697049647569656, 0.15788951516151428, 0.08725050091743469, 0.07794612646102905, -0.14614465832710266, -0.0049873036332428455, 0.006654794793576002, 0.06829173117876053, 0.0007203656132332981, -0.02826867811381817, -0.009345699101686478, 0.06508179754018784, -0.03687617555260658, -0.008821243420243263, -0.05152237042784691, -0.037721291184425354, -0.002628958085551858, 0.04534158855676651, -0.03583857789635658, 0.06808585673570633, 0.004366476554423571, -0.021465148776769638, 0.05026676133275032, -0.014591437764465809, 0.03201631084084511, -0.007437994237989187, 0.03292950987815857, -0.02873094379901886, -0.055258989334106445, -0.03168046846985817, -0.09272081404924393, -0.030703088268637657, 0.02897832542657852, 0.11111679673194885, -0.044134870171546936, -0.049885571002960205, 0.012215998955070972, -0.00533272186294198, -0.007254250813275576, 0.07693225145339966, -0.0780341625213623, -0.04878908768296242, -0.07408838719129562, 0.033772993832826614, -0.009157576598227024, -0.018874473869800568, -0.02057117410004139, -0.005645800847560167, 0.07109619677066803, -0.04651472344994545, 0.02462906949222088, -0.00684033939614892, 0.06318067759275436, -0.03301023691892624, 0.00518664950504899, -0.041044365614652634, 0.006863899063318968, -0.07410760223865509, 0.0189504511654377, 0.012988731265068054, -0.034670330584049225, -0.03483840078115463, 0.03272189199924469, -0.048329032957553864, -0.019982272759079933, -0.0026819375343620777, -0.016759390011429787, -0.03735547885298729, -0.03830977901816368, -0.0330636240541935, -0.0057993605732917786, -0.01351294293999672, -0.0009085764177143574, -0.007117438595741987, 0.028294196352362633, 0.06621300429105759, 0.025294719263911247, 0.004916125908493996, 0.05570986494421959, -0.020503606647253036, -0.01882214844226837, 0.0035680336877703667, -0.05602502450346947, 0.012045047245919704, -0.03693855553865433, -0.013850118964910507, -0.05070255696773529, -0.02397027425467968, 0.1033395454287529, -0.06182918697595596, -0.011140631511807442, -0.04294915497303009, -0.001268258085474372, 0.0614827424287796, 0.019495094195008278, 0.00890659261494875, 0.05869484692811966, 0.023784872144460678, -0.012991921044886112, 0.013362061232328415, 0.03605560213327408, -0.02582261711359024, -0.04254714399576187, -0.010997813194990158, 0.021367447450757027, 0.022619029507040977, 0.006371765863150358, -0.014842093922197819, 0.06733428686857224, -0.034499749541282654, -0.029116299003362656, -0.01663094572722912, 0.05215936154127121, -0.042973246425390244, -0.06079184263944626, 0.020695459097623825, -0.11342493444681168, -0.07392234355211258, 0.027014702558517456, -0.035518381744623184, -0.025347070768475533, -0.023690564557909966, 0.05797350034117699, -0.011448699049651623, 0.11419708281755447, 0.08311630040407181, -0.1087171882390976, 0.005142514128237963, -0.006599219515919685, -0.08855456113815308, 0.024359984323382378, 0.09302950650453568, -0.029199548065662384, 0.05383149906992912, 0.07302670180797577, -0.019143082201480865, -0.0544196255505085, 0.08208052814006805, -0.043087560683488846, 0.07529138773679733, 0.031898997724056244, -0.008929594419896603, -0.06189846619963646, 0.004760135896503925, -0.05697464570403099, -0.0011625514598563313, 0.008395013399422169, 0.035406697541475296, -0.0330442450940609, -0.05716688930988312, 0.08048956841230392, -0.004712321329861879, 0.019961165264248848, -0.03405347466468811, -0.039940737187862396, -0.03826717287302017, -9.244609827874228e-06, -0.0021124528720974922, 0.007625323720276356, 0.002009324263781309, 5.0796727009583265e-05, -0.009167684242129326, 0.021299060434103012, -0.09686817973852158, -0.028665145859122276, -0.04165845364332199, -0.04407752677798271, -0.06001569703221321, -0.04617053270339966, 0.03914588317275047, 0.09357918798923492, -0.02941277250647545, 0.01699628122150898, -0.06421683728694916, 0.03130532428622246, 0.003781844861805439, 0.0539424791932106, 0.034995656460523605, 0.006167622748762369, 0.00960485078394413, 0.0020619004499167204, -0.09086625277996063, 0.010019107721745968, -0.0210320595651865, -0.0008690939284861088, 0.02597370184957981, 0.002577179577201605, 0.0987272784113884, -0.035127993673086166, 0.031948015093803406, -0.0022471058182418346, 0.022296220064163208, 0.03384126350283623, 0.05847103148698807, -0.03490066155791283, -0.03450125455856323, 0.05252418667078018, -0.01735779456794262, 0.02247190661728382, 0.05939444154500961, 0.012135845609009266, 0.009906761348247528, 0.02330932207405567, -0.016703365370631218, -0.11623900383710861, -0.0434076301753521, -0.0026491512544453144, 0.06270631402730942, -0.002036241116002202, -0.025736555457115173, -0.07540658116340637, -0.0584755577147007, 0.052869509905576706, -0.027636321261525154, 0.08440857380628586, -0.02034844271838665, 0.03300808370113373, 0.011817241087555885, 0.06282875686883926, -0.04093851521611214, -0.04055747017264366, 0.027197355404496193, 0.07571621984243393, 0.037332676351070404, -0.06793264299631119, -0.04341132938861847, -0.03905723616480827, 0.026236267760396004, 0.10133863240480423, 0.020539235323667526, 0.033050358295440674, 0.035172298550605774, -0.04206686094403267, 0.029382001608610153, 0.039806585758924484, 0.08271393179893494, -0.04393395781517029, -0.0030578651931136847, -0.04166974872350693, -0.07896621525287628, -0.015426675789058208, 0.018907636404037476, 0.018014049157500267, -0.0337589792907238, 0.009340417571365833, -0.001634536893106997, 0.021446624770760536, 0.026044337078928947, -0.01817525178194046, 0.032087765634059906, 0.0031467999797314405, -0.04197298362851143, -0.0331769622862339, -0.10053691267967224, -0.012554020620882511, -0.037599410861730576, 0.029645154252648354, -0.04832635074853897, -0.0065690199844539165, 0.05513913184404373, 0.07884542644023895, -0.023236336186528206, 0.08458112925291061, 0.07634039223194122, 0.04271465167403221, 0.00692031579092145, 0.007872940972447395, 0.014558023773133755, 0.03996562585234642, 0.09400825947523117, 0.033142440021038055, -0.0389014333486557, 0.002358111320063472, 0.005021301563829184, -0.03162373602390289, 0.056750621646642685, -0.040634870529174805, -0.01168448943644762, -0.0986378863453865, -0.03848060965538025, 0.020664742216467857, -0.05463565140962601, -0.05017946660518646, -0.05907084420323372, 0.0214275810867548, 0.01951427012681961, -0.058786194771528244, 0.008907425217330456, 0.014161529019474983, -0.04590320214629173, -0.00033692261786200106, -0.01895810477435589, -0.00896203052252531, -0.009304179809987545, -0.10287036746740341, 0.07778843492269516, -0.014397482387721539, -0.008518807590007782, -0.019150931388139725, 0.04900010675191879, 0.08143093436956406, 0.019767779856920242, -0.05115050822496414, 0.012989808805286884, 0.05440026894211769, -0.06876396387815475, -0.09611359238624573, 0.06184077262878418, -0.015076741576194763, -0.07045040279626846, -0.06199474632740021, -0.018554668873548508, 0.020082322880625725, 0.00845959223806858, -0.028891723603010178, -0.00045860654790885746, 0.034671708941459656, 0.0248264092952013, -0.03274816274642944, 0.02194266952574253, 0.0034529143013060093, -0.003523065010085702, -0.021773627027869225, 0.03282803297042847, -0.08841897547245026, 0.021020282059907913, 0.04014744609594345, 0.09664002060890198, 0.008338683284819126, 0.02449413388967514, 0.04239931330084801, 0.03618450462818146, -0.0765126496553421, 0.04418391361832619, -0.08824298530817032, -0.14894990622997284, -0.0745510458946228, 0.1265898495912552, -0.001957318279892206, -0.014725688844919205, -0.13958857953548431, 0.02462710067629814, -0.004944116808474064, -0.15735109150409698, 0.013050906360149384, -0.06753455847501755, -0.08124703913927078, 0.09388188272714615, 0.023040421307086945, -0.055300273001194, 0.03553569316864014, -0.03950202092528343, 0.04260747879743576, 0.004182824399322271, 0.11285148561000824, 0.010121644474565983, 0.03956800699234009, -0.0027288945857435465, -0.10652142018079758, -0.04100872576236725, 0.11583653092384338, -0.05670792981982231, -0.10517770051956177, -0.06935206800699234, 0.2261328399181366, -0.011213721707463264, 0.03609255328774452, -0.09307879954576492, 0.11930829286575317, -0.010124297812581062, -0.060254067182540894, 0.08289004117250443, 0.012094103731215, -0.04312310740351677, -0.053723372519016266, -0.0376753956079483, -0.013156430795788765, 0.1043299213051796, -0.049207184463739395, -0.06959803402423859, -0.15923336148262024, -0.013617304153740406, 0.13037703931331635, -0.03624735772609711, 0.022146353498101234, 0.17101703584194183, 0.06954292207956314, 0.11148471385240555, -0.01979142799973488, -0.015231369994580746, 0.14063072204589844, 0.010784110985696316, 0.018958667293190956, 0.010508431121706963, -0.0014552013017237186, 0.0894065648317337, 0.03683048486709595, -0.004677661694586277, 0.05485338717699051, -0.0028170656878501177, -0.028753191232681274, 0.027668097987771034, -0.0005042151315137744, 0.11285871267318726, -0.022778619080781937, 0.05693350359797478, -0.03726190701127052, -0.03082609735429287, -0.024230504408478737, 0.034649599343538284, -0.04917686805129051, -0.09110470116138458, -0.005027244333177805, -0.024673519656062126, 0.008501432836055756, -0.01758839562535286, 0.006084723398089409, 0.05292889103293419, 0.025734085589647293, 0.05259184166789055, -0.07001036405563354, -0.022879572585225105, -0.005686428397893906, 0.03884497284889221, -0.0548345185816288, -0.006323626730591059, 0.02044280618429184, 0.06100776046514511, -0.0051844147965312, -0.0070508504286408424, 0.02234196662902832, 0.08382801711559296, 0.028921760618686676, -0.03732128068804741, 0.032906826585531235, -0.001208221074193716, -0.017241695895791054, -0.043697550892829895, -0.03530571237206459, -0.05517790466547012, -0.0015323292464017868, -0.03955606371164322, 0.019714029505848885, -0.005499104969203472, -0.03915022313594818, 0.08536455780267715, -0.04444749653339386, 0.04195990785956383, 0.027913622558116913, -0.02976893074810505, 0.032844848930835724, -0.0481356680393219, -0.06180591881275177, 0.05993639677762985, 0.07269693911075592, 0.08681972324848175, -0.01301084365695715, -0.038506243377923965, 0.09086301922798157, 0.07421477138996124, 0.025764716789126396, 0.0024942150339484215, 0.028144359588623047, 0.10549888759851456, -0.03168109804391861, -0.19843187928199768, -0.09877843409776688, -0.16796118021011353, 0.12059298902750015, 0.059181321412324905, 0.008147237822413445, -0.07424600422382355, -0.04155737906694412, 0.06631728261709213, 0.09203977882862091, -0.12109488248825073, -0.04909487068653107, 0.014945649541914463, 0.14121003448963165, 0.18435895442962646, -0.09611205756664276, -0.034041084349155426, -0.07464880496263504, 0.05301760882139206, 0.08472548425197601, 0.005085124168545008, -0.05145076662302017, -0.11285935342311859, 0.1604018658399582, 0.14346745610237122, 0.04910619184374809, 0.03738652169704437, -0.06751438230276108, -0.01967334933578968, -0.01734411157667637, -0.08170793950557709, -0.12801991403102875, -0.09399115294218063, -0.0601070374250412, -0.14540539681911469, -0.08343889564275742, 0.10765092819929123, 0.03193153813481331, 0.10703098773956299, -0.05890240520238876, -0.036797598004341125, 0.02897159941494465, -0.1345396637916565, 0.013807558454573154, 0.06923206895589828, -0.11472991108894348, -0.05868631973862648, -0.017289044335484505, -0.008634824305772781, 0.06606283038854599, 0.11873195320367813, 0.04928753525018692, 0.09613021463155746, 0.1685328632593155, 0.015640344470739365, 0.03281000256538391, 0.010383539833128452, 0.06422526389360428, 0.059156809002161026, 0.03448612615466118, 0.02375943213701248, -0.02719300612807274, -0.042236652225255966, 0.07801676541566849, -0.14120997488498688, 0.15983566641807556, 0.051023732870817184, 0.047859176993370056, 0.02137628197669983, 0.06199932098388672, 0.13054269552230835, -0.14985251426696777, 0.16691569983959198, -0.0558106005191803, -0.022965583950281143, 0.06694246083498001, -0.14027254283428192, -0.09681034833192825, 0.12456775456666946, -0.007342281751334667, -0.08638104051351547, 0.011147556826472282, -0.06548338383436203, 0.050614673644304276, 0.1555199921131134, 0.00836467556655407, -0.06896990537643433, 0.03380687162280083, -0.09491731226444244, 0.041562486439943314, -0.10989069193601608, -0.020369727164506912, -0.08505970984697342, -0.03557455539703369, -0.0037960410118103027, -0.11886491626501083, -0.0072232810780406, -0.08539855480194092, -0.09365883469581604, -0.035665057599544525, 0.10388634353876114, 0.00391046516597271, 0.09716255217790604, 0.1822119951248169, 0.0574631467461586, -0.06721188127994537, 0.11073049902915955, -0.08166692405939102, 0.012668532319366932, -0.04145929962396622, 0.07522601634263992, -0.14354000985622406, -0.06276290118694305, 0.042363785207271576, -0.09418956935405731, -0.07529859244823456, -0.009395677596330643, 0.010675306431949139, -0.0010291797807440162, -0.013929040171205997, -0.008303270675241947, 0.009657968766987324, 0.13181817531585693, 0.12042601406574249, 0.050506219267845154, -0.02872631512582302, -0.04090829938650131, -0.1392516940832138, -0.05550070479512215, 0.06197997182607651, -0.03092377260327339, -0.08580330014228821, 0.08683943748474121, -0.05357576906681061, -0.0697823092341423, -0.005698989145457745, 0.07805061340332031, 0.08018545061349869, -0.054524343460798264, 0.03143519535660744, 0.08237460255622864, -0.06888557225465775, 0.09844667464494705, 0.02819252386689186, -0.01809525303542614, 0.06924469023942947, -0.0407416857779026, -0.04249318316578865, -0.017809059470891953, -0.14498986303806305, -0.14342983067035675, 0.07299420237541199, 0.07459252327680588, 0.03563327714800835, -0.06499846279621124, 0.008895373903214931, -0.012036101892590523, 0.09841086715459824, -0.07419697940349579, -0.055594999343156815, -0.06426092237234116, -0.025096792727708817, 0.02114526368677616, -0.04838421195745468, 0.09621430933475494, -0.008118716068565845, 0.005192053038626909, 0.0015392599161714315, 0.043424613773822784, -0.04566672816872597, -0.006396543700248003, 0.012813610024750233, 0.1699027121067047, -0.06852845847606659, 0.0005508431349880993, -0.030258432030677795, 0.12718547880649567, 0.0069471318274736404, -0.07367248833179474, -0.08085589110851288, -0.07480582594871521, 0.14385205507278442, -0.06492187082767487, -0.022717610001564026, 0.047278665006160736, -0.010263016447424889, 0.025950541719794273, 0.03186314180493355, -0.002109304303303361, -0.017083104699850082, 0.0421157144010067, -0.04341082647442818, -0.030484136193990707, -0.027739521116018295, 0.0051861722022295, -0.0021881847642362118, -0.03818690404295921, 0.052572544664144516, -0.013091937638819218, 0.03415088728070259, 0.04984322190284729, -0.008916524238884449, 0.007923129945993423, 0.026415783911943436, -0.000304962886730209, 0.017092080786824226, -0.013766145333647728, -0.0028187837451696396, 0.0190244410187006, 0.006966589018702507, -0.044277623295784, 0.03562161326408386, -0.00966144073754549, -0.0304165817797184, 0.004091029521077871, -0.04169496148824692, -0.034965891391038895, 0.019483419135212898, 0.002078363439068198, -0.016646048054099083, -0.012732959352433681, 0.027826817706227303, -0.010310900397598743, 0.05857759341597557, 0.020183715969324112, 0.04155893251299858, 0.001122552901506424, -0.006410021800547838, -0.04107169806957245, 0.08539312332868576, 0.004893678240478039, -0.03954128548502922, -0.04258083552122116, -0.010851618833839893, 0.01828996278345585, -0.009597091935575008, 0.0342571884393692, -0.030366426333785057, 0.010422165505588055, 0.0027942978776991367, 0.003052347805351019, -0.000295779638690874, -0.022180648520588875, -0.018779542297124863, -0.01944379135966301, 0.04067179560661316, 0.06319752335548401, -0.0190928615629673, 0.02899482101202011, -0.029370678588747978, 0.03266816586256027, 0.03209225833415985, -0.005756509490311146, -0.0001414307625964284, -0.011598112992942333, -0.014380594715476036, 0.02790069207549095, 0.017536219209432602, -0.030151501297950745, -0.021432694047689438, 0.006647029425948858, -0.1049649566411972, -0.07003181427717209, -0.054343532770872116, 0.016846785321831703, -0.06461753696203232, 0.009842843748629093, 0.021079380065202713, -0.02577870525419712, -0.005544524639844894, 0.022374706342816353, 0.009484030306339264, -0.03978759050369263, -0.03314083442091942, 0.046565257012844086, 0.014523321762681007, -0.05524729937314987, 0.0009071804815903306, 0.0267264936119318, 0.029447775334119797, -0.04710190370678902, 0.013698667287826538, -0.03469272702932358, 0.03727229684591293, -0.020767485722899437, 0.05574510619044304, -0.09775983542203903, 0.06480883061885834, -0.007319269701838493, -5.279976176097989e-05, 0.019449815154075623, -0.030219292268157005, 0.025847123935818672, 0.012734108604490757, 0.035131312906742096, 0.0038710611406713724, 0.032924965023994446, -0.015579953789710999, 0.03459230810403824, -0.051324158906936646, -0.013863259926438332, 0.045102715492248535, 0.026031214743852615, -0.05646047368645668, 0.054223816841840744, 0.014550458639860153, 0.02041163668036461, -0.005005050450563431, -0.03586363047361374, -0.007764365524053574, -0.0088312067091465, 0.04127052053809166, 0.04973239451646805, -0.05885474011301994, 0.00022622309916187078, 0.021162303164601326, -0.00373450992628932, 0.006435988936573267, 0.046842772513628006, 0.03756088390946388, 0.0246703140437603, -0.008773712441325188, 0.07890719920396805, 0.0652918666601181, -0.0029066193383187056, 0.0667629987001419, 0.020565588027238846, -0.031240951269865036, 0.018582072108983994, -0.011544687673449516, -0.03469347208738327, -0.024389849975705147, -0.043718066066503525, -0.051502473652362823, -0.0030635830480605364, -0.04357157275080681, 0.01845182105898857, -0.004205961711704731, -0.03739013150334358, -0.042204879224300385, 0.0003484194749034941, -0.01662737876176834, 0.04907016456127167, -0.03693177551031113, 0.03773871809244156, -0.02477261796593666, 0.03540531173348427, -0.01775505021214485, 0.015355915762484074, -0.014742420054972172, 0.022569825872778893, 0.03841078653931618, 0.02579062059521675, -0.06330957263708115, -0.023442406207323074, -0.004534433130174875, -0.023979267105460167, -0.00467986986041069, -0.03128582984209061, 0.0302650798112154, -0.008308724500238895, -0.01630290597677231, -0.017549440264701843, 0.0502767376601696, 0.006253114901483059, -0.03317171707749367, 0.03514101728796959, 0.003729460062459111, -0.011780467815697193, -0.017934057861566544, -0.057409364730119705, -0.027093540877103806, 0.031203171238303185, -0.062374599277973175, -0.030369147658348083, 0.011172941885888577, 0.11899018287658691, -0.037294428795576096, 0.040415409952402115, 0.02788383886218071, -0.008177638053894043, -0.021111303940415382, -0.017321377992630005, 0.07086200267076492, 0.03475933521986008, 0.011704102158546448, 0.1371622532606125, 0.0021295330952852964, -0.07556825876235962, 0.09913868457078934, 0.0686403289437294, -0.04518089070916176, 0.07067364454269409, -0.061512503772974014, 0.08193601667881012, 0.0565439835190773, -0.05597518011927605, -0.05698106437921524, 0.03485848382115364, 0.029676200821995735, 0.061309367418289185, -0.0275425985455513, -0.03389779105782509, 0.0674595758318901, 0.032624948769807816, -0.008411991409957409, 0.034173235297203064, -0.05589573457837105, -0.06150071695446968, 0.02732093073427677, -0.08552980422973633, -0.023069381713867188, -0.06142914667725563, 0.011722124181687832, 0.0754721462726593, 0.033444903790950775, 0.04696741700172424, 0.06829418987035751, -0.03530972823500633, -0.02129567787051201, -0.04964121803641319, 0.02693839557468891, 0.04181937128305435, 0.03365086764097214, -0.03000047244131565, -0.04487183690071106, 0.15316586196422577, -0.10859332233667374, -0.026227083057165146, -0.004563597030937672, 0.026103952899575233, -0.028408270329236984, 0.017574593424797058, -0.013272175565361977, -0.08182179927825928, -0.0015761391259729862, 0.02621808461844921, -0.0766703262925148, 0.002822144189849496, -0.005580742843449116, 0.05994972959160805, -0.007716740015894175, -0.04005083441734314, -0.003030350897461176, 0.012918251566588879, -0.0148952417075634, 0.04104594141244888, 0.13369466364383698, 0.03958635777235031, 0.002154142828658223, 0.12070203572511673, -0.06043943017721176, -0.0778312087059021, 0.06797952204942703, 0.07559069246053696, -0.004882469307631254, 0.03416917100548744, 0.01989179290831089, 0.048716526478528976, 0.0073713562451303005, -0.0694161206483841, -0.024911243468523026, 0.055771246552467346, 0.005413602106273174, 0.03216437250375748, -0.04413994029164314, 0.03349079191684723, -0.013913130387663841, 0.05328792706131935, 0.047555699944496155, 0.03783725947141647, -0.03203520551323891, -0.061233535408973694, 0.01409172359853983, 0.06245580315589905, -0.06298904865980148, -0.07930558174848557, -0.007395515218377113, 0.13124562799930573, 0.06714960932731628, 0.005673945881426334, -0.03701594099402428, -0.06625759601593018, 0.02356310561299324, -0.03438083454966545, 0.0048172795213758945, 0.0032093292102217674, 0.004442162346094847, -0.1023096889257431, -0.0696745291352272, -0.007900470867753029, -0.019686540588736534, -0.04032224416732788, 0.00175895553547889, 0.01855701208114624, 0.0021425739396363497, -0.10284044593572617, 0.032418280839920044, -0.026177024468779564, -0.03855576366186142, 0.07438848912715912, -0.06614356487989426, -0.012150788679718971, -0.0010251915082335472, 0.08279085904359818, -0.007156143896281719, 0.04571354016661644, 0.07056916505098343, -0.04171295091509819, -0.04007759317755699, 0.021307053044438362, -0.00015661779616493732, -0.006231539882719517, 0.025715412572026253, 0.05741816759109497, 0.025004388764500618, 0.012124589644372463, 0.07828447967767715, 0.034100018441677094, -0.030338209122419357, -0.04293844476342201, 0.015884308144450188, -0.0663168877363205, 0.03653924912214279, -0.018527014181017876, -0.0237833671271801, -0.05283403396606445, 0.0024418781977146864, 0.029076019302010536, 0.057924605906009674, 0.013714738190174103, -0.08329226076602936, 0.042480941861867905, 0.005273374263197184, 0.01863279938697815, 0.005486221052706242, 0.014898842200636864, 0.013698909431695938, 0.0167990829795599, -0.04079390689730644, -0.06095056235790253, 0.016096703708171844, 0.07518912851810455, 0.013688729144632816, 0.008159670047461987, -0.04149167984724045, -0.04369020089507103, 0.018133312463760376, -0.07372520864009857, 0.02385731413960457, -0.02659822441637516, -0.0068869381211698055, 0.004111453425139189, -0.008714302442967892, -0.04025039076805115, 0.04328214004635811, 0.009088912978768349, -0.026484189555048943, 0.012862395495176315, -0.04267661273479462, -0.03936135396361351, -0.0005787427071481943, -0.050920236855745316, -0.02614370919764042, 0.017179686576128006, -0.02323838509619236, -0.01250913180410862, -0.06491238623857498, -0.06648176163434982, 0.021816644817590714, -0.0016231274930760264, -0.04112710803747177, 0.003428730182349682, 0.062399279326200485, -0.005945023614913225, -0.03576092794537544, 0.02156437747180462, -0.09488628059625626, -0.07105909287929535, 0.030340632423758507, 0.001924971817061305, -0.05011589452624321, -0.029742678627371788, 0.04867500811815262, -0.0916365385055542, 0.015104998834431171, -0.06622833758592606, -0.09555413573980331, 0.10389432311058044, 0.04723156616091728, -0.060459066182374954, 0.0006441965233534575, 0.02229396067559719, -0.009246740490198135, -0.013485944829881191, -0.012746655382215977, -0.07592892646789551, 0.004847139120101929, 0.062262967228889465, 0.07251376658678055, 0.06987747550010681, 0.008168545551598072, 0.10672523826360703, 0.003038842463865876, 0.11067497730255127, 0.037936270236968994, -0.08777881413698196, 0.01563047245144844, -0.06367606669664383, -0.04214366897940636, 0.04120255261659622, 0.00780588248744607, -0.030835166573524475, -0.04232531413435936, -0.02691381610929966, -0.01879827119410038, -0.07977856695652008, 0.024775933474302292, -0.036745596677064896, 0.09584448486566544, 0.06881895661354065, -0.0819942057132721, -0.0030582158360630274, 0.049178123474121094, -0.030992036685347557, -0.0048321327194571495, 0.07448318600654602, -0.01331430021673441, 0.039063457399606705, 0.050621334463357925, 0.013411171734333038, -0.014504176564514637, 0.024077419191598892, 0.015733003616333008, 0.0326797217130661, -0.01119990274310112, -0.012641041539609432, -0.014593318104743958, -0.0013929869746789336, 0.008316759020090103, 0.03331415355205536, -0.01723029650747776, 0.014592175371944904, 0.06592033058404922, -0.0023441382218152285, 0.046075206249952316, 0.0033932728692889214, -0.020157767459750175, 0.0017362680518999696, 0.024922490119934082, -0.032209362834692, -0.07193376868963242, -0.04461260512471199, -0.03335295617580414, -0.015351403504610062, -0.03169109672307968, 0.07982194423675537, -0.03537970781326294, -0.03588683530688286, -0.016489028930664062, 0.0023480162490159273, 0.04185521602630615, 0.030589455738663673, -0.005796236917376518, -0.019007645547389984, -0.0024424325674772263, 0.06439261138439178, -0.013412456028163433, -0.010960742831230164, 0.007977377623319626, 0.005854398012161255, -0.017019199207425117, -0.03183853253722191, 0.013406679965555668, -0.031632836908102036, 0.03736152872443199, -0.004260790068656206, 0.0771358534693718, -0.023485949262976646, -0.001532864524051547, -0.0793880969285965, -0.03209976479411125, 0.024059636518359184, 0.035747382789850235, -0.02565668895840645, 0.010001381859183311, 0.0008464386919513345, -0.007293313276022673, -0.027823423966765404, -0.017339887097477913, 0.01380200032144785, 0.0136109609156847, 0.04382488876581192, 0.006991731934249401, -0.007900365628302097, -0.05367542803287506, 0.06217971816658974, 0.003952543251216412, -0.014659696258604527, 0.026048222556710243, -0.017448415979743004, -0.013534014113247395, 0.0726829320192337, 0.026895614340901375, -0.01066396664828062, 0.05207538604736328, 0.06033973768353462, 0.0008347250986844301, 0.0476856604218483, 0.05747395381331444, 0.0002193875116063282, 0.02414637617766857, -0.03663860633969307, -0.04414968192577362, -0.016708366572856903, -0.03758035600185394, -0.044453855603933334, -0.023100579157471657, 0.03814663365483284, -0.027855655178427696, 0.025274425745010376, -0.016588762402534485, -0.035459477454423904, 0.05687052384018898, 0.02029443345963955, 0.03530260920524597, -0.010606007650494576, -0.051177751272916794, 0.012541772797703743, -0.012568330392241478, -0.03213348984718323, 0.005977101624011993, 0.02554119937121868, -0.054746780544519424, -0.020130861550569534, -0.03270804509520531, 0.0653572529554367, 0.026182163506746292, -0.008323960937559605, 0.015361773781478405, -0.006199933122843504, 0.07347966730594635, -0.023740503937005997, 0.006288160104304552, -0.06567128002643585, -0.013274164870381355, 0.024133482947945595, -0.006333012133836746, 0.002409372478723526, 0.03377101570367813, -0.012422250583767891, 0.021602217108011246, 0.007043180055916309, -0.01743648387491703, -0.047671377658843994, 0.005344437900930643, 0.013132269494235516, -0.016128744930028915, 0.07473734021186829, 0.012562384828925133, -0.02133256196975708, -0.0007717424305155873, 0.10815435647964478, 0.106875941157341, -0.028775112703442574, -0.03987845405936241, -0.11518488079309464, -0.05774248391389847, 0.06316456198692322, 0.04926434904336929, 0.001615849556401372, -0.1060931384563446, 0.0649859830737114, -0.13012810051441193, -0.04811239615082741, -0.04873960465192795, 0.016577746719121933, -0.05420781299471855, -0.04938820004463196, 0.04028518125414848, 0.045389242470264435, -0.07258839160203934, 0.0020191511139273643, 0.06239970400929451, -0.04462398961186409, 0.051109958440065384, 0.00731135718524456, -0.06711557507514954, -0.005376490298658609, -0.1355700045824051, -0.053746677935123444, 0.06927116960287094, 0.07264106720685959, 0.08712000399827957, 0.03016878105700016, 0.02956661954522133, -0.038609396666288376, 0.0818558856844902, -0.015174430795013905, 0.028217671439051628, -0.09552229195833206, -0.0677114725112915, 0.055744946002960205, -0.0010606448631733656, -0.00886362511664629, -0.14381708204746246, -0.03561298921704292, -0.04189447686076164, 0.047447796911001205, -0.07130444794893265, 0.04467032849788666, 0.031914789229631424, 0.05069104954600334, -0.11762606352567673, 0.04333164915442467, 0.032383162528276443, 0.03866041824221611, 0.04964011162519455, -0.011209875345230103, -0.03998466208577156, -0.016838058829307556, 0.09193921834230423, 0.03998447209596634, -0.02435045875608921, 0.0642029270529747, -0.01614951714873314, -0.0081409877166152, -0.003430357202887535, -0.015400792472064495, -0.016402017325162888, -0.002411173190921545, 0.011068998835980892, 0.0019229671452194452, -0.007193276658654213, 0.09486401826143265, 0.04103134945034981, -0.047031328082084656, 0.00712241604924202, 0.038985416293144226, -0.004184836987406015, -0.03333333507180214, 0.011971896514296532, 0.009888443164527416, -0.03325770050287247, -0.054199159145355225, -0.047095563262701035, -0.008704202249646187, 0.001417904277332127, 0.013680451549589634, -0.05465809628367424, 0.024166710674762726, -0.051568564027547836, -0.008103732950985432, 0.0519927553832531, 0.09989815950393677, -0.03351067751646042, 0.0034457147121429443, -0.02452142722904682, 0.1057954654097557, -0.011620788834989071, -0.021900009363889694, 0.007769663352519274, 0.0751132220029831, 0.047999169677495956, -0.028914611786603928, -0.025744326412677765, -0.043663814663887024, 0.003104486269876361, 0.005001924932003021, -0.02502266690135002, -0.05402066931128502, 0.07415896654129028, -0.08639076352119446, -0.046322304755449295, 0.014549710787832737, 0.020103944465517998, -0.05497989058494568, -0.03390590474009514, 0.01050621084868908, -0.038172345608472824, -0.0764714777469635, 0.008135216310620308, -0.007501241751015186, -0.03067822754383087, 0.08772540092468262, -0.03335532918572426, -0.061756934970617294, -0.0493399053812027, 0.0529288612306118, -0.02332533709704876, 0.046461332589387894, 0.02034088596701622, -0.021925050765275955, -0.01711706817150116, 0.009349376894533634, -0.019139129668474197, 0.04921187832951546, 0.03290151432156563, 0.10159841179847717, -0.016954343765974045, -0.0044086086563766, 0.03559615835547447, 0.051542188972234726, 0.029361998662352562, -0.07801541686058044, -0.05416995286941528, -0.023908603936433792, 0.052957117557525635, -0.007780186366289854, -0.03486407920718193, 0.02844301052391529, 0.027781136333942413, 0.03011447936296463, -0.018590359017252922, 0.012315575033426285, -0.038000475615262985, 0.03962382301688194, -0.048677533864974976, 0.06524163484573364, -0.03553779050707817, -0.05325369909405708, 0.002426904160529375, 0.04171661660075188, 0.006863482762128115, 0.012095551937818527, 0.06996079534292221, 0.02649230882525444, 0.04999725893139839, 0.0010940321953967214, -0.02911314181983471, 0.014414467848837376, -0.039434973150491714, -0.03526590019464493, 0.0064389668405056, -0.0167743768543005, 0.02549741603434086, -0.03427653759717941, -0.058951910585165024, 0.026453496888279915, 0.021667279303073883, 0.03998640924692154, -0.000509650562889874, -0.03144846111536026, 0.005339925643056631, -0.01211640052497387, 0.015131446532905102, -0.0026342368219047785, -0.06473222374916077, 0.03642936423420906, -0.0007649022154510021, 0.04183352738618851, 0.01527948584407568, 0.0754580944776535, -0.024080118164420128, 0.010319489054381847, 0.02479429543018341, 0.008201896212995052, -0.05979989096522331, -0.015328610315918922, 0.03609774634242058, 0.018254633992910385, -0.0035366606898605824, 0.12602275609970093, 0.052676353603601456, -0.0481104701757431, 0.07160770148038864, 0.014455646276473999, -0.049915313720703125, 0.023606495931744576, -0.09735388308763504, 0.035815656185150146, 0.045218076556921005, -0.05993257462978363, -0.06283490359783173, 0.05140833929181099, -0.07093791663646698, 0.007481961976736784, -0.002543906681239605, -0.014184575527906418, -0.029289720579981804, 0.03146994858980179, 0.0026135507505387068, 0.0439145565032959, -0.013033811002969742, -0.048578906804323196, 0.04818839952349663, -0.029224392026662827, 0.0019376878626644611, -0.06957022100687027, -0.03884529694914818, -0.009987816214561462, 0.03567589819431305, 0.07657628506422043, -0.012175112962722778, -0.018651185557246208, 0.009490054100751877, -0.010020943358540535, -0.03068532794713974, -0.0325346477329731, 0.042245544493198395, -0.00686138030141592, -0.017836373299360275, 0.07952761650085449, -0.09781386703252792, -0.06520118564367294, 0.0317864790558815, 0.023533692583441734, -0.003091190941631794, -0.014260843396186829, -0.023106776177883148, -0.05511930212378502, -0.020947158336639404, -0.0065000783652067184, -0.06627331674098969, -0.06447398662567139, -0.031852997839450836, 0.004740564152598381, -0.0030620743054896593, 0.0021925168111920357, 0.1001255065202713, 0.00142195844091475, 0.04758073017001152, -0.004971059504896402, -0.029637806117534637, -0.040660109370946884, 0.0019295437959954143, -0.065073661506176, -0.02499113604426384, -0.015757806599140167, -0.012118387967348099, 0.03345941752195358, 0.05973101779818535, -0.018431872129440308, 0.027953438460826874, -0.039457615464925766, -0.011067938059568405, 0.10954822599887848, 0.050210557878017426, -0.02661806158721447, 0.07227931916713715, 0.00214931508526206, -0.011858991347253323, -0.05720098689198494, -0.03093430958688259, 0.016558466479182243, -0.08776582777500153, -0.008783441968262196, 0.02884906530380249, 0.0013870270922780037, 0.05705735459923744, 0.009431939572095871, 0.04715324193239212, 0.03235936537384987, 0.04507100582122803, 0.05244346335530281, 0.012262212112545967, -0.0851549357175827, -0.02787749096751213, 0.04441339150071144, -0.0595543347299099, -0.12447737902402878, -0.005952822044491768, 0.003499163081869483, 0.01113948319107294, 0.00045054341899231076, -0.015384952537715435, 0.038783133029937744, 0.037540268152952194, 0.044756945222616196, -0.08511262387037277, 0.01783483661711216, 0.014400053769350052, -0.050927624106407166, -0.06274957209825516, 0.04756172001361847, 0.01242311391979456, 0.01282461080700159, 0.048438169062137604]}, "action_queries": {"shape": [5, 64], "data": [-0.07289766520261765, -0.12067747116088867, 0.20054632425308228, 0.03384140878915787, -0.06671090424060822, 0.041533809155225754, 0.12381233274936676, -0.0706837996840477, -0.1789156198501587, 0.03976721316576004, 0.19216978549957275, -0.08635557442903519, 0.12287765741348267, -0.14205880463123322, -0.005158661864697933, -0.10291744768619537, -0.028158606961369514, 0.03137660771608353, -0.003666250267997384, 0.11025513708591461, 0.09523653984069824, -0.1665155291557312, -0.058371543884277344, -0.0021419692784547806, 0.13745751976966858, 0.09043269604444504, -0.059063252061605453, 0.13032643496990204, 0.011327138170599937, 0.0012232046574354172, 0.08975865691900253, 0.07046698778867722, -0.06502904742956161, 0.13878434896469116, -0.06329134106636047, 0.02284056693315506, -0.25726762413978577, -0.16076073050498962, 0.04063330963253975, 0.12441494315862656, 0.18928933143615723, -0.034928105771541595, 0.04438069090247154, 0.16497236490249634, -0.07488662749528885, -0.005788649432361126, 0.1665642261505127, -0.039078645408153534, -0.03473079949617386, -0.07962655276060104, -0.01600847765803337, 0.058621279895305634, -0.23409700393676758, 0.11879133433103561, -0.05699273943901062, -0.04744073748588562, -0.03434797376394272, -0.09510761499404907, -0.005998955573886633, 0.16621197760105133, -0.1275792270898819, 0.06363783031702042, -0.03572370484471321, -0.07877103239297867, -0.017747851088643074, -0.08180419355630875, 0.05402705445885658, 0.11734030395746231, -0.13512873649597168, 0.0018632430583238602, -0.0722016841173172, -0.1619710922241211, -0.024096645414829254, -0.0514996312558651, -0.026323871687054634, -0.0886981263756752, 0.06353295594453812, -0.013770746067166328, 0.010381124913692474, 0.03549647331237793, 0.09823165088891983, -0.10375357419252396, -0.005812386050820351, 0.07923656702041626, -0.021108565852046013, -0.025597449392080307, 0.06190026178956032, 0.03850383684039116, 0.1009313315153122, 0.06978264451026917, 0.06539952754974365, 0.11248570680618286, -0.09954957664012909, -0.07297135144472122, 0.051244813948869705, -0.03448143228888512, 0.05921259522438049, 0.07172928750514984, 0.055025625973939896, 0.07644150406122208, -0.0946996733546257, -0.13041092455387115, 0.023827414959669113, 0.10385720431804657, 0.0846618264913559, 0.04203658178448677, 0.07366539537906647, 0.07469898462295532, 0.0636482834815979, -0.04470021650195122, 0.0038078685756772757, -0.07907573133707047, 0.025347091257572174, -0.13480742275714874, -0.0875982791185379, 0.038502223789691925, -0.17539170384407043, 0.1335037648677826, -0.10326477885246277, -0.029256990179419518, -0.06520025432109833, 0.0042991540394723415, -0.12524908781051636, 0.08575832098722458, -0.04092315211892128, 0.1664748191833496, 0.054484281688928604, -0.033497948199510574, 0.02395758032798767, -0.0012676138430833817, 0.1044129952788353, -0.004243497736752033, -0.05718056857585907, 0.049073778092861176, 0.076626718044281, -0.07270890474319458, -0.043238621205091476, 0.06443816423416138, 0.07759225368499756, -0.0960763543844223, 0.01987256109714508, -0.20801346004009247, 0.019675496965646744, -0.05453084036707878, 0.07965056598186493, -0.035203028470277786, 0.03764616698026657, -0.06174221262335777, -0.06317802518606186, -0.24732737243175507, 0.05194464698433876, 0.10502959787845612, 0.048325806856155396, 0.09268636256456375, -0.06426374614238739, 0.10062386840581894, 0.019855160266160965, 0.062411241233348846, -0.07358602434396744, -0.10828106850385666, 0.05267498642206192, -0.06751684099435806, -0.03580699488520622, 0.029680006206035614, -0.07880628854036331, -0.09715523570775986, 0.02911437302827835, 0.07970470935106277, 0.08752421289682388, -0.0071128373965620995, 0.06813560426235199, 0.057276755571365356, -0.0871361717581749, -0.04058432579040527, 0.10800337791442871, -0.07752254605293274, -0.03618315979838371, -0.029036054387688637, 0.0377708375453949, -0.11938425153493881, 0.1097600907087326, -0.02787243388593197, -0.028461351990699768, -0.029936334118247032, 0.0004766490310430527, -0.003544991370290518, 0.026242077350616455, 0.13070547580718994, -0.026597995311021805, 0.18046905100345612, -0.022265151143074036, -0.04250642657279968, 0.02721549943089485, 0.023931363597512245, -0.1392759084701538, 0.0454430878162384, 0.033030904829502106, -0.09945801645517349, -0.09693417698144913, 0.07510274648666382, 0.07765039801597595, -0.061017271131277084, -0.09860638529062271, 0.06184495985507965, -0.057724278420209885, 0.11886142194271088, 0.030922839418053627, 0.1260671466588974, -0.0007654446526430547, -0.0529656708240509, -0.024927789345383644, -0.039506614208221436, -0.04259875789284706, 0.16435125470161438, -0.017106950283050537, -0.0033494443632662296, -0.13308273255825043, -0.049267999827861786, 0.03928881883621216, -0.14304094016551971, -0.025384308770298958, -0.03750338777899742, -0.018682297319173813, -0.040845561772584915, -9.36132128117606e-05, -0.01602368988096714, 0.03246704488992691, 0.02369645982980728, 0.16175760328769684, 0.0904659703373909, 0.021360641345381737, -0.10014495253562927, -0.12653668224811554, 0.01681356504559517, -0.017036505043506622, -0.09861303865909576, 0.08936447650194168, 0.0008680765749886632, -0.1151396781206131, 0.08559327572584152, 0.030259767547249794, 0.055309515446424484, -0.04888199269771576, 0.012570841237902641, 0.09844460338354111, -0.05407154560089111, 0.028363095596432686, 0.020232895389199257, 0.02321040816605091, 0.11079472303390503, -0.006465970538556576, -0.13878116011619568, 0.047040604054927826, -0.09364847093820572, -0.0005207532085478306, 0.06584544479846954, 0.060237787663936615, 0.12810583412647247, -0.22660109400749207, -0.1453886330127716, 0.13678932189941406, -0.09180055558681488, -0.029257789254188538, 0.2610390782356262, 0.13528332114219666, 0.01203352864831686, -0.07224096357822418, 0.21402086317539215, -0.08003565669059753, 0.19349001348018646, -0.011240958236157894, 0.03782863914966583, -0.13695669174194336, 0.0787934809923172, -0.04697791859507561, -0.1119740903377533, 0.0034458888694643974, 0.2549544870853424, -0.10210934281349182, -0.07948891073465347, -0.16762711107730865, -0.175470769405365, 0.020166706293821335, -0.2683092951774597, 0.055464982986450195, 0.04188894107937813, -0.08364593237638474, 0.14690940082073212, -0.00907312985509634, -0.09156258404254913, 0.0378107912838459, -0.13621094822883606, 0.24310621619224548, 0.19434939324855804, 0.0061940099112689495, -0.20752213895320892, -0.19302792847156525, -0.004910139832645655, -0.11432632803916931, -0.17084412276744843, 0.013493271544575691, 0.04816374555230141, -0.1820392906665802, 0.18717730045318604, 0.05434366315603256, 0.1417839527130127, 0.1065378412604332, -0.01744071952998638, 0.2615415155887604, -0.1479272097349167, 0.12137483060359955, 0.08200053125619888, 0.04706858843564987, 0.010186255909502506, 0.10467711836099625, -0.23703719675540924, 0.08404742181301117, -0.34465810656547546, -0.04380916804075241, 0.12297163903713226]}, "conv1.weight": {"shape": [16, 3, 3, 3], "data": [0.2848268449306488, 0.5212812423706055, 0.17639490962028503, 0.5712997317314148, 0.44087842106819153, 0.5363442301750183, 0.17015033960342407, 0.6231900453567505, 0.5737264752388, -0.24026072025299072, 0.09074369072914124, -0.1284288763999939, 0.09021812677383423, -0.08698306977748871, 0.06791036576032639, -0.052698783576488495, 0.24971316754817963, 0.09789487719535828, -0.33212989568710327, -0.19374322891235352, -0.3456271290779114, -0.29513394832611084, -0.4471525251865387, -0.13711529970169067, -0.3315465748310089, -0.1929396390914917, -0.13161560893058777, -0.18280823528766632, 0.09669534862041473, -0.22811362147331238, 0.3450202941894531, -0.08893321454524994, 0.08082728832960129, 0.050791289657354355, -0.10422299057245255, 0.2594658136367798, 0.09810926765203476, 0.3679717481136322, 0.11606581509113312, 0.27295196056365967, 0.2642039656639099, 0.05937870964407921, 0.20847205817699432, 0.2580324709415436, 0.41948822140693665, -0.21973277628421783, 0.08186125010251999, -0.06377521902322769, 0.12784184515476227, -0.11081104725599289, -0.33104708790779114, -0.15760140120983124, -0.2927890419960022, 0.2329050898551941, 0.13659699261188507, 0.15387965738773346, 0.06921438127756119, 0.02623557671904564, 0.23497110605239868, -0.09244014322757721, 0.09833535552024841, 0.11542840301990509, 0.10968948155641556, -0.01888466253876686, 0.07904878258705139, -0.07910731434822083, 0.1555560827255249, -0.06913408637046814, -0.11933086812496185, -0.08215514570474625, 0.3562285304069519, 0.05470756068825722, 0.22651389241218567, -0.15431004762649536, -0.23948967456817627, -0.14454731345176697, -0.07840016484260559, 0.07908689975738525, 0.11235395073890686, 0.365606427192688, -0.07775365561246872, -0.1632845103740692, 0.10327110439538956, -0.07950646430253983, 0.05463903397321701, -0.06604751199483871, 0.05052304267883301, -0.18325789272785187, -0.12893818318843842, -0.02252122201025486, 0.14661218225955963, 0.10547877848148346, 0.23815061151981354, 0.26091599464416504, 0.03286159411072731, 0.0539257749915123, 0.30365079641342163, 0.08380819112062454, 0.0587124265730381, -0.33186793327331543, -0.250217080116272, -0.08359138667583466, -0.24913305044174194, -0.3106640875339508, -0.17625272274017334, -0.28558245301246643, -0.3146675229072571, -0.2491578757762909, -0.16826029121875763, -0.11690616607666016, 0.21959660947322845, 0.061565060168504715, 0.07625911384820938, -0.1728428304195404, -0.12150993198156357, -0.06268982589244843, 